{"learner":{"attributes":{"scikit_learn":"{\"_estimator_type\": \"classifier\"}"},"feature_names":["z_score","rsi","volatility","adx","time_sin","volume_delta","bb_width","bb_position","atr_pct","dist_pivot","roc_5","roc_10","roc_20","macd","velocity","close_lag1","close_lag2","close_lag3","returns_lag1","returns_lag2","sentiment","sentiment_ma7","sentiment_std7"],"feature_types":["float","float","float","float","float","float","float","float","float","float","float","float","float","float","float","float","float","float","float","float","float","float","float"],"gradient_booster":{"model":{"cats":{"enc":[],"feature_segments":[],"sorted_idx":[]},"gbtree_model_param":{"num_parallel_tree":"1","num_trees":"600"},"iteration_indptr":[0,3,6,9,12,15,18,21,24,27,30,33,36,39,42,45,48,51,54,57,60,63,66,69,72,75,78,81,84,87,90,93,96,99,102,105,108,111,114,117,120,123,126,129,132,135,138,141,144,147,150,153,156,159,162,165,168,171,174,177,180,183,186,189,192,195,198,201,204,207,210,213,216,219,222,225,228,231,234,237,240,243,246,249,252,255,258,261,264,267,270,273,276,279,282,285,288,291,294,297,300,303,306,309,312,315,318,321,324,327,330,333,336,339,342,345,348,351,354,357,360,363,366,369,372,375,378,381,384,387,390,393,396,399,402,405,408,411,414,417,420,423,426,429,432,435,438,441,444,447,450,453,456,459,462,465,468,471,474,477,480,483,486,489,492,495,498,501,504,507,510,513,516,519,522,525,528,531,534,537,540,543,546,549,552,555,558,561,564,567,570,573,576,579,582,585,588,591,594,597,600],"tree_info":[0,1,2,0,1,2,0,1,2,0,1,2,0,1,2,0,1,2,0,1,2,0,1,2,0,1,2,0,1,2,0,1,2,0,1,2,0,1,2,0,1,2,0,1,2,0,1,2,0,1,2,0,1,2,0,1,2,0,1,2,0,1,2,0,1,2,0,1,2,0,1,2,0,1,2,0,1,2,0,1,2,0,1,2,0,1,2,0,1,2,0,1,2,0,1,2,0,1,2,0,1,2,0,1,2,0,1,2,0,1,2,0,1,2,0,1,2,0,1,2,0,1,2,0,1,2,0,1,2,0,1,2,0,1,2,0,1,2,0,1,2,0,1,2,0,1,2,0,1,2,0,1,2,0,1,2,0,1,2,0,1,2,0,1,2,0,1,2,0,1,2,0,1,2,0,1,2,0,1,2,0,1,2,0,1,2,0,1,2,0,1,2,0,1,2,0,1,2,0,1,2,0,1,2,0,1,2,0,1,2,0,1,2,0,1,2,0,1,2,0,1,2,0,1,2,0,1,2,0,1,2,0,1,2,0,1,2,0,1,2,0,1,2,0,1,2,0,1,2,0,1,2,0,1,2,0,1,2,0,1,2,0,1,2,0,1,2,0,1,2,0,1,2,0,1,2,0,1,2,0,1,2,0,1,2,0,1,2,0,1,2,0,1,2,0,1,2,0,1,2,0,1,2,0,1,2,0,1,2,0,1,2,0,1,2,0,1,2,0,1,2,0,1,2,0,1,2,0,1,2,0,1,2,0,1,2,0,1,2,0,1,2,0,1,2,0,1,2,0,1,2,0,1,2,0,1,2,0,1,2,0,1,2,0,1,2,0,1,2,0,1,2,0,1,2,0,1,2,0,1,2,0,1,2,0,1,2,0,1,2,0,1,2,0,1,2,0,1,2,0,1,2,0,1,2,0,1,2,0,1,2,0,1,2,0,1,2,0,1,2,0,1,2,0,1,2,0,1,2,0,1,2,0,1,2,0,1,2,0,1,2,0,1,2,0,1,2,0,1,2,0,1,2,0,1,2,0,1,2,0,1,2,0,1,2,0,1,2,0,1,2,0,1,2,0,1,2,0,1,2,0,1,2,0,1,2,0,1,2,0,1,2,0,1,2,0,1,2,0,1,2,0,1,2,0,1,2,0,1,2,0,1,2,0,1,2,0,1,2,0,1,2,0,1,2,0,1,2,0,1,2,0,1,2,0,1,2,0,1,2,0,1,2,0,1,2,0,1,2,0,1,2,0,1,2,0,1,2,0,1,2,0,1,2,0,1,2,0,1,2,0,1,2,0,1,2,0,1,2,0,1,2,0,1,2,0,1,2,0,1,2,0,1,2,0,1,2,0,1,2],"trees":[{"base_weights":[-1.4688686E-1,-3.0131242E-1,-1.3935876E-1,-2.6210785E-1,-5.1364905E-1,-1.4411363E-1,-1.9668169E-4,4.097483E-1,-2.7288175E-1,3.555833E-1,-5.545068E-1,-1.4108141E-1,-3.8218316E-1,-5.7505548E-2,6.635921E-1,-2.1539738E-2,8.8501847E-1,-2.8062317E-1,4.2895383E-1,-1.7799553E-2,5.2709308E-2,-5.757722E-1,9.587186E-3,-1.5015075E-1,-8.692396E-2,2.4571937E-1,-4.2933127E-1,-7.343179E-2,9.4650334E-1,7.948014E-1,-1.0687778E-1,6.1208297E-2,1.3569194E-2,3.3935837E-3,-1.4787373E-2,5.9559952E-2,-2.0479372E-2,-2.2957183E-2,-3.3521485E-2,-6.356033E-3,-9.505909E-3,-1.1470425E-2,5.796263E-4,-1.8312084E-2,4.4250924E-2,-2.225825E-2,2.4025442E-2,-5.4639503E-3,1.757299E-2,6.501521E-2,6.854848E-3,2.0416217E-2,5.2965917E-2,2.9782075E-2,-2.9814541E-2],"categories":[],"categories_nodes":[],"categories_segments":[],"categories_sizes":[],"default_left":[0,0,0,0,0,0,0,0,0,0,0,0,0,0,0,0,0,0,0,0,0,0,0,0,0,0,0,0,0,0,0,0,0,0,0,0,0,0,0,0,0,0,0,0,0,0,0,0,0,0,0,0,0,0,0],"id":0,"left_children":[1,3,5,7,9,11,13,15,17,19,21,23,25,27,29,-1,31,33,35,-1,-1,37,-1,39,41,43,45,47,49,51,53,-1,-1,-1,-1,-1,-1,-1,-1,-1,-1,-1,-1,-1,-1,-1,-1,-1,-1,-1,-1,-1,-1,-1,-1],"loss_changes":[2.7076263E1,8.884575E0,1.4719055E1,6.746784E0,6.157303E0,1.5473389E1,2.803387E1,6.3202906E0,5.0252304E0,4.423456E0,2.660244E0,1.0419739E1,8.096619E0,1.091666E1,6.005741E0,0E0,1.7123351E0,4.7295456E0,7.035902E0,0E0,0E0,1.4196243E0,0E0,1.67211E1,4.2803875E1,7.948716E0,3.8362045E0,1.0223545E1,2.875761E0,4.6956806E0,3.5885015E0,0E0,0E0,0E0,0E0,0E0,0E0,0E0,0E0,0E0,0E0,0E0,0E0,0E0,0E0,0E0,0E0,0E0,0E0,0E0,0E0,0E0,0E0,0E0,0E0],"parents":[2147483647,0,0,1,1,2,2,3,3,4,4,5,5,6,6,7,7,8,8,9,9,10,10,11,11,12,12,13,13,14,14,16,16,17,17,18,18,21,21,23,23,24,24,25,25,26,26,27,27,28,28,29,29,30,30],"right_children":[2,4,6,8,10,12,14,16,18,20,22,24,26,28,30,-1,32,34,36,-1,-1,38,-1,40,42,44,46,48,50,52,54,-1,-1,-1,-1,-1,-1,-1,-1,-1,-1,-1,-1,-1,-1,-1,-1,-1,-1,-1,-1,-1,-1,-1,-1],"split_conditions":[5.3415E-1,2.8217137E-3,1.91383E2,7.181361E0,-1.2312791E-3,1.87748E2,4.322532E1,-5.5669107E-2,6.8511674E-4,-3.9013833E-1,1.6249784E-3,9.7894E1,2.3418755E1,5.1943418E-3,3.1197738E-2,-2.1539738E-2,5.20439E-1,2.1000574E1,5.16979E-1,-1.7799553E-2,5.2709308E-2,-2.7523085E-1,9.587186E-3,1.359899E0,1.7654255E1,2.3380928E-2,5.9392845E1,1.9378097E0,5.381074E1,1.61481E-3,2.9338726E-3,6.1208297E-2,1.3569194E-2,3.3935837E-3,-1.4787373E-2,5.9559952E-2,-2.0479372E-2,-2.2957183E-2,-3.3521485E-2,-6.356033E-3,-9.505909E-3,-1.1470425E-2,5.796263E-4,-1.8312084E-2,4.4250924E-2,-2.225825E-2,2.4025442E-2,-5.4639503E-3,1.757299E-2,6.501521E-2,6.854848E-3,2.0416217E-2,5.2965917E-2,2.9782075E-2,-2.9814541E-2],"split_indices":[15,2,16,3,13,15,3,9,13,9,13,17,1,2,6,0,15,1,15,0,0,0,0,17,3,6,3,0,1,2,2,0,0,0,0,0,0,0,0,0,0,0,0,0,0,0,0,0,0,0,0,0,0,0,0],"split_type":[0,0,0,0,0,0,0,0,0,0,0,0,0,0,0,0,0,0,0,0,0,0,0,0,0,0,0,0,0,0,0,0,0,0,0,0,0,0,0,0,0,0,0,0,0,0,0,0,0,0,0,0,0,0,0],"sum_hessian":[2.3325906E4,1.0824437E3,2.224346E4,9.15623E2,1.6682071E2,2.1508525E4,7.3493555E2,1.3866709E1,9.017563E2,7.143456E0,1.5967725E2,2.1239596E4,2.689301E2,6.7736774E2,5.7567852E1,5.0424395E0,8.824269E0,8.925118E2,9.2444725E0,3.7818296E0,3.3616264E0,1.5547522E2,4.202033E0,1.8191441E4,3.0481548E3,1.8488945E1,2.5044116E2,6.6770306E2,9.664676E0,4.9163784E1,8.404066E0,5.0424395E0,3.7818296E0,3.697789E1,8.5553394E2,4.6222363E0,4.6222363E0,7.227497E1,8.320026E1,1.1543825E4,6.647616E3,1.2454825E3,1.8026721E3,9.664676E0,8.824269E0,2.4665933E2,3.7818296E0,6.1643823E2,5.12648E1,6.3030496E0,3.3616264E0,2.1010164E1,2.8153622E1,3.3616264E0,5.0424395E0],"tree_param":{"num_deleted":"0","num_feature":"23","num_nodes":"55","size_leaf_vector":"1"}},{"base_weights":[2.5508064E-1,1.3864028E-1,3.7605837E-1,-1.6196692E-1,1.5757114E-1,4.5457363E-1,1.5405329E-1,-2.7088815E-1,1.695892E-2,1.2367002E-1,2.345175E-1,3.812096E-1,6.0222286E-1,-2.977525E-3,2.0856209E-1,-3.0202752E-1,2.5940788E-1,4.1486713E-1,-6.756497E-2,1.625224E-1,4.3291762E-2,2.7332962E-1,1.1839515E-1,4.8341176E-1,3.0686182E-1,1.7126133E-1,6.2776554E-1,-3.4301054E-2,6.2836015E-1,1.6725911E-1,8.853205E-1,-3.7323036E-3,-1.8012961E-2,2.469754E-4,3.960643E-2,2.617699E-2,-3.368146E-2,-6.0977642E-3,2.6765654E-2,-5.621651E-4,9.3096895E-3,1.2535643E-3,2.207671E-2,1.3020435E-2,2.8273985E-2,-3.1725515E-3,8.384472E-3,2.4951207E-2,4.6955943E-3,1.3210286E-2,2.1984514E-2,2.2027309E-3,4.4134792E-2,3.8694452E-2,2.8643457E-2,-1.257947E-2,2.1983716E-3,-2.0475503E-2,3.648747E-2,1.7876735E-2,6.8773157E-3,3.5345968E-2,5.6108695E-2],"categories":[],"categories_nodes":[],"categories_segments":[],"categories_sizes":[],"default_left":[0,0,0,0,0,0,0,0,0,0,0,0,0,0,0,0,0,0,0,0,0,0,0,0,0,0,0,0,0,0,0,0,0,0,0,0,0,0,0,0,0,0,0,0,0,0,0,0,0,0,0,0,0,0,0,0,0,0,0,0,0,0,0],"id":1,"left_children":[1,3,5,7,9,11,13,15,17,19,21,23,25,27,29,31,33,35,37,39,41,43,45,47,49,51,53,55,57,59,61,-1,-1,-1,-1,-1,-1,-1,-1,-1,-1,-1,-1,-1,-1,-1,-1,-1,-1,-1,-1,-1,-1,-1,-1,-1,-1,-1,-1,-1,-1,-1,-1],"loss_changes":[3.7541467E2,7.7324615E1,2.2778076E2,1.5697527E1,3.330606E1,1.0436597E2,2.9245995E1,8.344608E0,1.0307503E1,2.770198E1,1.7577118E1,4.888861E1,3.515674E1,1.7451616E1,7.0747E1,6.2397957E0,3.8327947E0,6.7035418E0,8.359689E0,2.4604492E1,2.0978655E1,1.0904114E1,8.80016E0,1.6468689E1,2.1066345E1,1.6307262E1,2.3813477E1,1.4308237E1,4.688389E0,1.347229E1,5.3613815E0,0E0,0E0,0E0,0E0,0E0,0E0,0E0,0E0,0E0,0E0,0E0,0E0,0E0,0E0,0E0,0E0,0E0,0E0,0E0,0E0,0E0,0E0,0E0,0E0,0E0,0E0,0E0,0E0,0E0,0E0,0E0,0E0],"parents":[2147483647,0,0,1,1,2,2,3,3,4,4,5,5,6,6,7,7,8,8,9,9,10,10,11,11,12,12,13,13,14,14,15,15,16,16,17,17,18,18,19,19,20,20,21,21,22,22,23,23,24,24,25,25,26,26,27,27,28,28,29,29,30,30],"right_children":[2,4,6,8,10,12,14,16,18,20,22,24,26,28,30,32,34,36,38,40,42,44,46,48,50,52,54,56,58,60,62,-1,-1,-1,-1,-1,-1,-1,-1,-1,-1,-1,-1,-1,-1,-1,-1,-1,-1,-1,-1,-1,-1,-1,-1,-1,-1,-1,-1,-1,-1,-1,-1],"split_conditions":[2.7502707E-1,6.63519E-1,9.2284E1,2.5871572E-1,2.4251607E-1,3.6836016E-1,-7.660423E-1,7.639823E-1,1.2473288E-3,1.778789E0,2.12315E0,1.690807E-3,-1.9723994E0,8.3552533E-1,5.5559784E-1,1.279414E-3,2.9186954E1,4.044219E1,5.3891254E-4,9.057E-1,1.8292627E-3,2.064909E0,-2.5522444E-1,2.05428E0,1.365299E0,1.291138E0,5.3429E-1,2.3036895E-3,1.9666324E-3,-5.1401603E-1,9.455879E-1,-3.7323036E-3,-1.8012961E-2,2.469754E-4,3.960643E-2,2.617699E-2,-3.368146E-2,-6.0977642E-3,2.6765654E-2,-5.621651E-4,9.3096895E-3,1.2535643E-3,2.207671E-2,1.3020435E-2,2.8273985E-2,-3.1725515E-3,8.384472E-3,2.4951207E-2,4.6955943E-3,1.3210286E-2,2.1984514E-2,2.2027309E-3,4.4134792E-2,3.8694452E-2,2.8643457E-2,-1.257947E-2,2.1983716E-3,-2.0475503E-2,3.648747E-2,1.7876735E-2,6.8773157E-3,3.5345968E-2,5.6108695E-2],"split_indices":[8,16,17,8,8,8,12,11,2,17,17,2,12,9,8,2,3,3,13,17,2,16,11,16,15,15,17,2,2,11,12,0,0,0,0,0,0,0,0,0,0,0,0,0,0,0,0,0,0,0,0,0,0,0,0,0,0,0,0,0,0,0,0],"split_type":[0,0,0,0,0,0,0,0,0,0,0,0,0,0,0,0,0,0,0,0,0,0,0,0,0,0,0,0,0,0,0,0,0,0,0,0,0,0,0,0,0,0,0,0,0,0,0,0,0,0,0,0,0,0,0,0,0,0,0,0,0,0,0],"sum_hessian":[2.665302E4,1.3582292E4,1.3070729E4,8.0422723E2,1.2778064E4,9.655038E3,3.4156907E3,4.9958844E2,3.046388E2,8.871887E3,3.9061782E3,6.4524985E3,3.2025393E3,8.8038696E2,2.5353037E3,4.7228592E2,2.7302532E1,5.26891E1,2.5194969E2,5.980213E3,2.8916736E3,2.92664E3,9.7953827E2,2.7149255E3,3.737573E3,1.7962193E2,3.0229172E3,8.396726E2,4.0714302E1,2.3906482E3,1.4465553E2,9.675635E1,3.7552957E2,1.9159672E1,8.14286E0,4.8378174E1,4.3109264E0,2.3183203E2,2.0117657E1,7.170507E2,5.263162E3,2.7661777E3,1.2549585E2,2.804497E3,1.22142914E2,2.0884042E2,7.706978E2,2.6100264E3,1.0489921E2,2.8313206E3,9.062525E2,1.5327737E2,2.634455E1,8.2194995E2,2.2009673E3,2.2177321E2,6.178994E2,3.3529427E0,3.7361362E1,3.214035E2,2.0692446E3,8.478155E1,5.9873978E1],"tree_param":{"num_deleted":"0","num_feature":"23","num_nodes":"63","size_leaf_vector":"1"}},{"base_weights":[-1.372756E-1,-2.5420335E-1,-5.981015E-2,-1.3309953E-1,-3.2142344E-1,2.0018872E-3,-1.3011584E-1,-5.5866517E-2,-3.1246907E-1,1.540869E-1,-3.3032626E-1,-3.754006E-2,8.620642E-2,-5.5170916E-2,-1.731433E-1,1.4585194E-2,-1.1507265E-1,-1.924085E-1,-4.3312007E-1,-1.4771272E-1,8.581401E-1,-2.7617672E-1,-4.1560125E-1,1.7994205E-2,-6.715672E-2,7.369962E-2,7.165871E-1,-5.119529E-3,-1.7416514E-1,-1.3713361E-1,-2.902868E-1,2.208771E-2,-4.1275076E-4,-1.1668605E-2,-3.4092348E-3,-2.027142E-3,-1.9258222E-2,-2.552923E-2,-1.5291478E-2,-2.4976695E-2,3.9532944E-3,5.165249E-2,-5.170663E-3,-1.2107833E-2,-1.915953E-2,-1.753643E-2,-2.5700761E-2,6.9899275E-3,-1.676894E-3,1.4296079E-2,-3.8774684E-3,4.462148E-3,-8.123394E-3,1.1526118E-2,6.1273128E-2,7.130494E-3,-3.1521458E-3,-4.3427018E-3,-1.476031E-2,-1.0383256E-2,-2.6409263E-3,2.8703776E-3,-1.616439E-2],"categories":[],"categories_nodes":[],"categories_segments":[],"categories_sizes":[],"default_left":[0,0,0,0,0,0,0,0,0,0,0,0,0,0,0,0,0,0,0,0,0,0,0,0,0,0,0,0,0,0,0,0,0,0,0,0,0,0,0,0,0,0,0,0,0,0,0,0,0,0,0,0,0,0,0,0,0,0,0,0,0,0,0],"id":2,"left_children":[1,3,5,7,9,11,13,15,17,19,21,23,25,27,29,31,33,35,37,39,41,43,45,47,49,51,53,55,57,59,61,-1,-1,-1,-1,-1,-1,-1,-1,-1,-1,-1,-1,-1,-1,-1,-1,-1,-1,-1,-1,-1,-1,-1,-1,-1,-1,-1,-1,-1,-1,-1,-1],"loss_changes":[2.1234741E2,7.601123E1,6.12907E1,4.6202835E1,2.5481323E1,2.4995703E1,2.1268402E1,9.734835E0,1.4459854E1,2.373024E1,2.7115356E1,8.403049E0,1.8859507E1,1.4341263E1,1.7640625E1,1.0408231E1,7.0175743E0,1.4767979E1,4.773735E0,6.31121E0,5.7371464E0,1.3048889E1,1.4429108E1,1.1161944E1,1.2247877E1,8.652904E0,1.1231981E1,1.4522724E1,7.5091E0,1.906528E1,1.1315956E1,0E0,0E0,0E0,0E0,0E0,0E0,0E0,0E0,0E0,0E0,0E0,0E0,0E0,0E0,0E0,0E0,0E0,0E0,0E0,0E0,0E0,0E0,0E0,0E0,0E0,0E0,0E0,0E0,0E0,0E0,0E0,0E0],"parents":[2147483647,0,0,1,1,2,2,3,3,4,4,5,5,6,6,7,7,8,8,9,9,10,10,11,11,12,12,13,13,14,14,15,15,16,16,17,17,18,18,19,19,20,20,21,21,22,22,23,23,24,24,25,25,26,26,27,27,28,28,29,29,30,30],"right_children":[2,4,6,8,10,12,14,16,18,20,22,24,26,28,30,32,34,36,38,40,42,44,46,48,50,52,54,56,58,60,62,-1,-1,-1,-1,-1,-1,-1,-1,-1,-1,-1,-1,-1,-1,-1,-1,-1,-1,-1,-1,-1,-1,-1,-1,-1,-1,-1,-1,-1,-1,-1,-1],"split_conditions":[9.81639E-1,2.8105894E-1,2.552713E-1,9.10459E-1,-2.1675482E0,1.9012E0,-7.6756394E-4,2.485275E-1,2.0028528E1,-3.7152163E-4,3.6836016E-1,1.8847257E-1,8.939462E1,3.918394E-1,1.8511986E-2,3.9939345E-3,7.2992044E-3,2.2641541E-1,2.07714E-1,3.8110092E1,6.68062E-4,8.6799E-1,5.017146E-1,1.275526E0,7.39524E0,1.98577E2,4.4194546E1,-8.447471E-1,-6.5592545E-1,1.0541348E-3,-1.4583873E0,2.208771E-2,-4.1275076E-4,-1.1668605E-2,-3.4092348E-3,-2.027142E-3,-1.9258222E-2,-2.552923E-2,-1.5291478E-2,-2.4976695E-2,3.9532944E-3,5.165249E-2,-5.170663E-3,-1.2107833E-2,-1.915953E-2,-1.753643E-2,-2.5700761E-2,6.9899275E-3,-1.676894E-3,1.4296079E-2,-3.8774684E-3,4.462148E-3,-8.123394E-3,1.1526118E-2,6.1273128E-2,7.130494E-3,-3.1521458E-3,-4.3427018E-3,-1.476031E-2,-1.0383256E-2,-2.6409263E-3,2.8703776E-3,-1.616439E-2],"split_indices":[16,8,8,16,12,15,13,8,3,13,8,8,1,8,6,6,6,8,12,3,13,15,0,16,3,16,3,12,12,13,12,0,0,0,0,0,0,0,0,0,0,0,0,0,0,0,0,0,0,0,0,0,0,0,0,0,0,0,0,0,0,0,0],"split_type":[0,0,0,0,0,0,0,0,0,0,0,0,0,0,0,0,0,0,0,0,0,0,0,0,0,0,0,0,0,0,0,0,0,0,0,0,0,0,0,0,0,0,0,0,0,0,0,0,0,0,0,0,0,0,0,0,0,0,0,0,0,0,0],"sum_hessian":[2.3444117E4,9.341543E3,1.4102575E4,3.3354219E3,6.006121E3,7.5051206E3,6.597454E3,2.3324333E3,1.00298846E3,1.1008411E2,5.896037E3,5.107312E3,2.3978088E3,2.4070881E3,4.190366E3,1.0654116E3,1.2670216E3,5.040249E2,4.989636E2,7.7607185E1,3.247692E1,3.6087341E3,2.287303E3,1.7765297E3,3.3307822E3,2.3522568E3,4.5552044E1,1.6951265E3,7.1196155E2,3.2067795E3,9.835867E2,5.314405E1,1.01226764E3,3.5851144E2,9.085102E2,2.8259137E2,2.2143355E2,3.0831985E2,1.9064374E2,2.994625E1,4.7660934E1,2.741558E1,5.061338E0,2.7407146E3,8.680195E2,1.3813235E3,9.059795E2,5.276445E2,1.2488851E3,9.447831E1,3.236304E3,2.207587E3,1.446699E2,2.4041355E1,2.1510687E1,4.7703113E2,1.2180953E3,4.1460794E2,2.973536E2,1.7453181E3,1.4614614E3,8.519919E1,8.983875E2],"tree_param":{"num_deleted":"0","num_feature":"23","num_nodes":"63","size_leaf_vector":"1"}},{"base_weights":[-1.4470425E-1,-1.3441014E-1,-3.3574933E-1,-1.354041E-1,7.680284E-2,-4.1487253E-1,-1.3310616E-1,-1.0647982E-1,-1.686549E-1,-4.2772052E-1,8.3713226E-2,6.9445074E-1,-3.1034815E-1,1.8074459E-1,-1.2567908E-1,-1.9951919E-1,-6.515113E-2,-3.3257684E-1,-4.897922E-1,-1.8013479E-1,3.5161793E-2,9.4050395E-1,-3.2726032E-1,-4.9484023E-1,-1.5822268E-1,1.7989032E-2,-6.917945E-4,-3.4734681E-3,-8.439655E-3,-1.0655483E-2,1.3086911E-3,-5.3537395E-3,1.9992193E-2,-1.9614978E-2,8.602778E-3,-2.2570083E-2,-3.171124E-2,2.9559243E-2,-2.4493938E-2,5.7257075E-2,-2.3059614E-2,3.6266819E-3,-3.0657073E-2,-2.7745727E-3,-2.7812658E-2,-2.0551683E-2,3.302427E-3],"categories":[],"categories_nodes":[],"categories_segments":[],"categories_sizes":[],"default_left":[0,0,0,0,0,0,0,0,0,0,0,0,0,0,0,0,0,0,0,0,0,0,0,0,0,0,0,0,0,0,0,0,0,0,0,0,0,0,0,0,0,0,0,0,0,0,0],"id":3,"left_children":[1,3,5,7,-1,9,11,13,15,17,19,21,23,25,27,29,31,33,35,37,-1,39,41,43,45,-1,-1,-1,-1,-1,-1,-1,-1,-1,-1,-1,-1,-1,-1,-1,-1,-1,-1,-1,-1,-1,-1],"loss_changes":[4.5671356E1,3.6834534E1,1.8990646E1,2.1185791E1,0E0,5.505234E0,4.9357956E1,6.505658E1,3.2746246E1,4.75383E0,3.769476E0,1.5242622E1,7.6855507E0,2.5760876E1,2.6779083E1,2.4233063E1,4.5990425E1,1.0067791E1,2.4956589E0,4.213814E0,0E0,1.4335388E1,1.4470818E0,3.3295631E0,8.70672E0,0E0,0E0,0E0,0E0,0E0,0E0,0E0,0E0,0E0,0E0,0E0,0E0,0E0,0E0,0E0,0E0,0E0,0E0,0E0,0E0,0E0,0E0],"parents":[2147483647,0,0,1,1,2,2,3,3,5,5,6,6,7,7,8,8,9,9,10,10,11,11,12,12,13,13,14,14,15,15,16,16,17,17,18,18,19,19,21,21,22,22,23,23,24,24],"right_children":[2,4,6,8,-1,10,12,14,16,18,20,22,24,26,28,30,32,34,36,38,-1,40,42,44,46,-1,-1,-1,-1,-1,-1,-1,-1,-1,-1,-1,-1,-1,-1,-1,-1,-1,-1,-1,-1,-1,-1],"split_conditions":[4.8899707E-1,5.9437677E-3,4.734947E-3,2.7424556E-1,7.680284E-2,2.2282016E0,-7.157204E-2,6.70798E-1,9.632E1,-5.290999E-1,1.4929211E0,7.9834807E-1,2.0881138E1,5.8757134E-2,1.35921E0,6.855328E-1,4.536459E1,1.1465778E-2,6.0635877E-1,4.9602013E-4,3.5161793E-2,5.2177685E1,4.7776707E1,2.3813903E-2,-5.0119126E-1,1.7989032E-2,-6.917945E-4,-3.4734681E-3,-8.439655E-3,-1.0655483E-2,1.3086911E-3,-5.3537395E-3,1.9992193E-2,-1.9614978E-2,8.602778E-3,-2.2570083E-2,-3.171124E-2,2.9559243E-2,-2.4493938E-2,5.7257075E-2,-2.3059614E-2,3.6266819E-3,-3.0657073E-2,-2.7745727E-3,-2.7812658E-2,-2.0551683E-2,3.302427E-3],"split_indices":[8,2,2,8,0,0,13,15,15,12,9,8,3,12,15,10,3,13,8,18,0,1,3,6,0,0,0,0,0,0,0,0,0,0,0,0,0,0,0,0,0,0,0,0,0,0,0],"split_type":[0,0,0,0,0,0,0,0,0,0,0,0,0,0,0,0,0,0,0,0,0,0,0,0,0,0,0,0,0,0,0,0,0,0,0,0,0,0,0,0,0,0,0,0,0,0,0],"sum_hessian":[2.3244986E4,2.2058129E4,1.1868583E3,2.204593E4,1.2198833E1,8.528217E2,3.340365E2,1.179226E4,1.025367E4,8.3153613E2,2.1285593E1,5.8407795E1,2.756287E2,7.3832745E2,1.1053932E4,7.8976924E3,2.355978E3,3.3081683E2,5.007193E2,1.5425342E1,5.860251E0,4.7135815E1,1.1271982E1,1.2354505E2,1.5208365E2,3.840807E2,3.5424673E2,4.799378E3,6.254554E3,7.4491836E3,4.4850897E2,2.161838E3,1.941402E2,2.9600732E2,3.4809532E1,3.9883368E2,1.01885635E2,4.1592984E0,1.1266044E1,4.1290703E1,5.8451123E0,5.010821E0,6.261162E0,1.5384893E1,1.08160164E2,7.110142E1,8.098222E1],"tree_param":{"num_deleted":"0","num_feature":"23","num_nodes":"47","size_leaf_vector":"1"}},{"base_weights":[2.3952903E-1,1.2797882E-1,3.5641265E-1,-1.6858058E-1,1.4373654E-1,4.3064573E-1,1.4788075E-1,-2.0421426E-1,4.2572218E-1,1.0985694E-1,2.1860687E-1,3.611862E-1,5.857859E-1,1.0749122E-1,3.7060362E-1,-3.0433083E-1,-6.57891E-2,-1.5559754E-1,6.4337677E-1,1.4775273E-1,3.7778087E-2,2.564281E-1,1.0486117E-1,4.6506813E-1,2.882923E-1,1.8738535E-1,6.105881E-1,-2.4999572E-2,1.6030017E-1,-2.9009374E-2,4.9449494E-1,-1.8776596E-2,-8.407484E-3,1.785147E-2,-6.503992E-3,2.2573726E-2,-2.9007724E-2,4.151569E-2,-1.5069107E-3,-1.7589972E-3,8.707716E-3,1.1908803E-3,1.8608788E-2,1.2329733E-2,4.105647E-2,-3.5516403E-3,7.685614E-3,2.4680397E-2,1.1162627E-2,1.5372713E-2,-1.9564447E-3,1.7091902E-2,-1.5577591E-2,3.7921626E-2,2.773023E-2,3.5608371E-3,-6.1289277E-3,1.8052395E-2,6.686461E-3,-7.6272413E-3,5.055205E-2,1.4016919E-2,3.7035223E-2],"categories":[],"categories_nodes":[],"categories_segments":[],"categories_sizes":[],"default_left":[0,0,0,0,0,0,0,0,0,0,0,0,0,0,0,0,0,0,0,0,0,0,0,0,0,0,0,0,0,0,0,0,0,0,0,0,0,0,0,0,0,0,0,0,0,0,0,0,0,0,0,0,0,0,0,0,0,0,0,0,0,0,0],"id":4,"left_children":[1,3,5,7,9,11,13,15,17,19,21,23,25,27,29,31,33,35,37,39,41,43,45,47,49,51,53,55,57,59,61,-1,-1,-1,-1,-1,-1,-1,-1,-1,-1,-1,-1,-1,-1,-1,-1,-1,-1,-1,-1,-1,-1,-1,-1,-1,-1,-1,-1,-1,-1,-1,-1],"loss_changes":[3.4921838E2,6.4082855E1,2.0242065E2,1.4743345E1,3.2994293E1,1.0373279E2,3.0864494E1,9.038147E0,5.0945554E0,2.4478493E1,1.7414352E1,5.033911E1,2.934613E1,2.0360954E1,2.6103333E1,3.6118546E0,7.5381083E0,3.2409735E0,3.665553E0,2.8378494E1,1.4416792E1,1.6688858E1,8.718342E0,1.8847046E1,2.4603577E1,1.3682946E1,2.2806763E1,7.8018265E0,1.1048992E1,1.6298573E1,2.100486E1,0E0,0E0,0E0,0E0,0E0,0E0,0E0,0E0,0E0,0E0,0E0,0E0,0E0,0E0,0E0,0E0,0E0,0E0,0E0,0E0,0E0,0E0,0E0,0E0,0E0,0E0,0E0,0E0,0E0,0E0,0E0,0E0],"parents":[2147483647,0,0,1,1,2,2,3,3,4,4,5,5,6,6,7,7,8,8,9,9,10,10,11,11,12,12,13,13,14,14,15,15,16,16,17,17,18,18,19,19,20,20,21,21,22,22,23,23,24,24,25,25,26,26,27,27,28,28,29,29,30,30],"right_children":[2,4,6,8,10,12,14,16,18,20,22,24,26,28,30,32,34,36,38,40,42,44,46,48,50,52,54,56,58,60,62,-1,-1,-1,-1,-1,-1,-1,-1,-1,-1,-1,-1,-1,-1,-1,-1,-1,-1,-1,-1,-1,-1,-1,-1,-1,-1,-1,-1,-1,-1,-1,-1],"split_conditions":[2.7502707E-1,6.55694E-1,9.2284E1,5.3891254E-4,2.4251607E-1,3.7427953E-1,4.8899707E-1,2.5735876E-1,5.9074E-1,1.755169E0,2.101949E0,1.690807E-3,-1.9723994E0,-5.737553E-1,-1.7425278E0,2.5213457E1,1.1953082E-3,5.892338E-4,5.3864086E-1,9.057E-1,1.8292627E-3,2.081079E0,-2.5522444E-1,1.44349E0,2.9338726E-3,-7.741113E-5,5.3415E-1,3.012813E1,-5.045841E-1,6.855328E-1,5.5559784E-1,-1.8776596E-2,-8.407484E-3,1.785147E-2,-6.503992E-3,2.2573726E-2,-2.9007724E-2,4.151569E-2,-1.5069107E-3,-1.7589972E-3,8.707716E-3,1.1908803E-3,1.8608788E-2,1.2329733E-2,4.105647E-2,-3.5516403E-3,7.685614E-3,2.4680397E-2,1.1162627E-2,1.5372713E-2,-1.9564447E-3,1.7091902E-2,-1.5577591E-2,3.7921626E-2,2.773023E-2,3.5608371E-3,-6.1289277E-3,1.8052395E-2,6.686461E-3,-7.6272413E-3,5.055205E-2,1.4016919E-2,3.7035223E-2],"split_indices":[8,15,17,13,8,8,8,8,17,15,15,2,12,12,12,3,2,13,9,17,2,15,11,15,2,13,15,3,11,10,8,0,0,0,0,0,0,0,0,0,0,0,0,0,0,0,0,0,0,0,0,0,0,0,0,0,0,0,0,0,0,0,0],"split_type":[0,0,0,0,0,0,0,0,0,0,0,0,0,0,0,0,0,0,0,0,0,0,0,0,0,0,0,0,0,0,0,0,0,0,0,0,0,0,0,0,0,0,0,0,0,0,0,0,0,0,0,0,0,0,0,0,0,0,0,0,0,0,0],"sum_hessian":[2.678636E4,1.3706951E4,1.3079407E4,6.9108435E2,1.3015867E4,9.64494E3,3.4344668E3,6.5261096E2,3.84734E1,8.962645E3,4.0532217E3,6.6644526E3,2.980488E3,2.908508E3,5.259588E2,3.78013E2,2.7459796E2,1.0558497E1,2.7914902E1,5.8735493E3,3.0890957E3,3.0408606E3,1.0123612E3,2.7458833E3,3.9185693E3,1.751752E2,2.8053127E3,8.290516E2,2.0794565E3,1.24653435E2,4.0130536E2,2.4707465E2,1.3093837E2,3.5641632E1,2.3895633E2,4.319155E0,6.239342E0,2.1668036E1,6.2468653E0,7.4073975E2,5.1328096E3,2.9663284E3,1.2276747E2,2.9902268E3,5.0633755E1,2.1995044E2,7.9241077E2,2.4550857E3,2.907976E2,3.701976E3,2.1659323E2,1.3400655E2,4.116866E1,7.67062E2,2.0382509E3,4.1757654E2,4.1147504E2,2.4159314E2,1.8378633E3,1.1218198E2,1.2471458E1,2.1576688E2,1.8553848E2],"tree_param":{"num_deleted":"0","num_feature":"23","num_nodes":"63","size_leaf_vector":"1"}},{"base_weights":[-1.3206849E-1,-2.499921E-1,-5.5235844E-2,-1.316498E-1,-3.131559E-1,-4.7893967E-2,-4.9978527E-1,-6.608802E-2,-3.0123276E-1,6.457758E-2,-3.2196856E-1,-2.224762E-3,-1.024646E-1,1.4589174E-1,-5.8915657E-1,-7.3931776E-2,9.462149E-1,-1.9189762E-1,-4.1781154E-1,-9.480185E-2,5.747157E-1,-2.694357E-1,-4.0493122E-1,-4.0359274E-2,7.9962455E-2,-1.4858633E-1,-4.0909614E-2,-4.6977675E-1,5.0423515E-1,-6.158398E-1,-2.7029726E-1,-2.9283596E-4,-6.6074426E-3,7.361122E-2,1.5853856E-2,-1.14476E-2,2.9562762E-2,-2.4335405E-2,-9.213218E-3,-8.897482E-3,1.6083876E-2,6.5848544E-2,5.5085476E-3,-1.6209608E-2,-8.296616E-3,-2.3291206E-2,-1.5306917E-2,1.2566774E-3,-3.8735548E-3,5.111426E-3,-1.8138012E-2,6.7441612E-3,-8.109863E-3,7.147491E-4,-8.213469E-3,-4.5878836E-3,-3.1114638E-2,4.0486094E-2,-1.3298725E-2,-2.561364E-2,-3.3858508E-2,1.1808244E-2,-3.226459E-2],"categories":[],"categories_nodes":[],"categories_segments":[],"categories_sizes":[],"default_left":[0,0,0,0,0,0,0,0,0,0,0,0,0,0,0,0,0,0,0,0,0,0,0,0,0,0,0,0,0,0,0,0,0,0,0,0,0,0,0,0,0,0,0,0,0,0,0,0,0,0,0,0,0,0,0,0,0,0,0,0,0,0,0],"id":5,"left_children":[1,3,5,7,9,11,13,15,17,19,21,23,25,27,29,31,33,35,37,39,41,43,45,47,49,51,53,55,57,59,61,-1,-1,-1,-1,-1,-1,-1,-1,-1,-1,-1,-1,-1,-1,-1,-1,-1,-1,-1,-1,-1,-1,-1,-1,-1,-1,-1,-1,-1,-1,-1,-1],"loss_changes":[2.1159647E2,6.883026E1,4.6136093E1,3.564778E1,2.0015686E1,3.467682E1,1.3339283E1,1.8450737E1,1.1317078E1,1.1256256E1,2.5473145E1,2.374752E1,1.7991325E1,6.574554E0,1.5517426E0,9.106548E0,5.4473763E0,1.3579136E1,6.8598633E0,3.722239E0,1.1212563E1,2.0332214E1,1.3536011E1,1.2581313E1,2.3709738E1,1.4002647E1,1.8503311E1,5.820701E-1,4.601205E0,8.318176E-1,3.4526129E0,0E0,0E0,0E0,0E0,0E0,0E0,0E0,0E0,0E0,0E0,0E0,0E0,0E0,0E0,0E0,0E0,0E0,0E0,0E0,0E0,0E0,0E0,0E0,0E0,0E0,0E0,0E0,0E0,0E0,0E0,0E0,0E0],"parents":[2147483647,0,0,1,1,2,2,3,3,4,4,5,5,6,6,7,7,8,8,9,9,10,10,11,11,12,12,13,13,14,14,15,15,16,16,17,17,18,18,19,19,20,20,21,21,22,22,23,23,24,24,25,25,26,26,27,27,28,28,29,29,30,30],"right_children":[2,4,6,8,10,12,14,16,18,20,22,24,26,28,30,32,34,36,38,40,42,44,46,48,50,52,54,56,58,60,62,-1,-1,-1,-1,-1,-1,-1,-1,-1,-1,-1,-1,-1,-1,-1,-1,-1,-1,-1,-1,-1,-1,-1,-1,-1,-1,-1,-1,-1,-1,-1,-1],"split_conditions":[9.7117E-1,2.8105894E-1,4.734947E-3,9.10459E-1,-1.9723994E0,2.552713E-1,-3.284263E0,2.790504E-3,2.0258993E1,3.448635E1,3.6836016E-1,1.9012E0,9.856E1,7.9834807E-1,4.275427E1,2.485275E-1,-6.201776E-1,9.5872E-1,3.960673E1,-7.432543E-1,-3.3795477E-3,1.893843E-3,2.4805649E-3,1.8957148E-1,1.8659225E-3,2.2301256E1,1.8511986E-2,-3.928215E-3,1.2941892E-2,3.9813325E-1,5.1597015E1,-2.9283596E-4,-6.6074426E-3,7.361122E-2,1.5853856E-2,-1.14476E-2,2.9562762E-2,-2.4335405E-2,-9.213218E-3,-8.897482E-3,1.6083876E-2,6.5848544E-2,5.5085476E-3,-1.6209608E-2,-8.296616E-3,-2.3291206E-2,-1.5306917E-2,1.2566774E-3,-3.8735548E-3,5.111426E-3,-1.8138012E-2,6.7441612E-3,-8.109863E-3,7.147491E-4,-8.213469E-3,-4.5878836E-3,-3.1114638E-2,4.0486094E-2,-1.3298725E-2,-2.561364E-2,-3.3858508E-2,1.1808244E-2,-3.226459E-2],"split_indices":[16,8,2,16,12,8,12,2,3,1,8,16,16,8,3,8,12,15,3,11,14,2,2,8,2,1,6,18,10,7,3,0,0,0,0,0,0,0,0,0,0,0,0,0,0,0,0,0,0,0,0,0,0,0,0,0,0,0,0,0,0,0,0],"split_type":[0,0,0,0,0,0,0,0,0,0,0,0,0,0,0,0,0,0,0,0,0,0,0,0,0,0,0,0,0,0,0,0,0,0,0,0,0,0,0,0,0,0,0,0,0,0,0,0,0,0,0,0,0,0,0,0,0,0,0,0,0,0,0],"sum_hessian":[2.3354557E4,9.212641E3,1.4141917E4,3.2070562E3,6.005584E3,1.3913243E4,2.286739E2,2.3138843E3,8.931719E2,1.3677382E2,5.86881E3,7.574945E3,6.338298E3,2.7726564E1,2.0094734E2,2.297013E3,1.6871277E1,4.6227063E2,4.3090125E2,1.04835E2,3.1938814E1,3.5960198E3,2.2727903E3,5.174506E3,2.4004392E3,3.6225732E3,2.7157249E3,1.0086323E1,1.7640242E1,1.8457051E2,1.6376833E1,1.0593649E3,1.2376482E3,8.458897E0,8.41238E0,4.4206238E2,2.0208256E1,3.3190512E2,9.899613E1,8.786581E1,1.6969196E1,1.1588154E1,2.035066E1,2.3504355E3,1.2455845E3,1.4038099E3,8.689804E2,1.8717216E3,3.3027844E3,2.2862258E3,1.1421317E2,1.6556212E2,3.457011E3,1.8767476E3,8.3897723E2,3.3600035E0,6.7263193E0,1.2593863E1,5.046378E0,7.212601E1,1.124445E2,7.12463E0,9.252202E0],"tree_param":{"num_deleted":"0","num_feature":"23","num_nodes":"63","size_leaf_vector":"1"}},{"base_weights":[-1.417065E-1,-1.3242029E-1,-3.1434616E-1,-1.3563712E-1,4.0971273E-1,-3.8098866E-1,-1.383772E-1,-1.02467835E-1,-1.6850723E-1,1.3917366E0,1.0356352E-1,-3.9508703E-1,1.4480282E-1,5.5221397E-1,-2.8162715E-1,1.6620997E-1,-1.1881373E-1,-2.0015132E-1,-7.9795755E-2,7.673039E-2,2.4004277E-2,-4.112036E-1,6.677326E-1,-4.7120655E-1,-3.2721758E-1,6.5696657E-1,-1.4671127E-1,8.1580675E-1,-3.537947E-1,-1.2181567E-1,-3.989427E-1,2.0321446E-2,-1.2854504E-3,-3.0360152E-3,-8.167828E-3,-9.042862E-3,-1.4591606E-2,-6.8577724E-3,2.4647403E-3,1.117168E-2,-2.5020814E-2,1.3144942E-2,6.4561486E-2,-1.8922433E-2,-2.8524373E-2,-1.3026937E-2,-2.460368E-2,5.5743944E-2,3.138637E-3,-2.5654206E-2,1.475593E-2,5.491033E-2,-2.5148833E-2,1.8728038E-2,-3.1665314E-2,-1.9145854E-3,-3.0195702E-2,-2.4961641E-2,-5.594627E-3],"categories":[],"categories_nodes":[],"categories_segments":[],"categories_sizes":[],"default_left":[0,0,0,0,0,0,0,0,0,0,0,0,0,0,0,0,0,0,0,0,0,0,0,0,0,0,0,0,0,0,0,0,0,0,0,0,0,0,0,0,0,0,0,0,0,0,0,0,0,0,0,0,0,0,0,0,0,0,0],"id":6,"left_children":[1,3,5,7,9,11,13,15,17,19,21,23,25,27,29,31,33,35,37,-1,-1,39,41,43,45,47,49,51,53,55,57,-1,-1,-1,-1,-1,-1,-1,-1,-1,-1,-1,-1,-1,-1,-1,-1,-1,-1,-1,-1,-1,-1,-1,-1,-1,-1,-1,-1],"loss_changes":[3.703296E1,3.833017E1,1.3781685E1,2.3770874E1,3.885173E1,6.3957825E0,3.23683E1,4.772477E1,3.0742676E1,3.2678795E0,2.9304823E1,4.149353E0,3.5394526E0,1.3728773E1,5.0199013E0,2.8749144E1,2.6487534E1,1.4232056E1,2.1350628E1,0E0,0E0,3.1061983E0,1.1794809E1,3.3790894E0,4.748558E0,2.255649E0,2.662679E0,1.6900705E1,2.9613361E0,4.643124E0,4.4195633E0,0E0,0E0,0E0,0E0,0E0,0E0,0E0,0E0,0E0,0E0,0E0,0E0,0E0,0E0,0E0,0E0,0E0,0E0,0E0,0E0,0E0,0E0,0E0,0E0,0E0,0E0,0E0,0E0],"parents":[2147483647,0,0,1,1,2,2,3,3,4,4,5,5,6,6,7,7,8,8,9,9,10,10,11,11,12,12,13,13,14,14,15,15,16,16,17,17,18,18,21,21,22,22,23,23,24,24,25,25,26,26,27,27,28,28,29,29,30,30],"right_children":[2,4,6,8,10,12,14,16,18,20,22,24,26,28,30,32,34,36,38,-1,-1,40,42,44,46,48,50,52,54,56,58,-1,-1,-1,-1,-1,-1,-1,-1,-1,-1,-1,-1,-1,-1,-1,-1,-1,-1,-1,-1,-1,-1,-1,-1,-1,-1,-1,-1],"split_conditions":[4.8899707E-1,3.9098416E-3,4.734947E-3,2.662769E-1,3.5725993E-1,2.2282016E0,-7.157204E-2,6.79888E-1,1.5902063E-2,1.43601E2,9.7898E1,3.1506051E-3,9.617753E-4,7.9834807E-1,3.5421424E-2,-1.1439581E-1,1.35921E0,3.8049555E-1,7.664922E-4,7.673039E-2,2.4004277E-2,-2.6765575E-3,4.734947E-3,5.2583736E-1,6.0635877E-1,1.3268006E0,2.0975241E-2,5.2177685E1,5.5216968E-2,1.71604E2,5.5374284E-3,2.0321446E-2,-1.2854504E-3,-3.0360152E-3,-8.167828E-3,-9.042862E-3,-1.4591606E-2,-6.8577724E-3,2.4647403E-3,1.117168E-2,-2.5020814E-2,1.3144942E-2,6.4561486E-2,-1.8922433E-2,-2.8524373E-2,-1.3026937E-2,-2.460368E-2,5.5743944E-2,3.138637E-3,-2.5654206E-2,1.475593E-2,5.491033E-2,-2.5148833E-2,1.8728038E-2,-3.1665314E-2,-1.9145854E-3,-3.0195702E-2,-2.4961641E-2,-5.594627E-3],"split_indices":[8,2,2,8,8,0,13,15,6,15,16,2,18,8,6,0,15,8,13,0,0,19,2,8,8,11,6,1,6,16,14,0,0,0,0,0,0,0,0,0,0,0,0,0,0,0,0,0,0,0,0,0,0,0,0,0,0,0,0],"split_type":[0,0,0,0,0,0,0,0,0,0,0,0,0,0,0,0,0,0,0,0,0,0,0,0,0,0,0,0,0,0,0,0,0,0,0,0,0,0,0,0,0,0,0,0,0,0,0,0,0,0,0,0,0,0,0,0,0,0,0],"sum_hessian":[2.3124838E4,2.1946133E4,1.1787043E3,2.1817426E4,1.2870699E2,8.5408307E2,3.2462128E2,1.0861345E4,1.0956081E4,2.9745968E1,9.896102E1,8.320221E2,2.2060951E1,5.5277935E1,2.6934332E2,6.2236426E2,1.023898E4,8.0745645E3,2.8815168E3,2.5125107E1,4.620861E0,5.188788E1,4.707314E1,3.89374E2,4.4264813E2,7.547335E0,1.4513617E1,4.2897083E1,1.2380851E1,1.14883385E2,1.5445995E2,2.7590497E2,3.464593E2,4.444614E3,5.7943667E3,6.6731777E3,1.4013867E3,1.9950017E3,8.865152E2,6.209623E0,4.5678257E1,2.940334E1,1.7669798E1,2.037876E2,1.8558638E2,3.1700882E2,1.2563932E2,3.7675803E0,3.7797546E0,7.8461685E0,6.6674476E0,3.546911E1,7.4279757E0,3.339272E0,9.041578E0,9.883889E1,1.6044495E1,1.139194E2,4.0540543E1],"tree_param":{"num_deleted":"0","num_feature":"23","num_nodes":"59","size_leaf_vector":"1"}},{"base_weights":[2.2910202E-1,1.0789621E-1,3.2621807E-1,-2.790865E-1,1.24242395E-1,3.9047492E-1,1.3544708E-1,-3.5706937E-1,-2.3866775E-2,2.1489716E-1,1.0189604E-1,3.277738E-1,5.423545E-1,-1.39729185E-2,1.830976E-1,-3.037286E-1,-5.8141965E-1,-1.1000852E-1,8.221225E-1,5.4556828E-2,4.4766027E-1,7.2647616E-2,1.5931465E-1,4.809769E-1,2.9666272E-1,1.701488E-1,5.6362015E-1,-4.0187936E-2,5.4058886E-1,1.5272532E-1,7.616152E-1,-1.6210653E-2,2.1409053E-2,2.9681965E-3,-3.071704E-2,-1.8061485E-2,2.4331105E-3,5.2308407E-2,1.3058521E-2,7.952126E-4,1.1819455E-2,3.4131724E-2,1.7399961E-2,5.7137203E-3,-1.576782E-5,-2.6856974E-2,8.1813885E-3,3.2039683E-2,2.2571279E-2,1.1240098E-2,1.7905105E-2,2.0248683E-3,4.010634E-2,3.592297E-2,2.5271108E-2,-6.09149E-4,-2.411818E-2,3.805132E-2,1.7761199E-3,6.8793306E-3,2.4622163E-2,2.9989837E-2,5.4273646E-2],"categories":[],"categories_nodes":[],"categories_segments":[],"categories_sizes":[],"default_left":[0,0,0,0,0,0,0,0,0,0,0,0,0,0,0,0,0,0,0,0,0,0,0,0,0,0,0,0,0,0,0,0,0,0,0,0,0,0,0,0,0,0,0,0,0,0,0,0,0,0,0,0,0,0,0,0,0,0,0,0,0,0,0],"id":7,"left_children":[1,3,5,7,9,11,13,15,17,19,21,23,25,27,29,31,33,35,37,39,41,43,45,47,49,51,53,55,57,59,61,-1,-1,-1,-1,-1,-1,-1,-1,-1,-1,-1,-1,-1,-1,-1,-1,-1,-1,-1,-1,-1,-1,-1,-1,-1,-1,-1,-1,-1,-1,-1,-1],"loss_changes":[3.155963E2,7.549559E1,1.8242444E2,9.620033E0,2.3166428E1,1.0585913E2,2.6718033E1,4.2569923E0,8.419737E0,8.4421814E1,1.5413437E1,3.743341E1,2.5644836E1,1.3224864E1,4.9873154E1,4.657835E0,1.5146446E0,4.18769E0,1.0690861E0,9.42054E0,2.1371689E1,1.848743E1,9.396492E0,5.9878845E0,2.8862976E1,1.4486321E1,2.7354797E1,1.07442465E1,4.544736E0,1.3840439E1,6.7729187E0,0E0,0E0,0E0,0E0,0E0,0E0,0E0,0E0,0E0,0E0,0E0,0E0,0E0,0E0,0E0,0E0,0E0,0E0,0E0,0E0,0E0,0E0,0E0,0E0,0E0,0E0,0E0,0E0,0E0,0E0,0E0,0E0],"parents":[2147483647,0,0,1,1,2,2,3,3,4,4,5,5,6,6,7,7,8,8,9,9,10,10,11,11,12,12,13,13,14,14,15,15,16,16,17,17,18,18,19,19,20,20,21,21,22,22,23,23,24,24,25,25,26,26,27,27,28,28,29,29,30,30],"right_children":[2,4,6,8,10,12,14,16,18,20,22,24,26,28,30,32,34,36,38,40,42,44,46,48,50,52,54,56,58,60,62,-1,-1,-1,-1,-1,-1,-1,-1,-1,-1,-1,-1,-1,-1,-1,-1,-1,-1,-1,-1,-1,-1,-1,-1,-1,-1,-1,-1,-1,-1,-1,-1],"split_conditions":[2.6180753E-1,6.58358E-1,9.2301E1,1.102148E0,9.81639E-1,3.6836016E-1,-7.660423E-1,6.5046E-1,1.603003E-2,9.2E-1,2.2997169E-1,6.9685313E-3,-1.9723994E0,6.855328E-1,5.5559784E-1,5.094661E-1,-2.0027563E-3,4.0746158E-1,1.1063304E-3,1.3394562E-2,9.34939E-1,1.778849E0,1.041558E0,4.690548E-3,2.9986277E-1,1.291138E0,5.34229E-1,4.370266E-2,-1.1215214E0,1.98577E2,1.4368E2,-1.6210653E-2,2.1409053E-2,2.9681965E-3,-3.071704E-2,-1.8061485E-2,2.4331105E-3,5.2308407E-2,1.3058521E-2,7.952126E-4,1.1819455E-2,3.4131724E-2,1.7399961E-2,5.7137203E-3,-1.576782E-5,-2.6856974E-2,8.1813885E-3,3.2039683E-2,2.2571279E-2,1.1240098E-2,1.7905105E-2,2.0248683E-3,4.010634E-2,3.592297E-2,2.5271108E-2,-6.09149E-4,-2.411818E-2,3.805132E-2,1.7761199E-3,6.8793306E-3,2.4622163E-2,2.9989837E-2,5.4273646E-2],"split_indices":[8,16,16,0,16,8,12,16,6,16,8,6,12,10,8,11,19,12,19,6,16,16,16,6,8,16,16,6,12,16,16,0,0,0,0,0,0,0,0,0,0,0,0,0,0,0,0,0,0,0,0,0,0,0,0,0,0,0,0,0,0,0,0],"split_type":[0,0,0,0,0,0,0,0,0,0,0,0,0,0,0,0,0,0,0,0,0,0,0,0,0,0,0,0,0,0,0,0,0,0,0,0,0,0,0,0,0,0,0,0,0,0,0,0,0,0,0,0,0,0,0,0,0,0,0,0,0,0,0],"sum_hessian":[2.681326E4,1.1928274E4,1.4884985E4,4.8277975E2,1.1445494E4,1.113378E4,3.7512053E3,3.6948407E2,1.1329567E2,2.2616812E3,9.183813E3,7.8826934E3,3.2510862E3,9.071908E2,2.8440144E3,3.0041275E2,6.9071335E1,1.0361516E2,9.680512E0,1.33991E3,9.2177106E2,6.0859565E3,3.0978567E3,1.3281089E3,6.554585E3,1.7619502E2,3.0748914E3,8.671278E2,4.006298E1,2.703352E3,1.4066245E2,2.9277567E2,7.637078E0,3.3359766E0,6.573536E1,3.961565E1,6.3999508E1,6.2994933E0,3.3810186E0,1.105911E3,2.3399904E2,2.7277966E2,6.489914E2,3.874763E3,2.2111936E3,1.8306461E1,3.0795503E3,2.0402681E2,1.124082E3,3.0232212E3,3.5313635E3,1.4708446E2,2.9110563E1,8.369064E2,2.2379849E3,8.1644617E2,5.068163E1,2.7537424E1,1.2525558E1,2.589368E3,1.1398402E2,9.569807E1,4.4964382E1],"tree_param":{"num_deleted":"0","num_feature":"23","num_nodes":"63","size_leaf_vector":"1"}},{"base_weights":[-1.2815258E-1,-2.4322137E-1,-5.2731752E-2,-1.2939018E-1,-3.0596775E-1,9.5905276E-4,-1.1439289E-1,-6.024265E-2,-3.024213E-1,-2.607003E-1,-3.766717E-1,-3.8706917E-2,8.467841E-2,-1.0215792E-1,-4.594769E-1,-7.062913E-2,8.461393E-1,-2.020002E-1,-4.1771266E-1,-3.1446382E-1,-1.7123601E-1,-4.4013557E-1,-2.1008536E-1,-2.9008161E-2,-1.9449736E-1,1.10113114E-1,-2.5375137E-1,-4.295793E-2,-1.5898646E-1,-5.446334E-1,-3.8746768E-3,5.040605E-2,-3.729768E-3,5.6059208E-2,-1.3458106E-2,-1.2421288E-3,-1.9103985E-2,-5.813825E-4,-2.2403797E-2,-1.3529638E-2,-1.7511193E-2,-6.551441E-3,-1.7414263E-2,-1.8307269E-2,-2.7448485E-2,-1.2357524E-2,3.1853195E-2,-1.989078E-3,1.3354848E-2,-1.1667912E-2,6.1330628E-2,4.455225E-3,2.6755208E-2,-1.5324044E-2,3.8548496E-2,-8.5828063E-4,-9.425472E-3,-1.0743254E-2,-4.4535105E-3,-2.1479014E-2,-3.345817E-2,2.0473534E-2,-2.0299908E-2],"categories":[],"categories_nodes":[],"categories_segments":[],"categories_sizes":[],"default_left":[0,0,0,0,0,0,0,0,0,0,0,0,0,0,0,0,0,0,0,0,0,0,0,0,0,0,0,0,0,0,0,0,0,0,0,0,0,0,0,0,0,0,0,0,0,0,0,0,0,0,0,0,0,0,0,0,0,0,0,0,0,0,0],"id":8,"left_children":[1,3,5,7,9,11,13,15,17,19,21,23,25,27,29,31,33,35,37,39,41,43,45,47,49,51,53,55,57,59,61,-1,-1,-1,-1,-1,-1,-1,-1,-1,-1,-1,-1,-1,-1,-1,-1,-1,-1,-1,-1,-1,-1,-1,-1,-1,-1,-1,-1,-1,-1,-1,-1],"loss_changes":[2.0179605E2,6.571838E1,4.650821E1,3.914536E1,1.8895142E1,2.4943771E1,2.756012E1,2.2088074E1,1.0733154E1,1.7363846E1,2.4372803E1,7.6952105E0,2.0813766E1,2.124215E1,8.673267E0,9.977273E0,8.457575E0,1.5983622E1,5.3464203E0,3.451889E0,9.646332E0,1.3285614E1,2.0262852E1,1.5320023E1,1.677218E1,2.0011484E1,9.373136E0,1.1615288E1,1.256955E1,2.411663E0,6.186554E0,0E0,0E0,0E0,0E0,0E0,0E0,0E0,0E0,0E0,0E0,0E0,0E0,0E0,0E0,0E0,0E0,0E0,0E0,0E0,0E0,0E0,0E0,0E0,0E0,0E0,0E0,0E0,0E0,0E0,0E0,0E0,0E0],"parents":[2147483647,0,0,1,1,2,2,3,3,4,4,5,5,6,6,7,7,8,8,9,9,10,10,11,11,12,12,13,13,14,14,15,15,16,16,17,17,18,18,19,19,20,20,21,21,22,22,23,23,24,24,25,25,26,26,27,27,28,28,29,29,30,30],"right_children":[2,4,6,8,10,12,14,16,18,20,22,24,26,28,30,32,34,36,38,40,42,44,46,48,50,52,54,56,58,60,62,-1,-1,-1,-1,-1,-1,-1,-1,-1,-1,-1,-1,-1,-1,-1,-1,-1,-1,-1,-1,-1,-1,-1,-1,-1,-1,-1,-1,-1,-1,-1,-1],"split_conditions":[9.81639E-1,2.8105894E-1,2.552713E-1,9.1246E-1,3.6836016E-1,1.9012E0,4.734947E-3,2.7611053E-3,2.2269493E-1,1.8659225E-3,2.8551375E-3,1.844529E0,1.8087669E-3,3.4074183E-3,4.275427E1,-1.3210615E0,7.6629597E-1,2.0028528E1,-4.6188092E-1,6.45207E-1,8.3283E-1,3.1737956E-1,5.7356808E1,1.811269E0,1.993865E-3,1.6167263E-2,4.536459E1,5.926881E1,9.856E1,4.3714713E-2,-2.2163199E-1,5.040605E-2,-3.729768E-3,5.6059208E-2,-1.3458106E-2,-1.2421288E-3,-1.9103985E-2,-5.813825E-4,-2.2403797E-2,-1.3529638E-2,-1.7511193E-2,-6.551441E-3,-1.7414263E-2,-1.8307269E-2,-2.7448485E-2,-1.2357524E-2,3.1853195E-2,-1.989078E-3,1.3354848E-2,-1.1667912E-2,6.1330628E-2,4.455225E-3,2.6755208E-2,-1.5324044E-2,3.8548496E-2,-8.5828063E-4,-9.425472E-3,-1.0743254E-2,-4.4535105E-3,-2.1479014E-2,-3.345817E-2,2.0473534E-2,-2.0299908E-2],"split_indices":[17,8,8,17,8,16,2,2,8,2,2,16,2,10,3,11,0,3,10,17,16,0,3,16,2,6,3,1,16,0,10,0,0,0,0,0,0,0,0,0,0,0,0,0,0,0,0,0,0,0,0,0,0,0,0,0,0,0,0,0,0,0,0],"split_type":[0,0,0,0,0,0,0,0,0,0,0,0,0,0,0,0,0,0,0,0,0,0,0,0,0,0,0,0,0,0,0,0,0,0,0,0,0,0,0,0,0,0,0,0,0,0,0,0,0,0,0,0,0,0,0,0,0,0,0,0,0,0,0],"sum_hessian":[2.3252664E4,9.20558E3,1.4047084E4,3.2722673E3,5.933313E3,7.509365E3,6.5377183E3,2.3389236E3,9.333437E2,3.6202021E3,2.3131106E3,5.095616E3,2.4137493E3,6.315112E3,2.2260652E2,2.3133364E3,2.5587076E1,5.00313E2,4.3303073E2,2.259713E3,1.3604891E3,1.6738046E3,6.39306E2,4.798096E3,2.9752002E2,2.2456519E3,1.680974E2,3.0938804E3,3.2212314E3,1.873867E2,3.5219826E1,7.5468397E0,2.3057896E3,2.052109E1,5.0659857E0,2.5277617E2,2.475368E2,3.0221733E1,4.02809E2,1.0186189E3,1.2410941E3,1.1101243E3,2.5036485E2,9.990031E2,6.748015E2,6.131857E2,2.6120304E1,4.6304873E3,1.6760857E2,2.904143E2,7.105716E0,2.1410242E3,1.0462772E2,1.6053746E2,7.5599275E0,2.6291094E3,4.6477097E2,1.7891948E3,1.4320367E3,9.971225E1,8.7674446E1,1.7358568E1,1.7861258E1],"tree_param":{"num_deleted":"0","num_feature":"23","num_nodes":"63","size_leaf_vector":"1"}},{"base_weights":[-1.3424681E-1,-1.2359865E-1,-3.0729407E-1,-9.395798E-2,-1.5474445E-1,-1.9157289E-1,-3.9162153E-1,6.1660916E-2,-1.2515122E-1,-1.801241E-1,-3.3826556E-2,-3.1748423E-1,-3.177179E-2,-4.5824438E-1,-2.4803951E-1,2.2705539E-1,4.3990863E-3,-3.685683E-1,-1.1441377E-1,-1.446054E-1,-2.1048386E-1,-1.0047703E-1,8.1592456E-2,-2.669186E-1,-5.974108E-1,8.1896126E-2,-5.9626293E-1,-5.3673502E-2,-4.7653872E-1,-3.4548435E-2,-3.328486E-1,2.4565369E-2,5.136534E-3,-2.3597307E-4,4.4366267E-2,1.7764567E-3,-2.1643378E-2,-1.5428106E-3,-7.815588E-3,-4.7245697E-4,-9.933411E-3,-1.3284479E-2,-6.036541E-3,1.465808E-3,-1.1030594E-2,1.3067754E-3,2.6946548E-2,1.5015868E-2,-1.4573148E-2,-3.2848757E-2,1.5851606E-3,-4.2616795E-3,3.5144728E-2,-3.316729E-2,6.6824085E-3,1.6638529E-2,-3.142188E-2,-8.215037E-3,-2.527676E-2,-1.3490579E-2,1.3791271E-2,-3.9358977E-3,-2.2599023E-2],"categories":[],"categories_nodes":[],"categories_segments":[],"categories_sizes":[],"default_left":[0,0,0,0,0,0,0,0,0,0,0,0,0,0,0,0,0,0,0,0,0,0,0,0,0,0,0,0,0,0,0,0,0,0,0,0,0,0,0,0,0,0,0,0,0,0,0,0,0,0,0,0,0,0,0,0,0,0,0,0,0,0,0],"id":9,"left_children":[1,3,5,7,9,11,13,15,17,19,21,23,25,27,29,31,33,35,37,39,41,43,45,47,49,51,53,55,57,59,61,-1,-1,-1,-1,-1,-1,-1,-1,-1,-1,-1,-1,-1,-1,-1,-1,-1,-1,-1,-1,-1,-1,-1,-1,-1,-1,-1,-1,-1,-1,-1,-1],"loss_changes":[4.2456635E1,2.0043243E1,1.2963692E1,5.405944E1,3.25018E1,1.1361929E1,7.2707443E0,1.7614094E1,2.420227E1,9.41037E0,1.4154182E1,4.3134556E0,1.6101856E1,3.868332E0,4.4578733E0,1.5663527E1,1.1135729E1,1.0186192E1,3.11025E1,2.950264E1,2.334555E1,1.8190094E1,1.7073011E1,3.839096E0,1.8023224E0,2.1764986E1,2.1478586E0,5.5149593E0,4.4729996E0,5.2804074E0,5.3094597E0,0E0,0E0,0E0,0E0,0E0,0E0,0E0,0E0,0E0,0E0,0E0,0E0,0E0,0E0,0E0,0E0,0E0,0E0,0E0,0E0,0E0,0E0,0E0,0E0,0E0,0E0,0E0,0E0,0E0,0E0,0E0,0E0],"parents":[2147483647,0,0,1,1,2,2,3,3,4,4,5,5,6,6,7,7,8,8,9,9,10,10,11,11,12,12,13,13,14,14,15,15,16,16,17,17,18,18,19,19,20,20,21,21,22,22,23,23,24,24,25,25,26,26,27,27,28,28,29,29,30,30],"right_children":[2,4,6,8,10,12,14,16,18,20,22,24,26,28,30,32,34,36,38,40,42,44,46,48,50,52,54,56,58,60,62,-1,-1,-1,-1,-1,-1,-1,-1,-1,-1,-1,-1,-1,-1,-1,-1,-1,-1,-1,-1,-1,-1,-1,-1,-1,-1,-1,-1,-1,-1,-1,-1],"split_conditions":[4.7597358E-1,2.6863375E-1,-5.290999E-1,9.1977E-1,1.8511986E-2,9.2284E1,5.395812E-1,-2.447859E-4,9.3875E-1,8.79599E-1,9.6885E1,1.113289E0,4.99688E1,-1.0856918E-1,5.1467305E-1,6.70798E-1,5.572994E1,3.3812493E-3,1.359899E0,3.071562E-1,9.4096E1,3.4421703E-1,5.2483715E1,-2.6218243E0,4.8375383E-1,3.5421424E-2,4.552529E1,2.2841524E1,-7.2853286E-3,9.4098E1,1.0541348E-3,2.4565369E-2,5.136534E-3,-2.3597307E-4,4.4366267E-2,1.7764567E-3,-2.1643378E-2,-1.5428106E-3,-7.815588E-3,-4.7245697E-4,-9.933411E-3,-1.3284479E-2,-6.036541E-3,1.465808E-3,-1.1030594E-2,1.3067754E-3,2.6946548E-2,1.5015868E-2,-1.4573148E-2,-3.2848757E-2,1.5851606E-3,-4.2616795E-3,3.5144728E-2,-3.316729E-2,6.6824085E-3,1.6638529E-2,-3.142188E-2,-8.215037E-3,-2.527676E-2,-1.3490579E-2,1.3791271E-2,-3.9358977E-3,-2.2599023E-2],"split_indices":[8,8,12,17,6,17,10,13,17,17,17,16,3,13,8,16,3,6,17,8,17,8,3,0,10,6,1,3,14,16,13,0,0,0,0,0,0,0,0,0,0,0,0,0,0,0,0,0,0,0,0,0,0,0,0,0,0,0,0,0,0,0,0],"split_type":[0,0,0,0,0,0,0,0,0,0,0,0,0,0,0,0,0,0,0,0,0,0,0,0,0,0,0,0,0,0,0,0,0,0,0,0,0,0,0,0,0,0,0,0,0,0,0,0,0,0,0,0,0,0,0,0,0,0,0,0,0,0,0],"sum_hessian":[2.3060912E4,2.1725771E4,1.3351421E3,1.1133917E4,1.0591854E4,5.641879E2,7.7095416E2,1.8589391E3,9.274979E3,8.753977E3,1.8378763E3,3.1500262E2,2.4918533E2,5.251091E2,2.4584506E2,4.773117E2,1.3816273E3,3.9043872E2,8.884539E3,4.0368828E3,4.717094E3,1.165164E3,6.7271234E2,2.6846152E2,4.6541084E1,2.0813039E2,4.1054947E1,2.2887865E1,5.0222122E2,7.0295815E1,1.7554924E2,1.5177095E2,3.2554074E2,1.3684888E3,1.3138609E1,5.3658985E1,3.3677975E2,2.9677217E3,5.916818E3,1.1537354E3,2.8831475E3,2.9194343E3,1.7976598E3,5.6043176E2,6.0473224E2,6.009038E2,7.1808556E1,1.0668568E1,2.5779297E2,4.2475258E1,4.065829E0,1.6467424E2,4.345614E1,3.7682873E1,3.3720713E0,1.393779E1,8.950075E0,4.3242844E1,4.589784E2,4.00606E1,3.0235214E1,5.6559002E1,1.18990234E2],"tree_param":{"num_deleted":"0","num_feature":"23","num_nodes":"63","size_leaf_vector":"1"}},{"base_weights":[2.1769461E-1,1.2057851E-1,3.300742E-1,-1.3320103E-1,1.3561934E-1,4.003186E-1,1.3690534E-1,-3.7042838E-1,-3.5261866E-2,1.010319E-1,2.1929622E-1,3.3829147E-1,5.311505E-1,9.681735E-2,3.4238112E-1,-4.02247E-1,3.0699643E-1,-7.1651E-2,5.5371964E-1,1.3072564E-1,-2.3833402E-3,2.6922178E-1,1.351278E-1,4.3262574E-1,2.6704687E-1,9.5254004E-2,5.5791277E-1,-1.5132411E-2,1.4258409E-1,8.90493E-2,5.2210003E-1,-2.3704825E-3,-2.2421531E-2,3.9406825E-2,-6.0332515E-3,1.0295796E-2,-7.920349E-3,1.7713079E-3,4.313866E-2,-1.2796198E-3,7.553769E-3,-9.797536E-4,1.8295586E-2,1.3051475E-2,3.551417E-2,-7.4063474E-3,7.775005E-3,2.2864943E-2,9.254367E-3,9.95105E-3,1.8063523E-2,-2.1019639E-4,3.5225037E-2,3.4694307E-2,2.5250627E-2,2.138306E-3,-6.9114924E-3,1.6844995E-2,5.7487804E-3,1.2469853E-2,-1.1504372E-2,1.3141339E-2,3.9475847E-2],"categories":[],"categories_nodes":[],"categories_segments":[],"categories_sizes":[],"default_left":[0,0,0,0,0,0,0,0,0,0,0,0,0,0,0,0,0,0,0,0,0,0,0,0,0,0,0,0,0,0,0,0,0,0,0,0,0,0,0,0,0,0,0,0,0,0,0,0,0,0,0,0,0,0,0,0,0,0,0,0,0,0,0],"id":10,"left_children":[1,3,5,7,9,11,13,15,17,19,21,23,25,27,29,31,33,35,37,39,41,43,45,47,49,51,53,55,57,59,61,-1,-1,-1,-1,-1,-1,-1,-1,-1,-1,-1,-1,-1,-1,-1,-1,-1,-1,-1,-1,-1,-1,-1,-1,-1,-1,-1,-1,-1,-1,-1,-1],"loss_changes":[2.9316516E2,5.5033035E1,1.6892603E2,1.8734943E1,3.9358856E1,7.3927124E1,2.733442E1,5.203659E0,1.2304205E1,2.9570038E1,1.6682465E1,4.1537964E1,3.4188354E1,1.425326E1,2.4629753E1,3.6749153E0,2.3874726E0,1.3031975E1,5.3213987E0,2.3802063E1,1.3630226E1,8.834518E0,8.582634E0,1.6192657E1,2.2577164E1,1.0364246E1,1.954004E1,5.764963E0,1.0553642E1,1.1629477E1,2.1761559E1,0E0,0E0,0E0,0E0,0E0,0E0,0E0,0E0,0E0,0E0,0E0,0E0,0E0,0E0,0E0,0E0,0E0,0E0,0E0,0E0,0E0,0E0,0E0,0E0,0E0,0E0,0E0,0E0,0E0,0E0,0E0,0E0],"parents":[2147483647,0,0,1,1,2,2,3,3,4,4,5,5,6,6,7,7,8,8,9,9,10,10,11,11,12,12,13,13,14,14,15,15,16,16,17,17,18,18,19,19,20,20,21,21,22,22,23,23,24,24,25,25,26,26,27,27,28,28,29,29,30,30],"right_children":[2,4,6,8,10,12,14,16,18,20,22,24,26,28,30,32,34,36,38,40,42,44,46,48,50,52,54,56,58,60,62,-1,-1,-1,-1,-1,-1,-1,-1,-1,-1,-1,-1,-1,-1,-1,-1,-1,-1,-1,-1,-1,-1,-1,-1,-1,-1,-1,-1,-1,-1,-1,-1],"split_conditions":[2.8105894E-1,6.58366E-1,9.2284E1,2.4399057E-1,2.4773936E-1,3.7631422E-1,4.8899707E-1,8.3634096E-1,7.7078995E1,1.94005E0,1.1237809E-2,1.72252E-3,-1.9723994E0,-5.737553E-1,-8.1146365E-1,5.79542E-1,1.7063459E0,7.014057E-3,4.5924995E-4,9.057E-1,1.8292627E-3,1.98579E2,-4.099512E-3,1.44349E0,1.06101346E-4,1.291138E0,5.3415E-1,-2.1251706E-2,-5.045841E-1,6.445922E-1,5.5559784E-1,-2.3704825E-3,-2.2421531E-2,3.9406825E-2,-6.0332515E-3,1.0295796E-2,-7.920349E-3,1.7713079E-3,4.313866E-2,-1.2796198E-3,7.553769E-3,-9.797536E-4,1.8295586E-2,1.3051475E-2,3.551417E-2,-7.4063474E-3,7.775005E-3,2.2864943E-2,9.254367E-3,9.95105E-3,1.8063523E-2,-2.1019639E-4,3.5225037E-2,3.4694307E-2,2.5250627E-2,2.138306E-3,-6.9114924E-3,1.6844995E-2,5.7487804E-3,1.2469853E-2,-1.1504372E-2,1.3141339E-2,3.9475847E-2],"split_indices":[8,17,17,8,8,8,8,11,1,15,6,2,12,12,12,15,0,6,13,17,2,15,13,15,13,15,15,13,11,8,8,0,0,0,0,0,0,0,0,0,0,0,0,0,0,0,0,0,0,0,0,0,0,0,0,0,0,0,0,0,0,0,0],"split_type":[0,0,0,0,0,0,0,0,0,0,0,0,0,0,0,0,0,0,0,0,0,0,0,0,0,0,0,0,0,0,0,0,0,0,0,0,0,0,0,0,0,0,0,0,0,0,0,0,0,0,0,0,0,0,0,0,0,0,0,0,0,0,0],"sum_hessian":[2.6864357E4,1.4411936E4,1.2452422E4,8.0592633E2,1.360601E4,9.130949E3,3.3214724E3,2.346871E2,5.712392E2,9.628372E3,3.977637E3,6.1966963E3,2.9342534E3,2.780477E3,5.409954E2,2.2454637E2,1.0140725E1,5.3882715E2,3.2412086E1,7.480285E3,2.1480874E3,2.495312E3,1.482325E3,2.664107E3,3.5325894E3,1.6999406E2,2.7642593E3,8.070429E2,1.9734341E3,2.2513731E2,3.1585812E2,2.6093285E1,1.984531E2,4.375347E0,5.7653775E0,1.2798349E2,4.1084363E2,1.2523826E1,1.9888262E1,8.6159796E2,6.618687E3,2.0530862E3,9.500118E1,2.451372E3,4.3939903E1,9.903801E1,1.383287E3,2.4218628E3,2.4224399E2,2.0532976E3,1.4792916E3,1.4699123E2,2.3002832E1,7.708279E2,1.9934315E3,5.49323E2,2.577199E2,2.4411127E2,1.7293228E3,1.4999301E2,7.5144295E1,1.6137772E2,1.5448041E2],"tree_param":{"num_deleted":"0","num_feature":"23","num_nodes":"63","size_leaf_vector":"1"}},{"base_weights":[-1.262468E-1,-2.387062E-1,-5.3057697E-2,-1.2836048E-1,-2.9983118E-1,5.7712826E-4,-1.14799194E-1,-6.25762E-2,-2.835858E-1,8.162839E-2,-3.095379E-1,-3.245905E-2,7.121531E-2,-1.0376905E-1,-3.8655868E-1,7.003915E-1,-6.961003E-2,-1.8804953E-1,-4.1625375E-1,-2.9866204E-1,2.7941775E-1,-2.569511E-1,-3.9044353E-1,2.955658E-2,-6.718107E-2,6.053494E-2,6.4675444E-1,-1.6770028E-1,-5.384156E-2,-3.9843976E-2,-5.0061625E-1,4.7746424E-2,-1.785527E-2,1.2996607E-4,-6.620192E-3,-3.7816537E-3,-1.7167736E-2,-2.3987621E-2,-1.2614978E-2,-1.4195655E-3,-2.5376156E-2,-8.118494E-3,2.6526546E-2,-1.1252201E-2,-1.7810808E-2,-1.6297927E-2,-2.3786934E-2,-1.28689E-3,7.003948E-3,-5.5892393E-3,2.1877035E-4,3.3462375E-2,2.6882207E-3,1.2096733E-2,5.5773478E-2,-9.130563E-3,1.7381415E-2,-7.5031345E-4,-1.1484098E-2,-6.6291094E-3,4.235047E-2,2.093782E-2,-2.6152102E-2],"categories":[],"categories_nodes":[],"categories_segments":[],"categories_sizes":[],"default_left":[0,0,0,0,0,0,0,0,0,0,0,0,0,0,0,0,0,0,0,0,0,0,0,0,0,0,0,0,0,0,0,0,0,0,0,0,0,0,0,0,0,0,0,0,0,0,0,0,0,0,0,0,0,0,0,0,0,0,0,0,0,0,0],"id":11,"left_children":[1,3,5,7,9,11,13,15,17,19,21,23,25,27,29,31,33,35,37,39,41,43,45,47,49,51,53,55,57,59,61,-1,-1,-1,-1,-1,-1,-1,-1,-1,-1,-1,-1,-1,-1,-1,-1,-1,-1,-1,-1,-1,-1,-1,-1,-1,-1,-1,-1,-1,-1,-1,-1],"loss_changes":[1.8996591E2,6.1334595E1,4.6305386E1,3.3122177E1,2.170404E1,1.7466738E1,1.9445015E1,1.2288161E1,1.2161812E1,1.1071019E1,2.41922E1,1.0983389E1,1.4621783E1,1.9934692E1,9.9921E0,5.9731474E0,1.0251251E1,9.807743E0,4.0794144E0,2.8342123E0,1.0804361E1,1.0889404E1,1.22057495E1,1.1194303E1,1.0436101E1,9.619061E0,7.955658E0,2.1113007E1,2.396434E1,5.3560143E0,4.1450577E0,0E0,0E0,0E0,0E0,0E0,0E0,0E0,0E0,0E0,0E0,0E0,0E0,0E0,0E0,0E0,0E0,0E0,0E0,0E0,0E0,0E0,0E0,0E0,0E0,0E0,0E0,0E0,0E0,0E0,0E0,0E0,0E0],"parents":[2147483647,0,0,1,1,2,2,3,3,4,4,5,5,6,6,7,7,8,8,9,9,10,10,11,11,12,12,13,13,14,14,15,15,16,16,17,17,18,18,19,19,20,20,21,21,22,22,23,23,24,24,25,25,26,26,27,27,28,28,29,29,30,30],"right_children":[2,4,6,8,10,12,14,16,18,20,22,24,26,28,30,32,34,36,38,40,42,44,46,48,50,52,54,56,58,60,62,-1,-1,-1,-1,-1,-1,-1,-1,-1,-1,-1,-1,-1,-1,-1,-1,-1,-1,-1,-1,-1,-1,-1,-1,-1,-1,-1,-1,-1,-1,-1,-1],"split_conditions":[9.81639E-1,2.8105894E-1,2.552713E-1,9.10459E-1,-1.9723994E0,1.9012E0,6.0635877E-1,-1.1387213E0,2.2721794E1,4.3206105E-1,3.6654833E-1,1.8957148E-1,8.939462E1,2.220669E0,-1.2701719E0,8.85519E-1,2.485275E-1,2.2641541E-1,3.960673E1,-6.112358E-1,-2.282885E0,8.6816E-1,3.1737956E-1,2.8701654E-1,1.474499E0,1.5076701E-1,4.4798534E1,5.4487026E1,9.6155626E-1,5.1597015E1,-1.1253484E0,4.7746424E-2,-1.785527E-2,1.2996607E-4,-6.620192E-3,-3.7816537E-3,-1.7167736E-2,-2.3987621E-2,-1.2614978E-2,-1.4195655E-3,-2.5376156E-2,-8.118494E-3,2.6526546E-2,-1.1252201E-2,-1.7810808E-2,-1.6297927E-2,-2.3786934E-2,-1.28689E-3,7.003948E-3,-5.5892393E-3,2.1877035E-4,3.3462375E-2,2.6882207E-3,1.2096733E-2,5.5773478E-2,-9.130563E-3,1.7381415E-2,-7.5031345E-4,-1.1484098E-2,-6.6291094E-3,4.235047E-2,2.093782E-2,-2.6152102E-2],"split_indices":[16,8,8,16,12,15,8,11,3,8,8,8,1,17,0,17,8,8,3,9,11,16,0,12,15,8,3,3,12,3,9,0,0,0,0,0,0,0,0,0,0,0,0,0,0,0,0,0,0,0,0,0,0,0,0,0,0,0,0,0,0,0,0],"split_type":[0,0,0,0,0,0,0,0,0,0,0,0,0,0,0,0,0,0,0,0,0,0,0,0,0,0,0,0,0,0,0,0,0,0,0,0,0,0,0,0,0,0,0,0,0,0,0,0,0,0,0,0,0,0,0,0,0,0,0,0,0,0,0],"sum_hessian":[2.3080422E4,9.098215E3,1.3982208E4,3.2443894E3,5.853825E3,7.482849E3,6.499359E3,2.279671E3,9.647184E2,1.4507748E2,5.7087476E3,5.0987827E3,2.3840664E3,6.2471807E3,2.5217816E2,1.9923927E1,2.259747E3,5.6225055E2,4.0246783E2,4.9463604E1,9.5613884E1,3.4624265E3,2.246321E3,1.8301582E3,3.2686245E3,2.3417158E3,4.2350414E1,2.7383784E3,3.5088022E3,6.275711E1,1.8942105E2,1.6136824E1,3.787104E0,1.0515184E3,1.2082285E3,3.2702383E2,2.352267E2,2.8872128E2,1.13746544E2,2.2057133E1,2.7406471E1,3.477936E1,6.083452E1,2.622678E3,8.397485E2,1.2819558E3,9.6436523E2,1.2203727E3,6.097856E2,2.0131769E3,1.2554475E3,2.4683329E1,2.3170325E3,2.3537617E1,1.8812798E1,2.6619993E3,7.6379005E1,2.8749414E3,6.338609E2,5.758586E1,5.1712484E0,4.0896034E0,1.8533145E2],"tree_param":{"num_deleted":"0","num_feature":"23","num_nodes":"63","size_leaf_vector":"1"}},{"base_weights":[-1.2812772E-1,-1.1910135E-1,-2.9989123E-1,-1.2249467E-1,4.5237434E-1,-3.82091E-1,-9.2473015E-2,-9.287844E-2,-1.5779057E-1,1.3450398E0,1.8772268E-1,-4.310893E-1,-2.6875374E-1,5.533855E-1,-2.4508703E-1,1.6235209E-1,-1.1057956E-1,-1.8815589E-1,-5.5131067E-2,7.432763E-2,3.103304E-2,-3.4672153E-1,6.520083E-1,1.1012695E-1,-4.4435048E-1,4.9469775E-1,-3.4203E-1,8.135611E-1,-4.9125183E-1,-4.6545348E-1,-1.2841627E-1,1.5827902E-2,-8.502858E-4,-2.883245E-3,-7.5834035E-3,-1.0077725E-2,1.3142548E-3,-1.1932845E-2,2.1075166E-3,-3.2484353E-2,-1.0164156E-2,1.2918054E-2,6.672253E-2,3.7208565E-2,-1.950225E-2,-9.3627546E-4,-2.2792445E-2,-2.0164153E-2,3.829414E-2,-3.8542014E-3,-2.1892985E-2,5.1737458E-2,-1.9050565E-2,-3.4969908E-3,-3.1200398E-2,-1.1441334E-2,-2.7361587E-2,-1.9110259E-2,1.1672613E-3],"categories":[],"categories_nodes":[],"categories_segments":[],"categories_sizes":[],"default_left":[0,0,0,0,0,0,0,0,0,0,0,0,0,0,0,0,0,0,0,0,0,0,0,0,0,0,0,0,0,0,0,0,0,0,0,0,0,0,0,0,0,0,0,0,0,0,0,0,0,0,0,0,0,0,0,0,0,0,0],"id":12,"left_children":[1,3,5,7,9,11,13,15,17,19,21,23,25,27,29,31,33,35,37,-1,-1,39,41,43,45,47,49,51,53,55,57,-1,-1,-1,-1,-1,-1,-1,-1,-1,-1,-1,-1,-1,-1,-1,-1,-1,-1,-1,-1,-1,-1,-1,-1,-1,-1,-1,-1],"loss_changes":[3.5538086E1,4.233185E1,1.9485252E1,2.26409E1,3.0199316E1,4.4359283E0,3.2295334E1,5.3270752E1,3.0810074E1,2.0822983E0,2.5184706E1,4.144188E0,1.4157885E1,1.7432188E1,6.743286E0,2.116011E1,2.3957916E1,2.192691E1,4.032876E1,0E0,0E0,1.9283261E0,1.4208242E1,4.872183E0,2.718155E0,5.7410717E0,5.774042E0,1.3750519E1,6.90145E-1,1.6398926E0,6.725553E0,0E0,0E0,0E0,0E0,0E0,0E0,0E0,0E0,0E0,0E0,0E0,0E0,0E0,0E0,0E0,0E0,0E0,0E0,0E0,0E0,0E0,0E0,0E0,0E0,0E0,0E0,0E0,0E0],"parents":[2147483647,0,0,1,1,2,2,3,3,4,4,5,5,6,6,7,7,8,8,9,9,10,10,11,11,12,12,13,13,14,14,15,15,16,16,17,17,18,18,21,21,22,22,23,23,24,24,25,25,26,26,27,27,28,28,29,29,30,30],"right_children":[2,4,6,8,10,12,14,16,18,20,22,24,26,28,30,32,34,36,38,-1,-1,40,42,44,46,48,50,52,54,56,58,-1,-1,-1,-1,-1,-1,-1,-1,-1,-1,-1,-1,-1,-1,-1,-1,-1,-1,-1,-1,-1,-1,-1,-1,-1,-1,-1,-1],"split_conditions":[4.8899707E-1,3.9098416E-3,4.734947E-3,2.7502707E-1,3.5725993E-1,6.505353E-4,-7.157204E-2,6.70798E-1,9.632E1,1.43601E2,9.7894E1,-1.5408596E0,-5.334105E-1,7.9834807E-1,1.8713896E1,5.8757134E-2,1.359899E0,6.645897E-1,1.655892E1,7.432763E-2,3.103304E-2,-9.530009E-1,4.734947E-3,2.134127E1,-3.284263E0,1.6249784E-3,5.1467305E-1,5.2177685E1,-9.49486E-4,2.7542235E-4,-3.821506E-1,1.5827902E-2,-8.502858E-4,-2.883245E-3,-7.5834035E-3,-1.0077725E-2,1.3142548E-3,-1.1932845E-2,2.1075166E-3,-3.2484353E-2,-1.0164156E-2,1.2918054E-2,6.672253E-2,3.7208565E-2,-1.950225E-2,-9.3627546E-4,-2.2792445E-2,-2.0164153E-2,3.829414E-2,-3.8542014E-3,-2.1892985E-2,5.1737458E-2,-1.9050565E-2,-3.4969908E-3,-3.1200398E-2,-1.1441334E-2,-2.7361587E-2,-1.9110259E-2,1.1672613E-3],"split_indices":[8,2,2,8,8,13,13,16,15,15,17,9,0,8,3,12,17,10,3,0,0,12,2,3,12,13,8,1,14,13,10,0,0,0,0,0,0,0,0,0,0,0,0,0,0,0,0,0,0,0,0,0,0,0,0,0,0,0,0],"split_type":[0,0,0,0,0,0,0,0,0,0,0,0,0,0,0,0,0,0,0,0,0,0,0,0,0,0,0,0,0,0,0,0,0,0,0,0,0,0,0,0,0,0,0,0,0,0,0,0,0,0,0,0,0,0,0,0,0,0,0],"sum_hessian":[2.2943918E4,2.1799998E4,1.143921E3,2.1672098E4,1.2789905E2,8.1864874E2,3.252723E2,1.1786153E4,9.885944E3,2.831402E1,9.958502E1,5.695957E2,2.4905305E2,6.166817E1,2.6360413E2,7.638672E2,1.1022286E4,7.628656E3,2.2572888E3,2.2806444E1,5.507577E0,4.641241E1,5.3172615E1,1.3448035E1,5.5614764E2,2.1307114E1,2.2774596E2,4.954883E1,1.2119343E1,9.021589E1,1.7338824E2,4.1032135E2,3.535458E2,4.8188594E3,6.203427E3,7.1800923E3,4.4856332E2,7.8149994E2,1.4757888E3,1.3779167E1,3.2633244E1,3.4595673E1,1.857694E1,5.715251E0,7.7327843E0,1.4698478E1,5.4144916E2,4.8291454E0,1.6477968E1,6.0973476E1,1.6677248E2,4.192057E1,7.628258E0,3.2696571E0,8.849686E0,2.41463E1,6.606959E1,6.43156E1,1.0907265E2],"tree_param":{"num_deleted":"0","num_feature":"23","num_nodes":"59","size_leaf_vector":"1"}},{"base_weights":[2.1225007E-1,1.0500865E-1,2.9907373E-1,-2.3023349E-1,1.1891587E-1,3.5750616E-1,1.24245584E-1,-3.136808E-1,4.0856726E-2,2.0266636E-1,9.845802E-2,3.0023843E-1,4.936109E-1,-3.1276673E-2,1.7527364E-1,-2.3895024E-1,-6.359096E-1,-4.270137E-2,8.055283E-1,5.3023104E-2,4.2036873E-1,2.466663E-2,1.2539373E-1,3.7722513E-1,2.296625E-1,5.9681624E-1,4.1456708E-1,-6.1160687E-2,5.720472E-1,1.4157812E-1,7.7653724E-1,1.2843588E-2,-1.3358742E-2,-2.5943278E-3,-3.4178037E-2,1.8294243E-2,-1.0026558E-2,5.106468E-2,1.5966838E-2,7.5724017E-4,1.2736027E-2,3.4105327E-2,1.5574748E-2,-1.0319457E-2,3.5499278E-3,1.04608005E-2,3.8343668E-3,1.49345E-2,2.1814493E-2,9.037999E-3,1.8424457E-2,3.0434696E-2,-1.1148572E-2,4.2507436E-2,1.9329568E-2,-1.4319842E-2,2.420846E-4,-1.4633152E-2,3.371085E-2,7.369151E-3,-3.413728E-2,3.136737E-2,4.960531E-2],"categories":[],"categories_nodes":[],"categories_segments":[],"categories_sizes":[],"default_left":[0,0,0,0,0,0,0,0,0,0,0,0,0,0,0,0,0,0,0,0,0,0,0,0,0,0,0,0,0,0,0,0,0,0,0,0,0,0,0,0,0,0,0,0,0,0,0,0,0,0,0,0,0,0,0,0,0,0,0,0,0,0,0],"id":13,"left_children":[1,3,5,7,9,11,13,15,17,19,21,23,25,27,29,31,33,35,37,39,41,43,45,47,49,51,53,55,57,59,61,-1,-1,-1,-1,-1,-1,-1,-1,-1,-1,-1,-1,-1,-1,-1,-1,-1,-1,-1,-1,-1,-1,-1,-1,-1,-1,-1,-1,-1,-1,-1,-1],"loss_changes":[2.5035571E2,5.6126617E1,1.517572E2,1.08626175E1,1.9776016E1,8.6656494E1,2.9558636E1,8.68182E0,7.3038144E0,7.384067E1,1.8457245E1,4.2517517E1,2.664563E1,1.6637552E1,5.670067E1,4.258356E0,1.8697166E0,6.7487054E0,8.5485554E-1,1.0270512E1,2.6102936E1,2.6615927E1,2.7761559E1,1.7258606E1,2.7723785E1,1.4035706E1,2.2460114E1,1.3058121E1,4.0453215E0,1.2812321E1,4.156128E0,0E0,0E0,0E0,0E0,0E0,0E0,0E0,0E0,0E0,0E0,0E0,0E0,0E0,0E0,0E0,0E0,0E0,0E0,0E0,0E0,0E0,0E0,0E0,0E0,0E0,0E0,0E0,0E0,0E0,0E0,0E0,0E0],"parents":[2147483647,0,0,1,1,2,2,3,3,4,4,5,5,6,6,7,7,8,8,9,9,10,10,11,11,12,12,13,13,14,14,15,15,16,16,17,17,18,18,19,19,20,20,21,21,22,22,23,23,24,24,25,25,26,26,27,27,28,28,29,29,30,30],"right_children":[2,4,6,8,10,12,14,16,18,20,22,24,26,28,30,32,34,36,38,40,42,44,46,48,50,52,54,56,58,60,62,-1,-1,-1,-1,-1,-1,-1,-1,-1,-1,-1,-1,-1,-1,-1,-1,-1,-1,-1,-1,-1,-1,-1,-1,-1,-1,-1,-1,-1,-1,-1,-1],"split_conditions":[2.6251933E-1,6.58349E-1,9.2284E1,1.102148E0,9.81639E-1,3.6836016E-1,-7.660423E-1,6.5046E-1,1.603003E-2,9.1977E-1,1.346079E0,1.72252E-3,2.2583995E-3,8.3552533E-1,5.5559784E-1,8.168878E0,1.1324206E-3,1.3211274E-3,8.515964E1,1.697083E-3,9.34939E-1,1.6907185E-1,1.755169E0,2.8913173E-1,1.365299E0,1.0541348E-3,8.670934E0,2.1612444E-3,1.9666324E-3,5.1943418E-3,9.455879E-1,1.2843588E-2,-1.3358742E-2,-2.5943278E-3,-3.4178037E-2,1.8294243E-2,-1.0026558E-2,5.106468E-2,1.5966838E-2,7.5724017E-4,1.2736027E-2,3.4105327E-2,1.5574748E-2,-1.0319457E-2,3.5499278E-3,1.04608005E-2,3.8343668E-3,1.49345E-2,2.1814493E-2,9.037999E-3,1.8424457E-2,3.0434696E-2,-1.1148572E-2,4.2507436E-2,1.9329568E-2,-1.4319842E-2,2.420846E-4,-1.4633152E-2,3.371085E-2,7.369151E-3,-3.413728E-2,3.136737E-2,4.960531E-2],"split_indices":[8,15,17,0,15,8,12,16,6,17,17,2,2,9,8,3,2,2,1,2,17,8,15,8,15,13,3,2,2,2,12,0,0,0,0,0,0,0,0,0,0,0,0,0,0,0,0,0,0,0,0,0,0,0,0,0,0,0,0,0,0,0,0],"split_type":[0,0,0,0,0,0,0,0,0,0,0,0,0,0,0,0,0,0,0,0,0,0,0,0,0,0,0,0,0,0,0,0,0,0,0,0,0,0,0,0,0,0,0,0,0,0,0,0,0,0,0,0,0,0,0,0,0,0,0,0,0,0,0],"sum_hessian":[2.6890271E4,1.2031549E4,1.4858723E4,4.7861798E2,1.1552931E4,1.1135786E4,3.7229365E3,3.658458E2,1.12772194E2,2.266286E3,9.286645E3,7.840152E3,3.2956345E3,9.1984344E2,2.803093E3,2.9838626E2,6.745951E1,1.0251429E2,1.0257906E1,1.3438204E3,9.224656E2,2.4838792E3,6.8027656E3,3.747693E3,4.092459E3,1.4265182E3,1.8691165E3,8.77288E2,4.255546E1,2.6555105E3,1.4758246E2,1.5634466E1,2.827518E2,5.246468E0,6.2213043E1,2.8197922E1,7.431637E1,6.342561E0,3.9153447E0,1.1322598E3,2.1156062E2,2.6944406E2,6.530215E2,4.1430405E2,2.069575E3,2.4989133E3,4.3038525E3,1.6112975E3,2.1363955E3,3.0280962E3,1.0643627E3,1.4063988E3,2.011937E1,1.1102778E2,1.7580886E3,1.9806001E2,6.79228E2,4.2997975E0,3.8255665E1,2.6377566E3,1.7753887E1,8.953071E1,5.8051754E1],"tree_param":{"num_deleted":"0","num_feature":"23","num_nodes":"63","size_leaf_vector":"1"}},{"base_weights":[-1.2042067E-1,-2.3120205E-1,-4.954515E-2,-1.387474E-1,-3.0338055E-1,1.7368196E-2,-9.001244E-2,-8.094797E-2,-3.2925788E-1,5.3105354E-2,-3.1390414E-1,-1.7997093E-2,1.480438E-1,-8.107094E-2,-4.314141E-1,-8.9537E-2,6.136676E-1,-2.3887405E-1,-4.557674E-1,-1.3966128E-1,3.942912E-1,-2.5526458E-1,-3.828244E-1,1.2721488E-1,-3.1542E-2,1.9713044E-1,-7.179846E-2,6.947217E-4,-1.039368E-1,2.0057034E-1,-5.3574055E-1,4.6168524E-4,-7.2765998E-3,4.1301172E-2,-2.282367E-2,-1.3682838E-2,2.5255686E-2,-2.4864987E-2,-1.4741534E-2,-1.9712247E-2,1.4120977E-3,5.241239E-2,7.996718E-3,-1.6032597E-2,-9.652707E-3,-2.3290595E-2,-1.4926583E-2,5.242261E-2,4.7138683E-3,2.0466526E-3,-2.9219238E-3,3.1612206E-3,1.683053E-2,-7.124442E-3,1.1956019E-2,4.8961686E-3,-3.3952394E-3,-4.111682E-3,-1.1207829E-2,-2.7701518E-2,2.9642304E-2,-2.2204747E-2,-3.261582E-2],"categories":[],"categories_nodes":[],"categories_segments":[],"categories_sizes":[],"default_left":[0,0,0,0,0,0,0,0,0,0,0,0,0,0,0,0,0,0,0,0,0,0,0,0,0,0,0,0,0,0,0,0,0,0,0,0,0,0,0,0,0,0,0,0,0,0,0,0,0,0,0,0,0,0,0,0,0,0,0,0,0,0,0],"id":14,"left_children":[1,3,5,7,9,11,13,15,17,19,21,23,25,27,29,31,33,35,37,39,41,43,45,47,49,51,53,55,57,59,61,-1,-1,-1,-1,-1,-1,-1,-1,-1,-1,-1,-1,-1,-1,-1,-1,-1,-1,-1,-1,-1,-1,-1,-1,-1,-1,-1,-1,-1,-1,-1,-1],"loss_changes":[1.8136697E2,6.0101624E1,3.815147E1,4.3503395E1,1.900113E1,2.4543821E1,2.6765808E1,1.815791E1,1.0409203E1,9.654699E0,1.9768219E1,8.225943E0,1.2220953E1,1.5998028E1,1.48658905E1,1.6583008E1,8.828257E0,1.4077047E1,2.4081955E0,4.0293646E0,7.9482737E0,1.0753708E1,1.5653961E1,1.0729025E1,7.4572654E0,1.7254536E1,4.5881405E0,1.2485567E1,1.7428284E1,9.932013E0,1.7658272E0,0E0,0E0,0E0,0E0,0E0,0E0,0E0,0E0,0E0,0E0,0E0,0E0,0E0,0E0,0E0,0E0,0E0,0E0,0E0,0E0,0E0,0E0,0E0,0E0,0E0,0E0,0E0,0E0,0E0,0E0,0E0,0E0],"parents":[2147483647,0,0,1,1,2,2,3,3,4,4,5,5,6,6,7,7,8,8,9,9,10,10,11,11,12,12,13,13,14,14,15,15,16,16,17,17,18,18,19,19,20,20,21,21,22,22,23,23,24,24,25,25,26,26,27,27,28,28,29,29,30,30],"right_children":[2,4,6,8,10,12,14,16,18,20,22,24,26,28,30,32,34,36,38,40,42,44,46,48,50,52,54,56,58,60,62,-1,-1,-1,-1,-1,-1,-1,-1,-1,-1,-1,-1,-1,-1,-1,-1,-1,-1,-1,-1,-1,-1,-1,-1,-1,-1,-1,-1,-1,-1,-1,-1],"split_conditions":[9.7117E-1,2.97746E-1,1.355716E-3,9.1246E-1,-1.9723994E0,5.25688E-1,4.734947E-3,2.7611053E-3,2.2721794E1,-4.1900537E-4,3.6654833E-1,-2.1140666E-3,2.3808962E-1,-1.0879039E0,-3.284263E0,2.485275E-1,8.2599926E-1,9.58729E-1,4.275427E1,3.8110092E1,-4.942982E-3,1.72252E-3,2.2583995E-3,1.5076701E-1,1.7699689E-1,1.755169E0,2.7016652E-1,-8.750899E-1,1.9310588E-2,7.9834807E-1,1.9958474E-1,4.6168524E-4,-7.2765998E-3,4.1301172E-2,-2.282367E-2,-1.3682838E-2,2.5255686E-2,-2.4864987E-2,-1.4741534E-2,-1.9712247E-2,1.4120977E-3,5.241239E-2,7.996718E-3,-1.6032597E-2,-9.652707E-3,-2.3290595E-2,-1.4926583E-2,5.242261E-2,4.7138683E-3,2.0466526E-3,-2.9219238E-3,3.1612206E-3,1.683053E-2,-7.124442E-3,1.1956019E-2,4.8961686E-3,-3.3952394E-3,-4.111682E-3,-1.1207829E-2,-2.7701518E-2,2.9642304E-2,-2.2204747E-2,-3.261582E-2],"split_indices":[17,8,2,17,12,12,2,2,3,13,8,13,8,0,12,8,0,16,3,3,14,2,2,8,8,15,8,12,6,8,0,0,0,0,0,0,0,0,0,0,0,0,0,0,0,0,0,0,0,0,0,0,0,0,0,0,0,0,0,0,0,0,0],"split_type":[0,0,0,0,0,0,0,0,0,0,0,0,0,0,0,0,0,0,0,0,0,0,0,0,0,0,0,0,0,0,0,0,0,0,0,0,0,0,0,0,0,0,0,0,0,0,0,0,0,0,0,0,0,0,0,0,0,0,0,0,0,0,0],"sum_hessian":[2.3099562E4,9.011676E3,1.4087887E4,3.9521814E3,5.059494E3,5.3093525E3,8.778534E3,3.03332E3,9.188612E2,1.449593E2,4.914535E3,4.1791846E3,1.1301681E3,8.555693E3,2.2284093E2,2.9971313E3,3.6188873E1,5.376378E2,3.812234E2,9.300376E1,5.1955547E1,2.6578528E3,2.2566821E3,3.5584592E2,3.8233386E3,9.2396686E2,2.0620116E2,1.8699478E3,6.685745E3,3.1443188E1,1.9139774E2,1.0846791E3,1.9124523E3,3.0387064E1,5.801809E0,5.142289E2,2.3408903E1,3.0136197E2,7.98614E1,3.6425484E1,5.6578274E1,1.2790809E1,3.9164738E1,1.2938136E3,1.3640392E3,1.1348643E3,1.1218179E3,1.1219291E1,3.4462662E2,1.0347059E3,2.7886326E3,4.7214432E2,4.5182254E2,1.6844524E2,3.7755924E1,7.7337994E2,1.0965679E3,5.664773E3,1.02097217E3,1.0613737E1,2.082945E1,1.09849525E2,8.154821E1],"tree_param":{"num_deleted":"0","num_feature":"23","num_nodes":"63","size_leaf_vector":"1"}},{"base_weights":[-1.2341453E-1,-1.04019724E-1,-2.1043724E-1,-1.05986774E-1,1.0638578E0,-3.707679E-1,-1.4051212E-1,-2.8383771E-2,-1.3049307E-1,1.2328255E0,-7.199018E-3,-3.7834328E-1,5.6807035E-1,-2.605289E-1,4.649461E-2,4.1311976E-2,-1.356938E-1,-2.26006E-1,-1.16105735E-1,9.3312105E-3,1.3544507E0,1.849316E-3,-3.921193E-1,-3.8388937E-3,8.742003E-1,-2.796501E-1,3.2573506E-2,6.5701365E-2,-5.8482444E-1,2.9069642E-3,-1.050283E-2,6.173709E-4,-8.965625E-3,3.6980256E-3,-1.2523963E-2,-2.541079E-3,-7.1571404E-3,7.245103E-2,3.668947E-2,2.6531706E-2,-2.9944306E-2,-2.0316498E-2,-3.1513404E-3,2.1702154E-2,5.4530542E-2,-1.1685047E-2,-1.9851515E-2,1.623404E-2,-8.305695E-3,1.1073179E-3,2.362013E-2,-1.66134E-2,-3.174181E-2],"categories":[],"categories_nodes":[],"categories_segments":[],"categories_sizes":[],"default_left":[0,0,0,0,0,0,0,0,0,0,0,0,0,0,0,0,0,0,0,0,0,0,0,0,0,0,0,0,0,0,0,0,0,0,0,0,0,0,0,0,0,0,0,0,0,0,0,0,0,0,0,0,0],"id":15,"left_children":[1,3,5,7,9,11,13,15,17,19,-1,21,23,25,27,29,31,33,35,-1,37,39,41,-1,43,45,47,49,51,-1,-1,-1,-1,-1,-1,-1,-1,-1,-1,-1,-1,-1,-1,-1,-1,-1,-1,-1,-1,-1,-1,-1,-1],"loss_changes":[3.852899E1,4.3026276E1,4.660704E1,3.5463654E1,6.6063347E0,9.199478E0,6.509001E1,3.3490997E1,1.9450668E1,3.2769089E0,0E0,6.5673676E0,2.1421635E0,9.908119E0,1.3792534E1,1.1496656E1,1.1387405E1,1.363221E1,2.173877E1,0E0,3.859558E-1,1.4560413E1,5.6328125E0,0E0,2.1326685E-1,8.850754E0,6.3838873E0,1.9505148E1,2.1334934E-1,0E0,0E0,0E0,0E0,0E0,0E0,0E0,0E0,0E0,0E0,0E0,0E0,0E0,0E0,0E0,0E0,0E0,0E0,0E0,0E0,0E0,0E0,0E0,0E0],"parents":[2147483647,0,0,1,1,2,2,3,3,4,4,5,5,6,6,7,7,8,8,9,9,11,11,12,12,13,13,14,14,15,15,16,16,17,17,18,18,20,20,21,21,22,22,24,24,25,25,26,26,27,27,28,28],"right_children":[2,4,6,8,10,12,14,16,18,20,-1,22,24,26,28,30,32,34,36,-1,38,40,42,-1,44,46,48,50,52,-1,-1,-1,-1,-1,-1,-1,-1,-1,-1,-1,-1,-1,-1,-1,-1,-1,-1,-1,-1,-1,-1,-1,-1],"split_conditions":[3.6836016E-1,3.9098416E-3,1.607313E1,8.6816E-1,3.5725993E-1,1.95206E2,1.829859E0,3.093727E-1,9.4062E-1,-4.553406E-3,-7.199018E-3,5.044E-1,1.702293E-2,9.2564386E-1,9.4306403E-1,2.3206302E-3,3.62225E1,1.86158E-1,1.3593E0,9.3312105E-3,1.43601E2,5.785066E-1,1.0715216E0,-3.8388937E-3,-8.066615E-2,4.7597358E-1,4.4643816E-1,4.734947E-3,3.2298965E1,2.9069642E-3,-1.050283E-2,6.173709E-4,-8.965625E-3,3.6980256E-3,-1.2523963E-2,-2.541079E-3,-7.1571404E-3,7.245103E-2,3.668947E-2,2.6531706E-2,-2.9944306E-2,-2.0316498E-2,-3.1513404E-3,2.1702154E-2,5.4530542E-2,-1.1685047E-2,-1.9851515E-2,1.623404E-2,-8.305695E-3,1.1073179E-3,2.362013E-2,-1.66134E-2,-3.174181E-2],"split_indices":[8,2,3,16,8,16,15,8,15,14,0,16,6,10,8,2,1,8,16,0,15,8,7,0,9,8,8,2,1,0,0,0,0,0,0,0,0,0,0,0,0,0,0,0,0,0,0,0,0,0,0,0,0],"split_type":[0,0,0,0,0,0,0,0,0,0,0,0,0,0,0,0,0,0,0,0,0,0,0,0,0,0,0,0,0,0,0,0,0,0,0,0,0,0,0,0,0,0,0,0,0,0,0,0,0,0,0,0,0],"sum_hessian":[2.2840076E4,1.867922E4,4.1608555E3,1.864872E4,3.0500668E1,1.2622806E3,2.8985747E3,4.4762236E3,1.4172496E4,2.6739342E1,3.7613258E0,1.2527692E3,9.511481E0,1.7652704E3,1.1333044E3,2.7140906E3,1.762133E3,1.8534344E3,1.2319062E4,3.0487645E0,2.3690577E1,4.3836098E1,1.2089331E3,3.3030214E0,6.2084594E0,1.6572048E3,1.0806558E2,1.1007131E3,3.2591305E1,2.544522E3,1.6956865E2,4.0119617E2,1.360937E3,1.3965627E2,1.7137782E3,3.6085872E3,8.710475E3,1.9399971E1,4.290606E0,2.3376295E1,2.0459803E1,1.1586655E3,5.0267548E1,3.037051E0,3.1714087E0,1.193136E3,4.6406888E2,4.3491253E1,6.457433E1,9.9518933E2,1.0552374E2,6.650487E0,2.5940815E1],"tree_param":{"num_deleted":"0","num_feature":"23","num_nodes":"53","size_leaf_vector":"1"}},{"base_weights":[2.0206146E-1,1.089068E-1,2.9869747E-1,-1.6564694E-1,1.2302063E-1,3.6036897E-1,1.225276E-1,-2.371809E-1,7.99806E-2,8.1513524E-2,1.711935E-1,2.9673633E-1,4.8698545E-1,9.8662816E-2,3.597265E-1,-3.0517218E-1,-5.1296502E-2,-3.91712E-1,1.7212528E-1,1.1615931E-1,-6.601793E-4,1.9748007E-1,8.472866E-2,3.780871E-1,2.3016948E-1,6.148014E-1,4.4054976E-1,1.0846085E-1,-3.6056194E-1,-1.7415245E-1,6.30541E-1,-1.2455343E-2,-3.0104104E-2,1.8846959E-2,-6.247249E-3,-5.617474E-3,-3.0723233E-2,4.1485648E-3,3.725535E-2,1.9132035E-3,9.190678E-3,7.957604E-3,-1.0686691E-3,9.60642E-3,4.203796E-2,-3.1628672E-3,6.2057576E-3,1.9649887E-2,1.3509333E-3,9.474225E-3,1.7768335E-2,2.4808062E-2,3.552824E-2,2.275846E-2,-1.1558641E-2,7.3698885E-3,-5.926117E-4,1.6413981E-2,-2.9666618E-2,1.0484825E-2,-2.7227199E-2,1.2946068E-2,3.5021164E-2],"categories":[],"categories_nodes":[],"categories_segments":[],"categories_sizes":[],"default_left":[0,0,0,0,0,0,0,0,0,0,0,0,0,0,0,0,0,0,0,0,0,0,0,0,0,0,0,0,0,0,0,0,0,0,0,0,0,0,0,0,0,0,0,0,0,0,0,0,0,0,0,0,0,0,0,0,0,0,0,0,0,0,0],"id":16,"left_children":[1,3,5,7,9,11,13,15,17,19,21,23,25,27,29,31,33,35,37,39,41,43,45,47,49,51,53,55,57,59,61,-1,-1,-1,-1,-1,-1,-1,-1,-1,-1,-1,-1,-1,-1,-1,-1,-1,-1,-1,-1,-1,-1,-1,-1,-1,-1,-1,-1,-1,-1,-1,-1],"loss_changes":[2.4332971E2,5.3365616E1,1.4411316E2,1.1853048E1,2.6167679E1,7.903491E1,1.9448555E1,6.5798473E0,6.702395E0,2.0030037E1,1.3755569E1,3.5345276E1,1.9228943E1,1.4116781E1,4.5547146E1,6.2071724E0,4.4928937E0,1.5024102E0,6.497404E0,2.6073753E1,6.9136896E0,1.5832886E1,8.252109E0,1.5394836E1,1.8275131E1,9.565887E0,2.3805756E1,1.4356018E1,1.0711795E1,1.5262585E1,5.2389755E0,0E0,0E0,0E0,0E0,0E0,0E0,0E0,0E0,0E0,0E0,0E0,0E0,0E0,0E0,0E0,0E0,0E0,0E0,0E0,0E0,0E0,0E0,0E0,0E0,0E0,0E0,0E0,0E0,0E0,0E0,0E0,0E0],"parents":[2147483647,0,0,1,1,2,2,3,3,4,4,5,5,6,6,7,7,8,8,9,9,10,10,11,11,12,12,13,13,14,14,15,15,16,16,17,17,18,18,19,19,20,20,21,21,22,22,23,23,24,24,25,25,26,26,27,27,28,28,29,29,30,30],"right_children":[2,4,6,8,10,12,14,16,18,20,22,24,26,28,30,32,34,36,38,40,42,44,46,48,50,52,54,56,58,60,62,-1,-1,-1,-1,-1,-1,-1,-1,-1,-1,-1,-1,-1,-1,-1,-1,-1,-1,-1,-1,-1,-1,-1,-1,-1,-1,-1,-1,-1,-1,-1,-1],"split_conditions":[2.7502707E-1,6.55694E-1,9.2284E1,1.1423349E0,2.2785261E-1,3.6836016E-1,5.3955525E-1,2.639627E-1,2.3278904E-1,1.778849E0,2.10169E0,1.72252E-3,5.3429E-1,4.3481104E-3,-8.179865E-1,6.5046E-1,5.759801E-3,5.248998E-4,1.5329089E-2,1.9915775E1,9.618372E0,2.088279E0,-2.5522444E-1,2.05428E0,1.36518E0,2.8514194E-6,5.9392845E1,3.1210487E1,-1.071223E0,6.445922E-1,5.5559784E-1,-1.2455343E-2,-3.0104104E-2,1.8846959E-2,-6.247249E-3,-5.617474E-3,-3.0723233E-2,4.1485648E-3,3.725535E-2,1.9132035E-3,9.190678E-3,7.957604E-3,-1.0686691E-3,9.60642E-3,4.203796E-2,-3.1628672E-3,6.2057576E-3,1.9649887E-2,1.3509333E-3,9.474225E-3,1.7768335E-2,2.4808062E-2,3.552824E-2,2.275846E-2,-1.1558641E-2,7.3698885E-3,-5.926117E-4,1.6413981E-2,-2.9666618E-2,1.0484825E-2,-2.7227199E-2,1.2946068E-2,3.5021164E-2],"split_indices":[8,17,17,0,8,8,8,8,8,16,17,2,17,2,0,16,6,19,6,3,3,16,11,16,16,13,3,3,0,8,8,0,0,0,0,0,0,0,0,0,0,0,0,0,0,0,0,0,0,0,0,0,0,0,0,0,0,0,0,0,0,0,0],"split_type":[0,0,0,0,0,0,0,0,0,0,0,0,0,0,0,0,0,0,0,0,0,0,0,0,0,0,0,0,0,0,0,0,0,0,0,0,0,0,0,0,0,0,0,0,0,0,0,0,0,0,0,0,0,0,0,0,0,0,0,0,0,0,0],"sum_hessian":[2.7032959E4,1.3765498E4,1.3267462E4,6.725117E2,1.3092986E4,9.826478E3,3.4409846E3,5.208572E2,1.5165454E2,7.03453E3,6.058456E3,6.54204E3,3.284437E3,3.1277183E3,3.1326648E2,3.8089487E2,1.3996233E2,2.4252728E1,1.2740182E2,4.94797E3,2.0865593E3,4.645019E3,1.413437E3,2.9419858E3,3.6000542E3,8.7199585E2,2.4124412E3,3.063127E3,6.459118E1,1.05548E2,2.0771849E2,3.219418E2,5.895306E1,1.9934322E1,1.2002799E2,1.1426583E1,1.2826143E1,1.1123832E2,1.6163494E1,2.3006409E3,2.6473296E3,2.3864162E2,1.8479176E3,4.6079824E3,3.7036674E1,2.9698303E2,1.116454E3,2.8220098E3,1.1997625E2,2.7189868E3,8.8106757E2,3.922378E2,4.797581E2,2.3613704E3,5.107076E1,2.3140168E3,7.4911017E2,1.6210083E1,4.83811E1,5.2045444E1,5.3502552E1,3.3623024E1,1.7409547E2],"tree_param":{"num_deleted":"0","num_feature":"23","num_nodes":"63","size_leaf_vector":"1"}},{"base_weights":[-1.1477486E-1,-3.844541E-2,-2.0401359E-1,-8.276275E-2,1.5678218E-2,-2.538221E-1,-7.066913E-2,-1.614598E-2,-1.1918072E-1,-1.8427905E-2,9.6664436E-2,-3.3786234E-1,-2.2202961E-1,2.4135591E-2,-1.9827414E-1,-6.886817E-2,1.2632428E-1,-3.5760694E-3,-1.503785E-1,1.2932698E-1,-4.146454E-2,1.6726674E-1,-4.4889033E-2,3.0150005E-1,-3.4749553E-1,-2.3107028E-1,6.3560843E-1,6.999509E-2,-1.4779158E-1,-6.0229294E-2,-2.9514292E-1,9.598108E-4,-8.609253E-3,7.3039383E-3,-3.076647E-2,-2.1105313E-3,1.5957162E-2,-6.415645E-3,-1.4786883E-2,3.4366832E-3,2.0524688E-2,-3.9391876E-3,2.1097763E-3,3.969985E-2,7.2721276E-3,4.956352E-3,-6.672192E-3,3.3053875E-2,-9.320117E-3,-1.448031E-2,-2.1583108E-2,-1.0885024E-2,-2.1041939E-2,-1.140903E-2,3.9620668E-2,4.462355E-3,-1.3274972E-2,-1.1088973E-2,4.0618684E-3,5.8885734E-3,-6.456916E-3,-1.3045124E-2,-3.1836055E-2],"categories":[],"categories_nodes":[],"categories_segments":[],"categories_sizes":[],"default_left":[0,0,0,0,0,0,0,0,0,0,0,0,0,0,0,0,0,0,0,0,0,0,0,0,0,0,0,0,0,0,0,0,0,0,0,0,0,0,0,0,0,0,0,0,0,0,0,0,0,0,0,0,0,0,0,0,0,0,0,0,0,0,0],"id":17,"left_children":[1,3,5,7,9,11,13,15,17,19,21,23,25,27,29,31,33,35,37,39,41,43,45,47,49,51,53,55,57,59,61,-1,-1,-1,-1,-1,-1,-1,-1,-1,-1,-1,-1,-1,-1,-1,-1,-1,-1,-1,-1,-1,-1,-1,-1,-1,-1,-1,-1,-1,-1,-1,-1],"loss_changes":[1.5594086E2,2.9602995E1,7.008243E1,1.645985E1,1.535018E1,2.045514E1,3.4745514E1,1.8032084E1,1.5821426E1,1.3317213E1,1.6465889E1,1.3082413E1,4.339511E1,1.3007966E1,1.6352642E1,1.5944171E1,9.590517E0,1.1650174E1,1.1042549E1,8.963009E0,1.0569088E1,1.4916489E1,7.012601E0,5.7041283E0,9.991257E0,1.391449E1,8.097786E0,8.4336E0,5.9056525E0,6.2226005E0,8.244785E0,0E0,0E0,0E0,0E0,0E0,0E0,0E0,0E0,0E0,0E0,0E0,0E0,0E0,0E0,0E0,0E0,0E0,0E0,0E0,0E0,0E0,0E0,0E0,0E0,0E0,0E0,0E0,0E0,0E0,0E0,0E0,0E0],"parents":[2147483647,0,0,1,1,2,2,3,3,4,4,5,5,6,6,7,7,8,8,9,9,10,10,11,11,12,12,13,13,14,14,15,15,16,16,17,17,18,18,19,19,20,20,21,21,22,22,23,23,24,24,25,25,26,26,27,27,28,28,29,29,30,30],"right_children":[2,4,6,8,10,12,14,16,18,20,22,24,26,28,30,32,34,36,38,40,42,44,46,48,50,52,54,56,58,60,62,-1,-1,-1,-1,-1,-1,-1,-1,-1,-1,-1,-1,-1,-1,-1,-1,-1,-1,-1,-1,-1,-1,-1,-1,-1,-1,-1,-1,-1,-1,-1,-1],"split_conditions":[2.7929553E-1,1.4752E0,9.2284E1,2.0952521E-1,4.399395E-1,5.84658E-1,1.7780984E-2,3.5494873E-1,7.9903E-1,9.8745696E-2,2.4773936E-1,-2.5214212E0,6.2169785E1,6.2111217E1,-8.750899E-1,2.0500727E1,1.46896E0,6.79888E-1,3.7074177E1,1.07628E2,2.3115526E1,7.6001334E0,1.9473038E1,5.5216968E-2,5.900848E-1,1.273508E0,1.2896668E1,1.9709E2,2.2473618E1,-1.4172397E0,6.0635877E-1,9.598108E-4,-8.609253E-3,7.3039383E-3,-3.076647E-2,-2.1105313E-3,1.5957162E-2,-6.415645E-3,-1.4786883E-2,3.4366832E-3,2.0524688E-2,-3.9391876E-3,2.1097763E-3,3.969985E-2,7.2721276E-3,4.956352E-3,-6.672192E-3,3.3053875E-2,-9.320117E-3,-1.448031E-2,-2.1583108E-2,-1.0885024E-2,-2.1041939E-2,-1.140903E-2,3.9620668E-2,4.462355E-3,-1.3274972E-2,-1.1088973E-2,4.0618684E-3,5.8885734E-3,-6.456916E-3,-1.3045124E-2,-3.1836055E-2],"split_indices":[8,17,17,8,12,17,6,12,17,7,8,12,3,1,12,3,15,16,3,16,3,3,3,6,7,12,1,15,3,11,8,0,0,0,0,0,0,0,0,0,0,0,0,0,0,0,0,0,0,0,0,0,0,0,0,0,0,0,0,0,0,0,0],"split_type":[0,0,0,0,0,0,0,0,0,0,0,0,0,0,0,0,0,0,0,0,0,0,0,0,0,0,0,0,0,0,0,0,0,0,0,0,0,0,0,0,0,0,0,0,0,0,0,0,0,0,0,0,0,0,0,0,0,0,0,0,0,0,0],"sum_hessian":[2.2893766E4,1.2340161E4,1.0553604E4,6.784428E3,5.5557334E3,7.682889E3,2.8707144E3,2.3984885E3,4.3859395E3,3.9099075E3,1.645826E3,2.106072E3,5.5768174E3,1.6475043E3,1.22321E3,1.7510251E3,6.4746344E2,9.323168E2,3.4536226E3,5.2675226E2,3.3831553E3,1.0979983E3,5.4782776E2,3.0811125E1,2.0752607E3,5.519366E3,5.7450974E1,1.3010562E3,3.4644815E2,5.050706E2,7.181394E2,9.457277E2,8.0529736E2,6.314474E2,1.6016027E1,8.334133E2,9.8903435E1,3.00009E3,4.5353256E2,4.3438406E2,9.23682E1,2.3395732E3,1.043582E3,3.5757614E1,1.0622407E3,2.0854807E2,3.3927972E2,1.7533922E1,1.3277203E1,1.2322012E3,8.430596E2,5.1581084E3,3.6125803E2,8.756882E0,4.869409E1,1.2311423E3,6.991383E1,2.6187955E2,8.456862E1,1.4076016E2,3.6431042E2,6.5431354E2,6.382583E1],"tree_param":{"num_deleted":"0","num_feature":"23","num_nodes":"63","size_leaf_vector":"1"}},{"base_weights":[-1.2215818E-1,-1.1282608E-1,-3.015105E-1,-1.16152056E-1,4.3760964E-1,-3.706857E-1,-1.2039826E-1,-8.449392E-2,-1.476666E-1,1.1923505E0,1.7767608E-1,-2.8081194E-1,-4.5261458E-1,1.0969456E-1,-3.4388214E-1,5.2820984E-2,-1.11326866E-1,-1.720733E-1,-7.510871E-2,8.502486E-3,1.2914919E0,-3.11683E-1,6.585159E-1,-2.9689682E-1,5.450869E-1,-5.326661E-1,-2.6837978E-1,-3.231579E-1,3.3552083E-1,-4.136483E-1,2.8128859E-2,3.5678688E-3,-2.8120741E-2,-1.9264407E-2,-4.9643577E-3,-8.9809215E-3,1.681344E-3,-7.7503147E-3,5.451798E-3,6.879768E-2,2.0808345E-2,-2.7234131E-2,6.43378E-3,4.8609953E-2,1.9934545E-3,-1.2491696E-2,-2.992175E-2,-2.9525452E-3,4.915317E-2,-2.7610833E-2,-1.544603E-2,1.2686009E-3,-1.8735087E-2,-2.9001324E-2,-4.670721E-3,4.7397543E-2,3.317037E-3,-8.849016E-3,-2.4231782E-2,1.4233264E-2,-2.066362E-2],"categories":[],"categories_nodes":[],"categories_segments":[],"categories_sizes":[],"default_left":[0,0,0,0,0,0,0,0,0,0,0,0,0,0,0,0,0,0,0,0,0,0,0,0,0,0,0,0,0,0,0,0,0,0,0,0,0,0,0,0,0,0,0,0,0,0,0,0,0,0,0,0,0,0,0,0,0,0,0,0,0],"id":18,"left_children":[1,3,5,7,9,11,13,15,17,19,21,23,25,27,29,31,33,35,37,-1,39,41,43,45,47,49,51,53,55,57,59,-1,-1,-1,-1,-1,-1,-1,-1,-1,-1,-1,-1,-1,-1,-1,-1,-1,-1,-1,-1,-1,-1,-1,-1,-1,-1,-1,-1,-1,-1],"loss_changes":[3.8129425E1,3.9732513E1,1.40765915E1,2.1483612E1,2.5369295E1,5.8749084E0,1.613285E1,3.9617798E1,1.910582E1,3.1481857E0,2.3304035E1,5.3607407E0,6.1217804E0,1.5257458E1,4.1388702E0,2.0089806E1,2.9626656E1,1.2543137E1,4.002408E1,0E0,1.6556282E0,5.1315894E0,9.632221E0,5.307354E0,2.1295435E0,1.1202774E0,4.0909195E0,3.1115117E0,1.6807428E1,2.1650314E0,3.067363E0,0E0,0E0,0E0,0E0,0E0,0E0,0E0,0E0,0E0,0E0,0E0,0E0,0E0,0E0,0E0,0E0,0E0,0E0,0E0,0E0,0E0,0E0,0E0,0E0,0E0,0E0,0E0,0E0,0E0,0E0],"parents":[2147483647,0,0,1,1,2,2,3,3,4,4,5,5,6,6,7,7,8,8,9,9,10,10,11,11,12,12,13,13,14,14,15,15,16,16,17,17,18,18,20,20,21,21,22,22,23,23,24,24,25,25,26,26,27,27,28,28,29,29,30,30],"right_children":[2,4,6,8,10,12,14,16,18,20,22,24,26,28,30,32,34,36,38,-1,40,42,44,46,48,50,52,54,56,58,60,-1,-1,-1,-1,-1,-1,-1,-1,-1,-1,-1,-1,-1,-1,-1,-1,-1,-1,-1,-1,-1,-1,-1,-1,-1,-1,-1,-1,-1,-1],"split_conditions":[4.8899707E-1,3.9098416E-3,4.734947E-3,2.662769E-1,3.5725993E-1,-2.500413E-1,7.9834807E-1,9.2E-1,3.012813E1,-3.735409E-2,9.7894E1,5.5216968E-2,5.647099E-1,2.088279E0,5.8298373E-1,2.2728185E-3,9.3875E-1,8.328703E-1,1.972339E0,8.502486E-3,7.39373E-1,3.6931214E-1,3.55006E1,4.99688E1,1.68038E1,3.800228E-3,5.1467305E-1,2.7066107E1,2.5716865E-1,3.5421424E-2,2.124209E0,3.5678688E-3,-2.8120741E-2,-1.9264407E-2,-4.9643577E-3,-8.9809215E-3,1.681344E-3,-7.7503147E-3,5.451798E-3,6.879768E-2,2.0808345E-2,-2.7234131E-2,6.43378E-3,4.8609953E-2,1.9934545E-3,-1.2491696E-2,-2.992175E-2,-2.9525452E-3,4.915317E-2,-2.7610833E-2,-1.544603E-2,1.2686009E-3,-1.8735087E-2,-2.9001324E-2,-4.670721E-3,4.7397543E-2,3.317037E-3,-8.849016E-3,-2.4231782E-2,1.4233264E-2,-2.066362E-2],"split_indices":[8,2,2,8,8,12,8,16,3,7,17,6,10,17,9,2,17,10,16,0,7,12,3,3,1,19,8,3,7,6,16,0,0,0,0,0,0,0,0,0,0,0,0,0,0,0,0,0,0,0,0,0,0,0,0,0,0,0,0,0,0],"split_type":[0,0,0,0,0,0,0,0,0,0,0,0,0,0,0,0,0,0,0,0,0,0,0,0,0,0,0,0,0,0,0,0,0,0,0,0,0,0,0,0,0,0,0,0,0,0,0,0,0,0,0,0,0,0,0,0,0,0,0,0,0],"sum_hessian":[2.2800373E4,2.1674242E4,1.12613E3,2.1544848E4,1.2939465E2,8.141294E2,3.120006E2,1.0749776E4,1.0795072E4,3.2228657E1,9.7166E1,3.9035162E2,4.2377777E2,1.5397815E2,1.5802248E2,1.7570874E3,8.992688E3,8.076847E3,2.7182249E3,3.0892217E0,2.9139435E1,4.8330746E1,4.8835255E1,3.8352283E2,6.8288255E0,2.9409842E2,1.2967935E2,5.2643234E1,1.0133491E2,1.3297305E2,2.5049414E1,1.7065548E3,5.053264E1,3.7725778E2,8.615431E3,7.7911914E3,2.856558E2,1.8958169E3,8.22408E2,2.6053545E1,3.0858889E0,3.1452106E1,1.687864E1,3.202538E1,1.6809874E1,3.3332697E2,5.0195858E1,3.2336092E0,3.5952163E0,2.6911542E2,2.4982983E1,3.466539E1,9.5013954E1,2.4134542E1,2.8508692E1,3.0170446E1,7.116446E1,3.148773E1,1.0148533E2,1.6066732E1,8.98268E0],"tree_param":{"num_deleted":"0","num_feature":"23","num_nodes":"61","size_leaf_vector":"1"}},{"base_weights":[1.9491005E-1,2.8802973E-1,1.3382398E-1,4.8699617E-1,2.610404E-1,8.205958E-2,1.7132398E-1,-3.4752187E-1,5.007724E-1,2.1127029E-1,4.1190627E-1,1.5813465E-1,4.6110623E-2,2.1599105E-1,1.1298113E-1,-5.677731E-1,2.0628072E-2,4.3724996E-1,6.277896E-1,1.4977452E-1,2.9152778E-1,-6.222414E-2,4.2103428E-1,-2.5728205E-1,1.6896121E-1,2.5896457E-1,3.7991636E-2,1.4459111E-1,2.6023075E-1,-3.902863E-2,1.5659428E-1,-1.580752E-2,-3.7373558E-2,1.7759457E-2,2.7402192E-2,2.8395325E-2,4.3711506E-2,-2.8113974E-4,7.970049E-3,2.3137955E-2,1.2385477E-2,-2.3410505E-2,3.9570048E-3,1.4752335E-2,2.2922676E-2,3.458122E-2,-1.851631E-2,9.9857105E-3,4.844192E-4,-9.557257E-3,1.7968673E-2,2.009774E-3,-3.005164E-2,1.2046024E-2,1.181104E-3,8.905228E-3,1.8311908E-2,-1.3049783E-2,2.5710424E-3,6.7850794E-3,2.0578118E-2],"categories":[],"categories_nodes":[],"categories_segments":[],"categories_sizes":[],"default_left":[0,0,0,0,0,0,0,0,0,0,0,0,0,0,0,0,0,0,0,0,0,0,0,0,0,0,0,0,0,0,0,0,0,0,0,0,0,0,0,0,0,0,0,0,0,0,0,0,0,0,0,0,0,0,0,0,0,0,0,0,0],"id":19,"left_children":[1,3,5,7,9,11,13,15,17,19,21,23,25,27,29,31,-1,33,35,37,39,41,43,45,47,49,51,53,55,57,59,-1,-1,-1,-1,-1,-1,-1,-1,-1,-1,-1,-1,-1,-1,-1,-1,-1,-1,-1,-1,-1,-1,-1,-1,-1,-1,-1,-1,-1,-1],"loss_changes":[1.5402039E2,5.7480713E1,3.1736877E1,1.4892181E1,7.085852E1,1.8790062E1,2.469165E1,3.8136382E0,9.890442E0,3.503183E1,1.0165405E1,9.961758E0,8.059063E0,1.692662E1,2.7284801E1,5.3228235E-1,0E0,7.4709473E0,5.6679993E0,6.0231323E0,2.300998E1,2.6267262E0,1.0701416E1,6.3071594E0,1.0528343E1,7.8141775E0,6.3597164E0,2.396268E1,2.879303E1,1.8446825E1,1.697725E1,0E0,0E0,0E0,0E0,0E0,0E0,0E0,0E0,0E0,0E0,0E0,0E0,0E0,0E0,0E0,0E0,0E0,0E0,0E0,0E0,0E0,0E0,0E0,0E0,0E0,0E0,0E0,0E0,0E0,0E0],"parents":[2147483647,0,0,1,1,2,2,3,3,4,4,5,5,6,6,7,7,8,8,9,9,10,10,11,11,12,12,13,13,14,14,15,15,17,17,18,18,19,19,20,20,21,21,22,22,23,23,24,24,25,25,26,26,27,27,28,28,29,29,30,30],"right_children":[2,4,6,8,10,12,14,16,18,20,22,24,26,28,30,32,-1,34,36,38,40,42,44,46,48,50,52,54,56,58,60,-1,-1,-1,-1,-1,-1,-1,-1,-1,-1,-1,-1,-1,-1,-1,-1,-1,-1,-1,-1,-1,-1,-1,-1,-1,-1,-1,-1,-1,-1],"split_conditions":[9.7117E-1,5.3429E-1,1.4248741E-3,-2.5214212E0,8.91439E-1,-1.3216054E-1,9.2284E1,5.11789E-1,1.5021166E-4,2.8196338E-1,1.7818941E1,1.068947E0,6.780419E-4,1.359899E0,-7.660423E-1,-5.9373915E-4,2.0628072E-2,5.2046E-1,2.8217137E-3,5.60098E-1,5.84649E-1,1.0983676E1,1.32945E1,-7.8078794E-1,2.101949E0,1.356042E0,1.105E-1,1.14828E0,1.8659225E-3,2.3036895E-3,3.609729E-3,-1.580752E-2,-3.7373558E-2,1.7759457E-2,2.7402192E-2,2.8395325E-2,4.3711506E-2,-2.8113974E-4,7.970049E-3,2.3137955E-2,1.2385477E-2,-2.3410505E-2,3.9570048E-3,1.4752335E-2,2.2922676E-2,3.458122E-2,-1.851631E-2,9.9857105E-3,4.844192E-4,-9.557257E-3,1.7968673E-2,2.009774E-3,-3.005164E-2,1.2046024E-2,1.181104E-3,8.905228E-3,1.8311908E-2,-1.3049783E-2,2.5710424E-3,6.7850794E-3,2.0578118E-2],"split_indices":[17,17,2,12,15,12,17,15,13,0,1,16,2,17,12,13,0,16,2,16,15,1,3,11,15,15,20,15,2,2,2,0,0,0,0,0,0,0,0,0,0,0,0,0,0,0,0,0,0,0,0,0,0,0,0,0,0,0,0,0,0],"split_type":[0,0,0,0,0,0,0,0,0,0,0,0,0,0,0,0,0,0,0,0,0,0,0,0,0,0,0,0,0,0,0,0,0,0,0,0,0,0,0,0,0,0,0,0,0,0,0,0,0,0,0,0,0,0,0,0,0,0,0,0,0],"sum_hessian":[2.7082412E4,1.0726779E4,1.6355632E4,1.2792262E3,9.447554E3,6.872344E3,9.483287E3,2.038111E1,1.2588451E3,7.1057817E3,2.3417715E3,2.2042715E3,4.6680728E3,5.3696226E3,4.113665E3,1.5998263E1,4.3828454E0,8.4213043E2,4.1671472E2,4.0247556E3,3.0810261E3,4.4122612E1,2.297649E3,5.5410244E1,2.1488613E3,1.703792E2,4.4976934E3,2.055864E3,3.3137585E3,9.171445E2,3.1965205E3,7.814845E0,8.183418E0,4.8621518E2,3.5591522E2,3.3790976E2,7.880497E1,2.3480347E2,3.7899521E3,6.25838E2,2.4551882E3,1.0798414E1,3.33242E1,5.281831E2,1.7694658E3,5.353567E0,5.0056675E1,1.8008856E3,3.4797568E2,3.0910582E1,1.3946861E2,4.4831694E3,1.4524299E1,1.1439381E3,9.11926E2,1.8687095E3,1.445049E3,2.6498184E2,6.5216266E2,2.9558438E3,2.406767E2],"tree_param":{"num_deleted":"0","num_feature":"23","num_nodes":"61","size_leaf_vector":"1"}},{"base_weights":[-1.1432502E-1,-2.1786368E-1,-4.840578E-2,-1.3762754E-1,-2.8256056E-1,2.0175025E-2,-8.96862E-2,-8.506067E-2,-2.9675302E-1,-2.4035822E-1,-3.8517568E-1,-3.1385448E-2,6.606763E-2,-8.0985785E-2,-4.2558464E-1,-9.351346E-2,5.934016E-1,-1.9484898E-1,-4.0984368E-1,-2.5087845E-1,1.7646512E-1,-2.8607064E-1,-4.5196328E-1,2.5770234E-2,-1.4401172E-1,-5.307635E-2,1.01682656E-1,2.1280723E-2,-9.951409E-2,-5.16458E-1,3.3002295E-2,9.833246E-3,-5.4310774E-3,-2.7747367E-2,3.69112E-2,-1.9744568E-2,-4.2939396E-3,-2.3023082E-2,-1.4254311E-2,-1.2770705E-2,4.931335E-2,4.6244532E-2,-1.2052293E-3,-1.0404724E-2,-2.3540912E-2,-2.3294486E-2,1.9308862E-3,9.046292E-3,-1.3898332E-3,1.7863486E-2,-9.355514E-3,-6.654303E-3,1.5891204E-2,4.135365E-3,2.4620924E-2,3.9763432E-2,6.1053433E-4,-3.9860755E-3,-9.5164245E-3,-2.0512156E-2,-3.3008963E-2,-2.0241715E-2,1.7713595E-2],"categories":[],"categories_nodes":[],"categories_segments":[],"categories_sizes":[],"default_left":[0,0,0,0,0,0,0,0,0,0,0,0,0,0,0,0,0,0,0,0,0,0,0,0,0,0,0,0,0,0,0,0,0,0,0,0,0,0,0,0,0,0,0,0,0,0,0,0,0,0,0,0,0,0,0,0,0,0,0,0,0,0,0],"id":20,"left_children":[1,3,5,7,9,11,13,15,17,19,21,23,25,27,29,31,33,35,37,39,41,43,45,47,49,51,53,55,57,59,61,-1,-1,-1,-1,-1,-1,-1,-1,-1,-1,-1,-1,-1,-1,-1,-1,-1,-1,-1,-1,-1,-1,-1,-1,-1,-1,-1,-1,-1,-1,-1,-1],"loss_changes":[1.5609552E2,4.6145477E1,3.956874E1,3.32118E1,2.1233337E1,1.2430393E1,2.5463242E1,1.7192492E1,1.1286438E1,1.5357239E1,9.35849E0,1.5930132E1,1.17985525E1,1.6118946E1,9.187138E0,1.296431E1,6.5475855E0,1.1316778E1,2.8151321E0,1.9366623E1,1.3015004E1,8.254753E0,5.856735E0,1.3652606E1,1.8064278E1,1.9042048E1,1.5825855E1,9.1549225E0,1.2928665E1,2.5336266E0,5.39478E0,0E0,0E0,0E0,0E0,0E0,0E0,0E0,0E0,0E0,0E0,0E0,0E0,0E0,0E0,0E0,0E0,0E0,0E0,0E0,0E0,0E0,0E0,0E0,0E0,0E0,0E0,0E0,0E0,0E0,0E0,0E0,0E0],"parents":[2147483647,0,0,1,1,2,2,3,3,4,4,5,5,6,6,7,7,8,8,9,9,10,10,11,11,12,12,13,13,14,14,15,15,16,16,17,17,18,18,19,19,20,20,21,21,22,22,23,23,24,24,25,25,26,26,27,27,28,28,29,29,30,30],"right_children":[2,4,6,8,10,12,14,16,18,20,22,24,26,28,30,32,34,36,38,40,42,44,46,48,50,52,54,56,58,60,62,-1,-1,-1,-1,-1,-1,-1,-1,-1,-1,-1,-1,-1,-1,-1,-1,-1,-1,-1,-1,-1,-1,-1,-1,-1,-1,-1,-1,-1,-1,-1,-1],"split_conditions":[9.81639E-1,2.97746E-1,1.355716E-3,9.1246E-1,8.2599926E-1,1.561529E0,4.734947E-3,2.7611053E-3,2.2641541E-1,4.734947E-3,3.4563735E-1,2.0460261E-1,9.6180034E-4,-1.3729401E0,4.275427E1,8.9584367E-4,1.0165848E-2,9.34939E-1,1.546732E-3,4.370266E-2,2.8587263E-2,2.5799612E1,1.7996299E-3,1.158748E0,8.957245E0,1.611E2,4.646553E1,1.041558E0,1.8511986E-2,1.9958474E-1,7.9834807E-1,9.833246E-3,-5.4310774E-3,-2.7747367E-2,3.69112E-2,-1.9744568E-2,-4.2939396E-3,-2.3023082E-2,-1.4254311E-2,-1.2770705E-2,4.931335E-2,4.6244532E-2,-1.2052293E-3,-1.0404724E-2,-2.3540912E-2,-2.3294486E-2,1.9308862E-3,9.046292E-3,-1.3898332E-3,1.7863486E-2,-9.355514E-3,-6.654303E-3,1.5891204E-2,4.135365E-3,2.4620924E-2,3.9763432E-2,6.1053433E-4,-3.9860755E-3,-9.5164245E-3,-2.0512156E-2,-3.3008963E-2,-2.0241715E-2,1.7713595E-2],"split_indices":[16,8,2,17,0,17,2,2,8,2,8,8,2,0,3,2,6,15,2,6,6,3,13,17,3,15,3,15,6,0,8,0,0,0,0,0,0,0,0,0,0,0,0,0,0,0,0,0,0,0,0,0,0,0,0,0,0,0,0,0,0,0,0],"split_type":[0,0,0,0,0,0,0,0,0,0,0,0,0,0,0,0,0,0,0,0,0,0,0,0,0,0,0,0,0,0,0,0,0,0,0,0,0,0,0,0,0,0,0,0,0,0,0,0,0,0,0,0,0,0,0,0,0,0,0,0,0,0,0],"sum_hessian":[2.2871047E4,8.895956E3,1.3975091E4,3.9724753E3,4.9234805E3,5.2513403E3,8.72375E3,2.9871943E3,9.852809E2,3.4910608E3,1.4324198E3,2.47311E3,2.7782305E3,8.504703E3,2.1904709E2,2.951287E3,3.5907185E1,5.19706E2,4.655749E2,3.405507E3,8.555373E1,5.788126E2,8.536072E2,1.6410697E3,8.320404E2,6.3924744E2,2.138983E3,1.3044849E3,7.200218E3,1.8271434E2,3.6332752E1,1.4545927E2,2.805828E3,3.7041035E0,3.2203083E1,1.8234386E2,3.3736212E2,3.2928354E2,1.3629135E2,3.3938582E3,1.1649056E1,1.731849E1,6.823523E1,4.085168E2,1.7029582E2,8.300931E2,2.3514095E1,4.2055676E2,1.220513E3,6.529552E1,7.667449E2,5.2634644E2,1.1290096E2,2.0410737E3,9.790927E1,1.4105631E1,1.2903792E3,5.913316E3,1.2869019E3,1.0728303E2,7.543131E1,1.5266697E1,2.1066057E1],"tree_param":{"num_deleted":"0","num_feature":"23","num_nodes":"63","size_leaf_vector":"1"}},{"base_weights":[-1.1455121E-1,-9.0248406E-2,-1.8112618E-1,1.2995255E-2,-1.1766556E-1,-2.3463294E-1,-5.893661E-2,8.602677E-3,6.391373E-2,-1.1851965E-1,6.213802E-2,-2.466709E-1,1.1202583E-1,-3.2691973E-1,6.464796E-2,4.4698767E-2,-1.030948E-1,-8.669816E-2,-1.4739789E-1,-2.2329032E-1,-3.4341955E-1,-1.2577505E-1,3.4964654E-1,-3.6334175E-1,2.914374E-1,1.15652844E-1,-1.8606405E-1,-1.09426705E-2,2.9900507E-3,-5.9200353E-3,4.3909617E-2,7.5946744E-3,-4.764492E-3,-7.7934186E-3,4.352093E-3,-1.5341873E-2,-9.667993E-3,1.5271152E-2,-1.8025652E-2,2.2648694E-2,-1.0465152E-2,2.509532E-2,-2.0948376E-3,-2.6703333E-3,-2.088135E-2,5.892993E-2,-2.9153109E-2,9.82248E-3,-6.697571E-4,-2.1538561E-2,8.039036E-3],"categories":[],"categories_nodes":[],"categories_segments":[],"categories_sizes":[],"default_left":[0,0,0,0,0,0,0,0,0,0,0,0,0,0,0,0,0,0,0,0,0,0,0,0,0,0,0,0,0,0,0,0,0,0,0,0,0,0,0,0,0,0,0,0,0,0,0,0,0,0,0],"id":21,"left_children":[1,3,5,7,9,11,13,15,-1,17,-1,19,21,23,25,27,29,31,33,35,37,39,41,43,45,47,49,-1,-1,-1,-1,-1,-1,-1,-1,-1,-1,-1,-1,-1,-1,-1,-1,-1,-1,-1,-1,-1,-1,-1,-1],"loss_changes":[3.662317E1,4.696643E1,3.957315E1,1.934355E1,1.5380432E1,1.7598862E1,6.113528E1,1.4000528E1,0E0,1.2028076E1,0E0,9.128952E0,8.067742E0,1.3226494E1,1.6181635E1,1.0458107E1,1.2842309E1,1.2798069E1,1.365155E1,8.143723E0,8.874275E0,3.5612617E0,4.2710867E0,9.241692E0,2.6258652E1,1.0958159E1,1.8234037E1,0E0,0E0,0E0,0E0,0E0,0E0,0E0,0E0,0E0,0E0,0E0,0E0,0E0,0E0,0E0,0E0,0E0,0E0,0E0,0E0,0E0,0E0,0E0,0E0],"parents":[2147483647,0,0,1,1,2,2,3,3,4,4,5,5,6,6,7,7,9,9,11,11,12,12,13,13,14,14,15,15,16,16,17,17,18,18,19,19,20,20,21,21,22,22,23,23,24,24,25,25,26,26],"right_children":[2,4,6,8,10,12,14,16,-1,18,-1,20,22,24,26,28,30,32,34,36,38,40,42,44,46,48,50,-1,-1,-1,-1,-1,-1,-1,-1,-1,-1,-1,-1,-1,-1,-1,-1,-1,-1,-1,-1,-1,-1,-1,-1],"split_conditions":[3.3274803E-1,8.6816E-1,9.4096E1,3.609729E-3,3.9098416E-3,2.1790843E0,1.6360535E1,3.071562E-1,6.391373E-2,2.3278904E-1,6.213802E-2,4.7597358E-1,6.27179E-1,5.9437677E-3,5.1467305E-1,9.7023736E-4,5.572994E1,9.156E-1,2.2198625E-2,1.7347629E-3,-1.4309633E0,6.791987E-3,2.9338726E-3,3.5057548E-1,6.0635877E-1,1.611E2,4.734947E-3,-1.09426705E-2,2.9900507E-3,-5.9200353E-3,4.3909617E-2,7.5946744E-3,-4.764492E-3,-7.7934186E-3,4.352093E-3,-1.5341873E-2,-9.667993E-3,1.5271152E-2,-1.8025652E-2,2.2648694E-2,-1.0465152E-2,2.509532E-2,-2.0948376E-3,-2.6703333E-3,-2.088135E-2,5.892993E-2,-2.9153109E-2,9.82248E-3,-6.697571E-4,-2.1538561E-2,8.039036E-3],"split_indices":[8,16,17,2,2,0,3,8,0,8,0,8,15,2,8,2,3,15,6,2,9,6,2,8,8,17,2,0,0,0,0,0,0,0,0,0,0,0,0,0,0,0,0,0,0,0,0,0,0,0,0],"split_type":[0,0,0,0,0,0,0,0,0,0,0,0,0,0,0,0,0,0,0,0,0,0,0,0,0,0,0,0,0,0,0,0,0,0,0,0,0,0,0,0,0,0,0,0,0,0,0,0,0,0,0],"sum_hessian":[2.2644516E4,1.6590578E4,6.0539375E3,3.481387E3,1.310919E4,4.2096245E3,1.844313E3,3.470346E3,1.1040951E1,1.3101878E4,7.3126454E0,4.068627E3,1.4099744E2,5.8157324E2,1.2627397E3,2.6232258E3,8.4712024E2,6.2351953E3,6.8666826E3,3.2794202E3,7.892069E2,7.070725E1,7.029018E1,5.496128E2,3.196046E1,1.0497228E3,2.1301701E2,1.4143987E2,2.481786E3,8.349758E2,1.2144432E1,2.1614536E2,6.0190503E3,6.627559E3,2.3912344E2,8.625284E2,2.4168916E3,1.9824669E1,7.6938226E2,8.35993E0,6.2347324E1,5.0406628E1,1.9883549E1,8.221273E1,4.6740005E2,1.5692755E1,1.6267706E1,6.452256E2,4.0449713E2,1.2475644E2,8.8260574E1],"tree_param":{"num_deleted":"0","num_feature":"23","num_nodes":"51","size_leaf_vector":"1"}},{"base_weights":[1.8537143E-1,8.883234E-2,2.6293004E-1,-2.2149272E-1,1.039497E-1,3.1227082E-1,1.13375515E-1,-2.5368372E-1,2.6300827E-1,1.0613627E-1,-5.999291E-1,2.5949383E-1,4.586848E-1,-3.2435015E-2,1.5488222E-1,-3.656102E-1,-1.8281062E-1,-1.7097159E-1,6.6319644E-1,1.281967E-1,4.520087E-2,1.8994305E-3,-6.674122E-1,4.0886083E-1,2.3111412E-1,9.8513864E-2,4.8152596E-1,-5.67279E-2,4.997323E-1,1.2578873E-1,6.642552E-1,-3.9917332E-4,-2.054514E-2,-1.0644734E-2,2.7080772E-2,3.599438E-2,-2.1457642E-2,4.201932E-2,6.7137294E-3,2.2786595E-3,8.0922125E-3,-7.1234524E-4,5.1270016E-3,-3.5721343E-2,-1.0255518E-2,7.027047E-3,2.2173952E-2,8.273432E-3,1.4916821E-2,-6.097959E-4,3.332192E-2,2.9912014E-2,2.180477E-2,-1.2475153E-3,-2.423491E-2,3.381613E-3,4.627904E-2,5.6240098E-3,2.0172155E-2,2.3165246E-2,4.4728857E-2],"categories":[],"categories_nodes":[],"categories_segments":[],"categories_sizes":[],"default_left":[0,0,0,0,0,0,0,0,0,0,0,0,0,0,0,0,0,0,0,0,0,0,0,0,0,0,0,0,0,0,0,0,0,0,0,0,0,0,0,0,0,0,0,0,0,0,0,0,0,0,0,0,0,0,0,0,0,0,0,0,0],"id":22,"left_children":[1,3,5,7,9,11,13,15,17,19,21,23,25,27,29,31,33,35,37,39,41,-1,43,45,47,49,51,53,55,57,59,-1,-1,-1,-1,-1,-1,-1,-1,-1,-1,-1,-1,-1,-1,-1,-1,-1,-1,-1,-1,-1,-1,-1,-1,-1,-1,-1,-1,-1,-1],"loss_changes":[2.029458E2,5.668358E1,1.1088147E2,8.821924E0,1.778994E1,8.721277E1,2.2581902E1,4.112755E0,6.27264E0,1.5429871E1,1.5672722E0,3.512976E1,2.4576538E1,1.07252655E1,4.2951813E1,3.2894173E0,7.189746E0,4.4050636E0,1.6355495E0,2.342862E1,1.0410383E1,0E0,5.5865765E-1,1.2249329E1,3.0774902E1,1.1310293E1,1.4662231E1,1.0761801E1,6.60301E0,1.01101E1,6.836708E0,0E0,0E0,0E0,0E0,0E0,0E0,0E0,0E0,0E0,0E0,0E0,0E0,0E0,0E0,0E0,0E0,0E0,0E0,0E0,0E0,0E0,0E0,0E0,0E0,0E0,0E0,0E0,0E0,0E0,0E0],"parents":[2147483647,0,0,1,1,2,2,3,3,4,4,5,5,6,6,7,7,8,8,9,9,10,10,11,11,12,12,13,13,14,14,15,15,16,16,17,17,18,18,19,19,20,20,22,22,23,23,24,24,25,25,26,26,27,27,28,28,29,29,30,30],"right_children":[2,4,6,8,10,12,14,16,18,20,22,24,26,28,30,32,34,36,38,40,42,-1,44,46,48,50,52,54,56,58,60,-1,-1,-1,-1,-1,-1,-1,-1,-1,-1,-1,-1,-1,-1,-1,-1,-1,-1,-1,-1,-1,-1,-1,-1,-1,-1,-1,-1,-1,-1],"split_conditions":[2.6251933E-1,6.63519E-1,9.2284E1,7.639823E-1,1.135E-1,3.7631422E-1,-8.447471E-1,2.3808962E-1,2.5954493E1,1.9012E0,4.3465914E-3,6.8810466E-3,-1.9723994E0,6.855328E-1,5.5559784E-1,-3.7152163E-4,4.7776707E1,5.95734E-1,5.3864086E-1,1.4986032E1,2.2785261E-1,1.8994305E-3,2.1956104E-1,5.69054E-1,8.6816E-1,1.291138E0,5.34229E-1,4.370266E-2,1.4368E2,1.98577E2,1.04873E2,-3.9917332E-4,-2.054514E-2,-1.0644734E-2,2.7080772E-2,3.599438E-2,-2.1457642E-2,4.201932E-2,6.7137294E-3,2.2786595E-3,8.0922125E-3,-7.1234524E-4,5.1270016E-3,-3.5721343E-2,-1.0255518E-2,7.027047E-3,2.2173952E-2,8.273432E-3,1.4916821E-2,-6.097959E-4,3.332192E-2,2.9912014E-2,2.180477E-2,-1.2475153E-3,-2.423491E-2,3.381613E-3,4.627904E-2,5.6240098E-3,2.0172155E-2,2.3165246E-2,4.4728857E-2],"split_indices":[8,16,17,11,20,8,12,8,3,17,22,6,12,10,8,13,3,16,9,3,8,0,8,17,16,16,16,6,16,16,16,0,0,0,0,0,0,0,0,0,0,0,0,0,0,0,0,0,0,0,0,0,0,0,0,0,0,0,0,0,0],"split_type":[0,0,0,0,0,0,0,0,0,0,0,0,0,0,0,0,0,0,0,0,0,0,0,0,0,0,0,0,0,0,0,0,0,0,0,0,0,0,0,0,0,0,0,0,0,0,0,0,0,0,0,0,0,0,0,0,0,0,0,0,0],"sum_hessian":[2.710695E4,1.2076803E4,1.5030146E4,5.603542E2,1.1516449E4,1.1300735E4,3.7294104E3,5.2588965E2,3.4464535E1,1.1481631E4,3.4817974E1,8.308566E3,2.9921697E3,8.264302E2,2.9029802E3,2.0228E2,3.2360968E2,1.680898E1,1.7655552E1,8.428984E3,3.052647E3,3.3727207E0,3.1445251E1,1.3244363E3,6.98413E3,1.7875667E2,2.8134128E3,7.912059E2,3.5224323E1,2.7473108E3,1.5566927E2,2.2870728E1,1.7940926E2,3.1138458E2,1.2225101E1,3.37504E0,1.3433942E1,1.2784013E1,4.871539E0,2.4399343E3,5.98905E3,1.4991344E3,1.5535126E3,2.804754E1,3.3977118E0,1.5192796E2,1.1725083E3,3.535259E3,3.4488708E3,1.504139E2,2.834278E1,7.848663E2,2.0285466E3,7.375032E2,5.370269E1,1.8059015E1,1.7165306E1,2.6229907E3,1.24320114E2,8.474386E1,7.09254E1],"tree_param":{"num_deleted":"0","num_feature":"23","num_nodes":"61","size_leaf_vector":"1"}},{"base_weights":[-1.0721905E-1,-2.0657368E-1,-4.4717308E-2,-1.1540842E-1,-2.6856187E-1,1.910163E-2,-8.376708E-2,-6.0398627E-2,-2.87131E-1,2.4720307E-1,-2.765924E-1,-1.6404523E-2,1.502883E-1,-7.4852996E-2,-4.3874258E-1,-6.847574E-2,5.99079E-1,-2.1056826E-1,-4.3040192E-1,-8.506097E-2,7.755937E-1,-2.2970024E-1,-3.403095E-1,-6.989808E-2,2.637729E-2,2.0733336E-1,-1.0463519E-1,2.1454612E-2,-9.627856E-2,1.4329275E-1,-5.2312183E-1,3.9391225E-4,-6.031384E-3,5.164484E-2,7.0695835E-3,-4.032771E-3,-1.8616628E-2,-2.5751406E-2,-1.25174625E-2,1.8808203E-2,-1.6513323E-2,6.7735E-2,1.13572E-2,-9.629204E-3,-1.8075837E-2,-1.343058E-2,-2.2171965E-2,-3.1813208E-4,-1.1027262E-2,-1.4467162E-2,2.0988625E-3,4.5546554E-3,1.8326843E-2,2.969187E-3,-1.0860641E-2,3.1637077E-3,-3.2625992E-3,-4.196537E-3,-1.2690656E-2,-2.1733431E-2,2.4265392E-2,-1.3875474E-2,-2.7824698E-2],"categories":[],"categories_nodes":[],"categories_segments":[],"categories_sizes":[],"default_left":[0,0,0,0,0,0,0,0,0,0,0,0,0,0,0,0,0,0,0,0,0,0,0,0,0,0,0,0,0,0,0,0,0,0,0,0,0,0,0,0,0,0,0,0,0,0,0,0,0,0,0,0,0,0,0,0,0,0,0,0,0,0,0],"id":23,"left_children":[1,3,5,7,9,11,13,15,17,19,21,23,25,27,29,31,33,35,37,39,41,43,45,47,49,51,53,55,57,59,61,-1,-1,-1,-1,-1,-1,-1,-1,-1,-1,-1,-1,-1,-1,-1,-1,-1,-1,-1,-1,-1,-1,-1,-1,-1,-1,-1,-1,-1,-1,-1,-1],"loss_changes":[1.4124933E2,4.960782E1,3.4803307E1,3.358325E1,2.1721405E1,2.4698528E1,2.7381832E1,1.4397696E1,9.37278E0,1.4230288E1,1.5303711E1,9.553125E0,1.644599E1,1.7443886E1,1.04880295E1,1.0607136E1,6.349374E0,1.1827112E1,4.434719E0,5.827935E0,9.616188E0,1.44548645E1,1.6003616E1,1.7752178E1,1.143697E1,1.7052002E1,3.838569E0,5.5849032E0,1.3429199E1,5.672871E0,1.3651924E0,0E0,0E0,0E0,0E0,0E0,0E0,0E0,0E0,0E0,0E0,0E0,0E0,0E0,0E0,0E0,0E0,0E0,0E0,0E0,0E0,0E0,0E0,0E0,0E0,0E0,0E0,0E0,0E0,0E0,0E0,0E0,0E0],"parents":[2147483647,0,0,1,1,2,2,3,3,4,4,5,5,6,6,7,7,8,8,9,9,10,10,11,11,12,12,13,13,14,14,15,15,16,16,17,17,18,18,19,19,20,20,21,21,22,22,23,23,24,24,25,25,26,26,27,27,28,28,29,29,30,30],"right_children":[2,4,6,8,10,12,14,16,18,20,22,24,26,28,30,32,34,36,38,40,42,44,46,48,50,52,54,56,58,60,62,-1,-1,-1,-1,-1,-1,-1,-1,-1,-1,-1,-1,-1,-1,-1,-1,-1,-1,-1,-1,-1,-1,-1,-1,-1,-1,-1,-1,-1,-1,-1,-1],"split_conditions":[9.7117E-1,2.8997916E-1,1.355716E-3,9.1246E-1,-2.5214212E0,5.25688E-1,4.734947E-3,2.7611053E-3,2.4772017E1,-4.4949606E-4,3.6654833E-1,1.474499E0,2.3808962E-1,1.7850412E-1,-3.284263E0,2.485275E-1,2.693771E-1,2.2641541E-1,3.960673E1,3.609729E-3,-4.4700807E-1,8.6799E-1,5.9471315E-1,2.0952521E-1,7.023472E-4,1.8114E0,1.9142439E1,-5.187827E-1,1.3838134E0,7.9834807E-1,-6.7057925E-1,3.9391225E-4,-6.031384E-3,5.164484E-2,7.0695835E-3,-4.032771E-3,-1.8616628E-2,-2.5751406E-2,-1.25174625E-2,1.8808203E-2,-1.6513323E-2,6.7735E-2,1.13572E-2,-9.629204E-3,-1.8075837E-2,-1.343058E-2,-2.2171965E-2,-3.1813208E-4,-1.1027262E-2,-1.4467162E-2,2.0988625E-3,4.5546554E-3,1.8326843E-2,2.969187E-3,-1.0860641E-2,3.1637077E-3,-3.2625992E-3,-4.196537E-3,-1.2690656E-2,-2.1733431E-2,2.4265392E-2,-1.3875474E-2,-2.7824698E-2],"split_indices":[16,8,2,17,12,12,2,2,3,13,8,15,8,7,12,8,8,8,3,2,11,15,7,8,2,15,3,12,12,8,9,0,0,0,0,0,0,0,0,0,0,0,0,0,0,0,0,0,0,0,0,0,0,0,0,0,0,0,0,0,0,0,0],"split_type":[0,0,0,0,0,0,0,0,0,0,0,0,0,0,0,0,0,0,0,0,0,0,0,0,0,0,0,0,0,0,0,0,0,0,0,0,0,0,0,0,0,0,0,0,0,0,0,0,0,0,0,0,0,0,0,0,0,0,0,0,0,0,0],"sum_hessian":[2.2746541E4,8.782813E3,1.3963728E4,3.555964E3,5.2268496E3,5.3009346E3,8.662793E3,2.6942402E3,8.6172394E2,7.967836E1,5.1471714E3,4.1725054E3,1.128429E3,8.451765E3,2.1102834E2,2.6625264E3,3.1713778E1,5.632159E2,2.9850806E2,4.943287E1,3.0245491E1,2.9677107E3,2.1794604E3,1.8538514E3,2.3186538E3,9.222425E2,2.0618651E2,1.5380869E3,6.9136777E3,2.6631311E1,1.8439702E2,1.0808855E3,1.5816409E3,1.5636237E1,1.6077541E1,3.1319092E2,2.5002495E2,2.0180002E2,9.670804E1,1.6973011E1,3.2459858E1,1.3996538E1,1.6248953E1,2.3175957E3,6.501151E2,1.2877766E3,8.9168384E2,1.3046554E3,5.4919617E2,1.0834574E2,2.210308E3,5.339549E2,3.8828763E2,8.411233E1,1.2207417E2,1.03781E3,5.0027686E2,6.4125815E3,5.0109644E2,9.799878E0,1.6831434E1,2.3171911E1,1.6122511E2],"tree_param":{"num_deleted":"0","num_feature":"23","num_nodes":"63","size_leaf_vector":"1"}},{"base_weights":[-1.11443065E-1,-1.01951875E-1,-2.599937E-1,-1.0303866E-1,5.452923E-1,-3.5588837E-1,-1.491497E-1,-7.901115E-2,-1.2727833E-1,8.522419E-1,-3.3421007E-3,2.2526747E-1,-3.7221393E-1,-1.740551E-1,5.099368E-1,6.231465E-2,-1.07448496E-1,-1.5553916E-1,-4.9575713E-2,1.1626257E0,1.3072945E-1,-3.371353E-1,3.533595E-2,4.5689985E-2,-9.911605E-2,-4.071238E-1,-1.9099541E-1,6.4678746E-1,-1.9417977E-1,7.24977E-2,1.7867212E-1,9.628524E-3,5.2249892E-5,-1.8173255E-2,-4.8008524E-3,-5.5658575E-3,-9.652281E-3,-4.559429E-3,1.9708506E-3,8.051223E-3,7.0545346E-2,-1.7231662E-2,3.1113643E-2,-4.092884E-3,-2.8377742E-2,-1.8422585E-2,3.378731E-2,-1.4936428E-2,-2.4419954E-2,-5.5445973E-3,-2.9502556E-2,9.159405E-3,6.704864E-2,-8.287188E-3,-2.9255915E-2,3.0117763E-2,-3.8318818E-3],"categories":[],"categories_nodes":[],"categories_segments":[],"categories_sizes":[],"default_left":[0,0,0,0,0,0,0,0,0,0,0,0,0,0,0,0,0,0,0,0,0,0,0,0,0,0,0,0,0,0,0,0,0,0,0,0,0,0,0,0,0,0,0,0,0,0,0,0,0,0,0,0,0,0,0,0,0],"id":24,"left_children":[1,3,5,7,9,11,13,15,17,19,21,23,25,27,29,31,33,35,37,39,41,43,-1,-1,45,47,49,51,53,-1,55,-1,-1,-1,-1,-1,-1,-1,-1,-1,-1,-1,-1,-1,-1,-1,-1,-1,-1,-1,-1,-1,-1,-1,-1,-1,-1],"loss_changes":[3.1794952E1,1.4979797E1,1.4347305E1,1.2326233E1,6.01867E0,6.9685745E0,1.0432171E1,4.2767235E1,2.3142792E1,4.978775E0,3.5118902E0,4.6581726E0,4.3898697E0,1.0168076E1,6.964833E0,1.4228821E1,2.5888855E1,1.2799973E1,1.0421419E1,3.7249985E0,2.0879545E0,5.460073E-1,0E0,0E0,3.3384337E0,5.0628967E0,3.6410422E0,4.5105414E0,