{"learner":{"attributes":{"scikit_learn":"{\"_estimator_type\": \"classifier\"}"},"feature_names":["z_score","rsi","volatility","adx","time_sin","volume_delta","roc_5","roc_10","roc_20","macd","velocity","close_lag1","close_lag2","close_lag3","returns_lag1","returns_lag2"],"feature_types":["float","float","float","float","float","float","float","float","float","float","float","float","float","float","float","float"],"gradient_booster":{"model":{"cats":{"enc":[],"feature_segments":[],"sorted_idx":[]},"gbtree_model_param":{"num_parallel_tree":"1","num_trees":"600"},"iteration_indptr":[0,3,6,9,12,15,18,21,24,27,30,33,36,39,42,45,48,51,54,57,60,63,66,69,72,75,78,81,84,87,90,93,96,99,102,105,108,111,114,117,120,123,126,129,132,135,138,141,144,147,150,153,156,159,162,165,168,171,174,177,180,183,186,189,192,195,198,201,204,207,210,213,216,219,222,225,228,231,234,237,240,243,246,249,252,255,258,261,264,267,270,273,276,279,282,285,288,291,294,297,300,303,306,309,312,315,318,321,324,327,330,333,336,339,342,345,348,351,354,357,360,363,366,369,372,375,378,381,384,387,390,393,396,399,402,405,408,411,414,417,420,423,426,429,432,435,438,441,444,447,450,453,456,459,462,465,468,471,474,477,480,483,486,489,492,495,498,501,504,507,510,513,516,519,522,525,528,531,534,537,540,543,546,549,552,555,558,561,564,567,570,573,576,579,582,585,588,591,594,597,600],"tree_info":[0,1,2,0,1,2,0,1,2,0,1,2,0,1,2,0,1,2,0,1,2,0,1,2,0,1,2,0,1,2,0,1,2,0,1,2,0,1,2,0,1,2,0,1,2,0,1,2,0,1,2,0,1,2,0,1,2,0,1,2,0,1,2,0,1,2,0,1,2,0,1,2,0,1,2,0,1,2,0,1,2,0,1,2,0,1,2,0,1,2,0,1,2,0,1,2,0,1,2,0,1,2,0,1,2,0,1,2,0,1,2,0,1,2,0,1,2,0,1,2,0,1,2,0,1,2,0,1,2,0,1,2,0,1,2,0,1,2,0,1,2,0,1,2,0,1,2,0,1,2,0,1,2,0,1,2,0,1,2,0,1,2,0,1,2,0,1,2,0,1,2,0,1,2,0,1,2,0,1,2,0,1,2,0,1,2,0,1,2,0,1,2,0,1,2,0,1,2,0,1,2,0,1,2,0,1,2,0,1,2,0,1,2,0,1,2,0,1,2,0,1,2,0,1,2,0,1,2,0,1,2,0,1,2,0,1,2,0,1,2,0,1,2,0,1,2,0,1,2,0,1,2,0,1,2,0,1,2,0,1,2,0,1,2,0,1,2,0,1,2,0,1,2,0,1,2,0,1,2,0,1,2,0,1,2,0,1,2,0,1,2,0,1,2,0,1,2,0,1,2,0,1,2,0,1,2,0,1,2,0,1,2,0,1,2,0,1,2,0,1,2,0,1,2,0,1,2,0,1,2,0,1,2,0,1,2,0,1,2,0,1,2,0,1,2,0,1,2,0,1,2,0,1,2,0,1,2,0,1,2,0,1,2,0,1,2,0,1,2,0,1,2,0,1,2,0,1,2,0,1,2,0,1,2,0,1,2,0,1,2,0,1,2,0,1,2,0,1,2,0,1,2,0,1,2,0,1,2,0,1,2,0,1,2,0,1,2,0,1,2,0,1,2,0,1,2,0,1,2,0,1,2,0,1,2,0,1,2,0,1,2,0,1,2,0,1,2,0,1,2,0,1,2,0,1,2,0,1,2,0,1,2,0,1,2,0,1,2,0,1,2,0,1,2,0,1,2,0,1,2,0,1,2,0,1,2,0,1,2,0,1,2,0,1,2,0,1,2,0,1,2,0,1,2,0,1,2,0,1,2,0,1,2,0,1,2,0,1,2,0,1,2,0,1,2,0,1,2,0,1,2,0,1,2,0,1,2,0,1,2,0,1,2,0,1,2,0,1,2,0,1,2,0,1,2,0,1,2,0,1,2,0,1,2,0,1,2,0,1,2,0,1,2,0,1,2,0,1,2,0,1,2,0,1,2,0,1,2,0,1,2,0,1,2,0,1,2,0,1,2],"trees":[{"base_weights":[5.532429E-1,5.6940573E-1,4.3950778E-1,5.2187365E-1,5.81278E-1,-5.8974672E-2,4.427027E-1,7.912514E-2,5.24167E-1,5.580521E-1,5.9828395E-1,-3.0937302E-1,4.1972723E-2,4.382907E-1,7.5737053E-1,-1.9789057E-2,3.196324E-2,2.6004562E-2,3.8702935E-2,2.9086301E-2,2.4277374E-2,3.0630726E-2,2.7853692E-2,-3.6406945E-2,-8.2952075E-4,2.263427E-2,1.8730124E-2,4.698029E-2,1.3261986E-2],"categories":[],"categories_nodes":[],"categories_segments":[],"categories_sizes":[],"default_left":[0,0,0,0,0,0,0,0,0,0,0,0,0,0,0,0,0,0,0,0,0,0,0,0,0,0,0,0,0],"id":0,"left_children":[1,3,5,7,9,11,13,15,17,19,21,23,-1,25,27,-1,-1,-1,-1,-1,-1,-1,-1,-1,-1,-1,-1,-1,-1],"loss_changes":[5.3279297E1,1.4083008E1,5.803528E0,5.1418457E0,7.720215E0,5.655516E0,4.6724854E0,7.5638213E0,4.769409E0,1.4536377E1,6.602051E0,2.3772936E0,0E0,3.0915527E0,4.0976753E0,0E0,0E0,0E0,0E0,0E0,0E0,0E0,0E0,0E0,0E0,0E0,0E0,0E0,0E0],"parents":[2147483647,0,0,1,1,2,2,3,3,4,4,5,5,6,6,7,7,8,8,9,9,10,10,11,11,13,13,14,14],"right_children":[2,4,6,8,10,12,14,16,18,20,22,24,-1,26,28,-1,-1,-1,-1,-1,-1,-1,-1,-1,-1,-1,-1,-1,-1],"split_conditions":[1.438401E-4,-1.8436035E-2,1.31239E0,-1.471814E-1,1.34346E0,6.643599E1,1.36472E0,5.5350323E1,5.522388E1,1.34039E0,1.35403E0,4.919355E1,4.1972723E-2,2.1226912E-4,2.7600492E1,-1.9789057E-2,3.196324E-2,2.6004562E-2,3.8702935E-2,2.9086301E-2,2.4277374E-2,3.0630726E-2,2.7853692E-2,-3.6406945E-2,-8.2952075E-4,2.263427E-2,1.8730124E-2,4.698029E-2,1.3261986E-2],"split_indices":[2,7,12,8,12,1,12,3,1,12,13,1,0,2,3,0,0,0,0,0,0,0,0,0,0,0,0,0,0],"split_type":[0,0,0,0,0,0,0,0,0,0,0,0,0,0,0,0,0,0,0,0,0,0,0,0,0,0,0,0,0],"sum_hessian":[2.911862E4,2.549197E4,3.6266484E3,5.1036904E3,2.038828E4,2.2985096E1,3.6036633E3,2.6482828E1,5.0772075E3,8.632402E3,1.1755877E4,1.8488012E1,4.4970837E0,3.556194E3,4.746922E1,1.4490603E1,1.1992224E1,4.998759E3,7.844913E1,6.5022837E3,2.1301187E3,8.712351E3,3.0435264E3,6.995464E0,1.1492548E1,2.8956223E3,6.6057166E2,3.3977966E1,1.3491252E1],"tree_param":{"num_deleted":"0","num_feature":"16","num_nodes":"29","size_leaf_vector":"1"}},{"base_weights":[-5.949604E-1,-5.809959E-1,-6.335924E-1,-3.1873222E-2,-5.6151885E-1,-6.34114E-1,-2.366421E-1,-5.8218515E-1,-5.18944E-1,-6.223703E-1,-3.2217495E-2,-2.6345953E-2,7.5445995E-3,-2.8728658E-2,-3.1450745E-2,-2.4118034E-2,-2.8883005E-2,-3.131474E-2,-2.7940614E-2],"categories":[],"categories_nodes":[],"categories_segments":[],"categories_sizes":[],"default_left":[0,0,0,0,0,0,0,0,0,0,0,0,0,0,0,0,0,0,0],"id":1,"left_children":[1,3,5,-1,7,9,11,13,15,17,-1,-1,-1,-1,-1,-1,-1,-1,-1],"loss_changes":[1.0845215E1,1.644629E1,9.902344E-1,0E0,9.700684E0,2.602539E-1,1.0719444E0,2.3642578E0,7.7215576E0,2.9626465E-1,0E0,0E0,0E0,0E0,0E0,0E0,0E0,0E0,0E0],"parents":[2147483647,0,0,1,1,2,2,4,4,5,5,6,6,7,7,8,8,9,9],"right_children":[2,4,6,-1,8,10,12,14,16,18,-1,-1,-1,-1,-1,-1,-1,-1,-1],"split_conditions":[2.0812737E-2,-3.157325E-2,1E2,-3.1873222E-2,1.34971E0,3.9155446E-2,1.4651515E-5,1.4753071E-2,1.35476E0,4.418409E1,-3.2217495E-2,-2.6345953E-2,7.5445995E-3,-2.8728658E-2,-3.1450745E-2,-2.4118034E-2,-2.8883005E-2,-3.131474E-2,-2.7940614E-2],"split_indices":[8,8,1,0,12,8,10,6,13,3,0,0,0,0,0,0,0,0,0],"split_type":[0,0,0,0,0,0,0,0,0,0,0,0,0,0,0,0,0,0,0],"sum_hessian":[2.0784477E4,1.5277955E4,5.506521E3,3.9100671E3,1.1367889E4,5.4986987E3,7.8222675E0,7.644489E3,3.7233994E3,2.5895261E3,2.9091724E3,4.266691E0,3.5555763E0,6.5870605E3,1.0574283E3,2.2997466E3,1.4236527E3,2.4305918E3,1.5893425E2],"tree_param":{"num_deleted":"0","num_feature":"16","num_nodes":"19","size_leaf_vector":"1"}},{"base_weights":[-1.591586E-1,-1.9697191E-1,-2.7934091E-2,-2.9963696E-1,-1.6427828E-1,-7.711819E-2,2.3100724E-2,-2.3017667E-1,-3.950719E-1,-1.8478224E-2,-1.740851E-1,2.3056632E-2,-1.3414532E-1,2.3771936E-1,9.26361E-3,-1.3964928E-2,-4.9063354E-3,-3.1043751E-2,-1.8314432E-2,9.157112E-3,-4.852231E-3,-1.1064792E-2,-7.2256397E-3,2.3617715E-2,2.5867578E-4,-8.189422E-3,2.040996E-3,1.4619678E-2,-1.5488519E-2,-1.4596178E-2,1.0289194E-3],"categories":[],"categories_nodes":[],"categories_segments":[],"categories_sizes":[],"default_left":[0,0,0,0,0,0,0,0,0,0,0,0,0,0,0,0,0,0,0,0,0,0,0,0,0,0,0,0,0,0,0],"id":2,"left_children":[1,3,5,7,9,11,13,15,17,19,21,23,25,27,29,-1,-1,-1,-1,-1,-1,-1,-1,-1,-1,-1,-1,-1,-1,-1,-1],"loss_changes":[1.172229E2,6.1509094E1,1.327026E1,2.9265472E1,1.9889435E1,1.5381954E1,7.704113E0,1.6613495E1,1.1887848E1,1.3924686E1,1.8167389E1,7.851075E0,8.904789E0,4.7941E0,8.317267E0,0E0,0E0,0E0,0E0,0E0,0E0,0E0,0E0,0E0,0E0,0E0,0E0,0E0,0E0,0E0,0E0],"parents":[2147483647,0,0,1,1,2,2,3,3,4,4,5,5,6,6,7,7,8,8,9,9,10,10,11,11,12,12,13,13,14,14],"right_children":[2,4,6,8,10,12,14,16,18,20,22,24,26,28,30,-1,-1,-1,-1,-1,-1,-1,-1,-1,-1,-1,-1,-1,-1,-1,-1],"split_conditions":[1.2131748E-4,5.2224248E-5,1.4879505E-4,1.34759E0,-5.608939E-2,-5.7184875E-1,-9.044551E-1,2.8107134E1,1.34832E0,-5.8070296E-1,-3.1730467E-1,-5.2279276E-1,8.870108E-1,1.5951722E0,-8.638355E-1,-1.3964928E-2,-4.9063354E-3,-3.1043751E-2,-1.8314432E-2,9.157112E-3,-4.852231E-3,-1.1064792E-2,-7.2256397E-3,2.3617715E-2,2.5867578E-4,-8.189422E-3,2.040996E-3,1.4619678E-2,-1.5488519E-2,-1.4596178E-2,1.0289194E-3],"split_indices":[2,2,2,13,8,0,4,3,13,4,4,5,4,0,4,0,0,0,0,0,0,0,0,0,0,0,0,0,0,0,0],"split_type":[0,0,0,0,0,0,0,0,0,0,0,0,0,0,0,0,0,0,0,0,0,0,0,0,0,0,0,0,0,0,0],"sum_hessian":[2.3624094E4,1.833906E4,5.285034E3,4.4275205E3,1.3911539E4,2.6910554E3,2.5939785E3,2.564451E3,1.8630696E3,8.7692896E2,1.303461E4,9.7643286E2,1.7146226E3,1.5613219E2,2.4378462E3,1.8683279E3,6.9612305E2,2.0831107E2,1.6547584E3,2.4552393E2,6.31405E2,5.0176675E3,8.016943E3,3.6403877E1,9.40029E2,1.4662672E3,2.4835533E2,1.4237961E2,1.3752576E1,8.73693E1,2.350477E3],"tree_param":{"num_deleted":"0","num_feature":"16","num_nodes":"31","size_leaf_vector":"1"}},{"base_weights":[5.324411E-1,5.467969E-1,4.3134367E-1,5.116589E-1,5.671807E-1,4.1930595E-1,5.9809226E-1,5.246464E-1,4.616704E-1,5.346803E-1,5.910377E-1,3.840975E-1,4.756795E-1,6.224487E-1,-1.9099323E-2,1.3988829E-2,2.650761E-2,2.3557477E-2,8.297621E-3,3.2530826E-2,2.539645E-2,3.159692E-2,2.815548E-2,2.397765E-2,1.7977703E-2,2.5914634E-2,1.4470979E-2,4.2013537E-2,2.727646E-2],"categories":[],"categories_nodes":[],"categories_segments":[],"categories_sizes":[],"default_left":[0,0,0,0,0,0,0,0,0,0,0,0,0,0,0,0,0,0,0,0,0,0,0,0,0,0,0,0,0],"id":3,"left_children":[1,3,5,7,9,11,13,15,17,19,21,23,25,27,-1,-1,-1,-1,-1,-1,-1,-1,-1,-1,-1,-1,-1,-1,-1],"loss_changes":[4.2151367E1,1.8023926E1,7.048218E0,5.859131E0,1.2224121E1,6.555359E0,6.0261765E0,9.89917E0,5.3779907E0,2.0936035E1,1.02873535E1,4.735443E0,1.0175537E1,3.51223E0,0E0,0E0,0E0,0E0,0E0,0E0,0E0,0E0,0E0,0E0,0E0,0E0,0E0,0E0,0E0],"parents":[2147483647,0,0,1,1,2,2,3,3,4,4,5,5,6,6,7,7,8,8,9,9,10,10,11,11,12,12,13,13],"right_children":[2,4,6,8,10,12,14,16,18,20,22,24,26,28,-1,-1,-1,-1,-1,-1,-1,-1,-1,-1,-1,-1,-1,-1,-1],"split_conditions":[1.438401E-4,-5.7184875E-1,1.35595E0,1.06744184E-4,1.34346E0,4.709677E-1,2.2007093E0,1.31432E0,1.36281E0,1.32852E0,1.34863E0,-1.00397095E-1,2.1226912E-4,-6.834559E-2,-1.9099323E-2,1.3988829E-2,2.650761E-2,2.3557477E-2,8.297621E-3,3.2530826E-2,2.539645E-2,3.159692E-2,2.815548E-2,2.397765E-2,1.7977703E-2,2.5914634E-2,1.4470979E-2,4.2013537E-2,2.727646E-2],"split_indices":[2,0,12,2,12,0,0,13,12,13,11,8,2,8,0,0,0,0,0,0,0,0,0,0,0,0,0,0,0],"split_type":[0,0,0,0,0,0,0,0,0,0,0,0,0,0,0,0,0,0,0,0,0,0,0,0,0,0,0,0,0],"sum_hessian":[2.9204549E4,2.556929E4,3.6352603E3,9.396869E3,1.617242E4,3.3937754E3,2.4148483E2,7.4514263E3,1.9454431E3,6.855952E3,9.316468E3,2.0938562E3,1.2999193E3,2.3598514E2,5.499684E0,1.6499843E2,7.2864277E3,1.8844447E3,6.0998413E1,1.2809954E3,5.574957E3,3.7714895E3,5.544978E3,4.244653E2,1.6693907E3,1.0564407E3,2.4347864E2,5.899579E1,1.7698936E2],"tree_param":{"num_deleted":"0","num_feature":"16","num_nodes":"29","size_leaf_vector":"1"}},{"base_weights":[-5.8916616E-1,-5.0985074E-1,-6.161724E-1,-4.143077E-1,-5.650423E-1,-5.9182966E-1,-6.292921E-1,-4.7178045E-1,-1.7807496E-1,-2.6190538E-2,-5.704235E-1,-5.5291027E-1,-6.1541337E-1,-6.127319E-1,-3.2039475E-2,-2.7953958E-2,-1.3781038E-2,3.291262E-2,-2.2816904E-2,-2.5786636E-2,3.493928E-2,-1.7969223E-2,-2.8753916E-2,-3.0438486E-2,-1.5500957E-2,-3.1718384E-2,-3.0263627E-2,-3.152189E-2,-2.8732155E-2],"categories":[],"categories_nodes":[],"categories_segments":[],"categories_sizes":[],"default_left":[0,0,0,0,0,0,0,0,0,0,0,0,0,0,0,0,0,0,0,0,0,0,0,0,0,0,0,0,0],"id":4,"left_children":[1,3,5,7,9,11,13,15,17,19,21,23,25,27,-1,-1,-1,-1,-1,-1,-1,-1,-1,-1,-1,-1,-1,-1,-1],"loss_changes":[4.3175293E1,2.6990234E1,4.4624023E0,2.5632263E1,9.466064E0,4.541992E0,1.4777832E0,2.5924133E1,8.6929825E1,1.2206363E1,2.9735107E0,2.7176514E1,2.5109863E-1,2.3676758E0,0E0,0E0,0E0,0E0,0E0,0E0,0E0,0E0,0E0,0E0,0E0,0E0,0E0,0E0,0E0],"parents":[2147483647,0,0,1,1,2,2,3,3,4,4,5,5,6,6,7,7,8,8,9,9,10,10,11,11,12,12,13,13],"right_children":[2,4,6,8,10,12,14,16,18,20,22,24,26,28,-1,-1,-1,-1,-1,-1,-1,-1,-1,-1,-1,-1,-1,-1,-1],"split_conditions":[5.8487287E-5,-2.3344536E-1,8.517849E-5,1.3534E0,1.840055E-5,-2.1217768E-1,-4.1865975E-1,-5.1877326E-1,1.3546E0,8.703557E-1,1.31432E0,-6.1909395E-1,3.5429105E-1,-6.3607824E-1,-3.2039475E-2,-2.7953958E-2,-1.3781038E-2,3.291262E-2,-2.2816904E-2,-2.5786636E-2,3.493928E-2,-1.7969223E-2,-2.8753916E-2,-3.0438486E-2,-1.5500957E-2,-3.1718384E-2,-3.0263627E-2,-3.152189E-2,-2.8732155E-2],"split_indices":[2,4,2,12,2,4,4,4,13,4,12,4,4,4,0,0,0,0,0,0,0,0,0,0,0,0,0,0,0],"split_type":[0,0,0,0,0,0,0,0,0,0,0,0,0,0,0,0,0,0,0,0,0,0,0,0,0,0,0,0,0],"sum_hessian":[2.030178E4,5.161804E3,1.5139976E4,1.8931119E3,3.2686921E3,5.318314E3,9.821661E3,1.5218629E3,3.7124902E2,3.2377743E1,3.2363145E3,2.0159323E3,3.3023818E3,4.046935E3,5.774726E3,1.0518837E3,4.6997934E2,9.234326E1,2.7890576E2,1.9499363E1,1.2878379E1,7.152907E1,3.1647854E3,1.6377748E3,3.781575E2,1.1295616E3,2.17282E3,2.7520608E3,1.2948744E3],"tree_param":{"num_deleted":"0","num_feature":"16","num_nodes":"29","size_leaf_vector":"1"}},{"base_weights":[-1.5232804E-1,-1.8932231E-1,-2.3713771E-2,-2.6082766E-1,-1.4965704E-1,-7.301756E-2,2.7160993E-2,-2.0740663E-1,-3.367847E-1,-2.3022864E-2,-1.5749395E-1,-2.4560674E-3,-1.1427081E-1,5.9363973E-1,2.378187E-2,-1.0768946E-2,2.3829507E-2,-2.745404E-2,-1.5216084E-2,6.985555E-3,-4.228168E-3,-1.5149469E-2,-7.5616124E-3,-9.2500105E-4,1.243125E-2,-2.3979533E-3,-9.176325E-3,4.546705E-2,-1.638711E-2,-4.321165E-3,1.838295E-3],"categories":[],"categories_nodes":[],"categories_segments":[],"categories_sizes":[],"default_left":[0,0,0,0,0,0,0,0,0,0,0,0,0,0,0,0,0,0,0,0,0,0,0,0,0,0,0,0,0,0,0],"id":5,"left_children":[1,3,5,7,9,11,13,15,17,19,21,23,25,27,29,-1,-1,-1,-1,-1,-1,-1,-1,-1,-1,-1,-1,-1,-1,-1,-1],"loss_changes":[1.1149243E2,5.157788E1,1.3135122E1,2.627243E1,1.1615509E1,7.7404795E0,4.9199133E0,2.0900314E1,1.8295593E1,6.8568845E0,9.99884E0,3.9609456E0,7.6978645E0,4.73187E0,3.671092E0,0E0,0E0,0E0,0E0,0E0,0E0,0E0,0E0,0E0,0E0,0E0,0E0,0E0,0E0,0E0,0E0],"parents":[2147483647,0,0,1,1,2,2,3,3,4,4,5,5,6,6,7,7,8,8,9,9,10,10,11,11,12,12,13,13,14,14],"right_children":[2,4,6,8,10,12,14,16,18,20,22,24,26,28,30,-1,-1,-1,-1,-1,-1,-1,-1,-1,-1,-1,-1,-1,-1,-1,-1],"split_conditions":[1.2131748E-4,6.0757124E-5,1.4879505E-4,1.34749E0,-6.0641453E-2,-5.3866094E-1,1.31239E0,1.3473E0,1.34863E0,1.3351E0,1.31698E0,1.35779E0,1.34394E0,3.3405587E-2,-1.1564722E-1,-1.0768946E-2,2.3829507E-2,-2.745404E-2,-1.5216084E-2,6.985555E-3,-4.228168E-3,-1.5149469E-2,-7.5616124E-3,-9.2500105E-4,1.243125E-2,-2.3979533E-3,-9.176325E-3,4.546705E-2,-1.638711E-2,-4.321165E-3,1.838295E-3],"split_indices":[2,2,2,11,8,0,11,11,13,13,11,11,13,8,8,0,0,0,0,0,0,0,0,0,0,0,0,0,0,0,0],"split_type":[0,0,0,0,0,0,0,0,0,0,0,0,0,0,0,0,0,0,0,0,0,0,0,0,0,0,0,0,0,0,0],"sum_hessian":[2.3432615E4,1.8197781E4,5.2348335E3,6.490912E3,1.1706868E4,2.6582415E3,2.5765923E3,3.812963E3,2.6779495E3,6.825003E2,1.1024368E4,9.8112994E2,1.6771115E3,1.4242781E1,2.5623494E3,3.7697102E3,4.325268E1,3.530725E2,2.324877E3,1.8692828E2,4.9557205E2,4.5292517E2,1.0571442E4,9.230724E2,5.8057545E1,8.576303E2,8.194812E2,1.06177845E1,3.6249967E0,2.6947318E2,2.2928762E3],"tree_param":{"num_deleted":"0","num_feature":"16","num_nodes":"31","size_leaf_vector":"1"}},{"base_weights":[5.087453E-1,4.422752E-1,5.176388E-1,4.4375595E-1,-3.9455216E-2,4.8805186E-1,5.2959746E-1,3.673205E-1,4.696331E-1,4.2298502E-1,5.358738E-1,5.012655E-1,5.518031E-1,6.5117585E-3,2.1543583E-2,2.5846405E-2,1.9668158E-2,2.3965975E-2,1.6972179E-2,7.1358955E-3,2.7205795E-2,2.638692E-2,2.0793034E-2,2.8743744E-2,2.479006E-2],"categories":[],"categories_nodes":[],"categories_segments":[],"categories_sizes":[],"default_left":[0,0,0,0,0,0,0,0,0,0,0,0,0,0,0,0,0,0,0,0,0,0,0,0,0],"id":6,"left_children":[1,3,5,7,-1,9,11,13,15,17,19,21,23,-1,-1,-1,-1,-1,-1,-1,-1,-1,-1,-1,-1],"loss_changes":[1.7E1,6.633911E0,8.834473E0,6.636902E0,0E0,2.2831299E1,1.1230957E1,1.3132515E1,9.06134E0,1.4633301E1,1.375061E1,1.7975464E1,1.2950684E1,0E0,0E0,0E0,0E0,0E0,0E0,0E0,0E0,0E0,0E0,0E0,0E0],"parents":[2147483647,0,0,1,1,2,2,3,3,5,5,6,6,7,7,8,8,9,9,10,10,11,11,12,12],"right_children":[2,4,6,8,-1,10,12,14,16,18,20,22,24,-1,-1,-1,-1,-1,-1,-1,-1,-1,-1,-1,-1],"split_conditions":[-4.6130266E-2,7.272727E1,-6.182578E-1,1.33431E0,-3.9455216E-2,-1.6074257E-1,1.34346E0,-7.343225E-1,1.34832E0,-7.0710677E-1,1.31432E0,1.34039E0,1.35324E0,6.5117585E-3,2.1543583E-2,2.5846405E-2,1.9668158E-2,2.3965975E-2,1.6972179E-2,7.1358955E-3,2.7205795E-2,2.638692E-2,2.0793034E-2,2.8743744E-2,2.479006E-2],"split_indices":[8,1,0,12,0,4,12,4,12,4,12,12,11,0,0,0,0,0,0,0,0,0,0,0,0],"split_type":[0,0,0,0,0,0,0,0,0,0,0,0,0,0,0,0,0,0,0,0,0,0,0,0,0],"sum_hessian":[2.9144023E4,3.44521E3,2.5698814E4,3.4417107E3,3.499112E0,7.409275E3,1.828954E4,8.743286E2,2.5673823E3,3.1428877E3,4.266387E3,8.0465864E3,1.0242952E4,1.8546774E2,6.8886084E2,1.5811406E3,9.862415E2,1.8742725E3,1.2686151E3,8.798028E1,4.178407E3,6.1386255E3,1.9079608E3,7.2477476E3,2.995205E3],"tree_param":{"num_deleted":"0","num_feature":"16","num_nodes":"25","size_leaf_vector":"1"}},{"base_weights":[-5.809084E-1,-5.4989064E-1,-6.0354227E-1,-5.79952E-1,-4.505032E-1,-6.045256E-1,-9.976349E-2,-6.0013247E-1,-4.714727E-1,-3.8534406E-1,-6.0519046E-1,-1.7343156E-1,-6.052574E-1,-4.8519066E-1,8.415173E-1,-2.955163E-2,-3.132723E-2,2.9987425E-2,-2.607813E-2,-3.1137465E-2,-1.5706517E-2,-1.6903926E-2,-3.0822292E-2,-2.6382098E-2,3.116223E-2,-3.1171313E-2,-2.9606177E-2,-1.4210778E-2,-2.8937137E-2,1.2299684E-2,6.1709303E-2],"categories":[],"categories_nodes":[],"categories_segments":[],"categories_sizes":[],"default_left":[0,0,0,0,0,0,0,0,0,0,0,0,0,0,0,0,0,0,0,0,0,0,0,0,0,0,0,0,0,0,0],"id":7,"left_children":[1,3,5,7,9,11,13,15,17,19,21,23,25,27,29,-1,-1,-1,-1,-1,-1,-1,-1,-1,-1,-1,-1,-1,-1,-1,-1],"loss_changes":[1.354834E1,2.4692139E1,5.5976562E0,1.3747559E1,1.9361359E1,3.489746E0,8.914444E0,9.2749023E-1,5.4502518E1,2.2976562E1,1.5186005E0,6.1747265E0,2.3461914E0,1.6019726E-1,1.3747258E0,0E0,0E0,0E0,0E0,0E0,0E0,0E0,0E0,0E0,0E0,0E0,0E0,0E0,0E0,0E0,0E0],"parents":[2147483647,0,0,1,1,2,2,3,3,4,4,5,5,6,6,7,7,8,8,9,9,10,10,11,11,12,12,13,13,14,14],"right_children":[2,4,6,8,10,12,14,16,18,20,22,24,26,28,30,-1,-1,-1,-1,-1,-1,-1,-1,-1,-1,-1,-1,-1,-1,-1,-1],"split_conditions":[-2.3344536E-1,-5.1877326E-1,1.6293751E0,1.35403E0,1.7970663E-2,-1.6290584E0,1.34991E0,2.3240646E-2,1.3542E0,-3.5083003E-2,-6.5691173E-1,1.35001E0,4.962165E-1,6.658817E-1,2.116677E-6,-2.955163E-2,-3.132723E-2,2.9987425E-2,-2.607813E-2,-3.1137465E-2,-1.5706517E-2,-1.6903926E-2,-3.0822292E-2,-2.6382098E-2,3.116223E-2,-3.1171313E-2,-2.9606177E-2,-1.4210778E-2,-2.8937137E-2,1.2299684E-2,6.1709303E-2],"split_indices":[4,4,5,11,8,5,11,8,11,8,5,11,4,4,9,0,0,0,0,0,0,0,0,0,0,0,0,0,0,0,0],"split_type":[0,0,0,0,0,0,0,0,0,0,0,0,0,0,0,0,0,0,0,0,0,0,0,0,0,0,0,0,0,0,0],"sum_hessian":[1.977013E4,8.35103E3,1.14191E4,6.4079927E3,1.943038E3,1.1396653E4,2.244614E1,5.39907E3,1.0089224E3,1.3696073E3,5.734306E2,1.971603E1,1.13769375E4,1.6269E1,6.1771407E0,4.032965E3,1.3661051E3,4.4579178E1,9.6434326E2,3.142494E2,1.0553579E3,2.4440777E1,5.489898E2,1.3881756E1,5.834275E0,4.75399E3,6.6229473E3,6.4502254E0,9.818774E0,3.1008458E0,3.0762951E0],"tree_param":{"num_deleted":"0","num_feature":"16","num_nodes":"31","size_leaf_vector":"1"}},{"base_weights":[-1.454364E-1,-2.2694987E-1,-8.402808E-2,6.963966E-1,-2.3011759E-1,-1.1249554E-1,2.4497448E-2,1.233621E0,2.713852E-1,-2.9415202E-1,-1.8739259E-1,-5.3913448E-2,-1.3472956E-1,-1.16113655E-1,3.9077997E-2,2.1558682E-2,7.073335E-2,4.569742E-2,-1.4399143E-2,-1.10718105E-2,-1.8301837E-2,7.1638287E-3,-9.674059E-3,-2.4308467E-3,-2.5848135E-2,-8.172397E-3,-3.192671E-3,-6.9563934E-3,3.0045781E-2,4.1346247E-3,-1.1514857E-3],"categories":[],"categories_nodes":[],"categories_segments":[],"categories_sizes":[],"default_left":[0,0,0,0,0,0,0,0,0,0,0,0,0,0,0,0,0,0,0,0,0,0,0,0,0,0,0,0,0,0,0],"id":8,"left_children":[1,3,5,7,9,11,13,15,17,19,21,23,25,27,29,-1,-1,-1,-1,-1,-1,-1,-1,-1,-1,-1,-1,-1,-1,-1,-1],"loss_changes":[1.16450226E2,2.939972E1,4.1006012E1,7.525774E0,2.7203186E1,1.3687714E1,5.6605577E0,1.5581894E0,7.632521E0,2.0752014E1,1.2064789E1,7.0733595E0,1.5501556E1,4.3649244E0,6.774811E0,0E0,0E0,0E0,0E0,0E0,0E0,0E0,0E0,0E0,0E0,0E0,0E0,0E0,0E0,0E0,0E0],"parents":[2147483647,0,0,1,1,2,2,3,3,4,4,5,5,6,6,7,7,8,8,9,9,10,10,11,11,12,12,13,13,14,14],"right_children":[2,4,6,8,10,12,14,16,18,20,22,24,26,28,30,-1,-1,-1,-1,-1,-1,-1,-1,-1,-1,-1,-1,-1,-1,-1,-1],"split_conditions":[7.65811E-5,1.31343E0,1.4633186E-4,-4.363309E-3,5.0642542E-5,-1.8436035E-2,-1.1564722E-1,-3.200139E-5,-1.7264804E-2,1.34509E0,-6.0641453E-2,2.0702482E-5,5.4829323E-1,1.1532696E-4,1.5902465E-2,2.1558682E-2,7.073335E-2,4.569742E-2,-1.4399143E-2,-1.10718105E-2,-1.8301837E-2,7.1638287E-3,-9.674059E-3,-2.4308467E-3,-2.5848135E-2,-8.172397E-3,-3.192671E-3,-6.9563934E-3,3.0045781E-2,4.1346247E-3,-1.1514857E-3],"split_indices":[2,11,2,4,2,7,8,9,8,11,8,9,4,9,7,0,0,0,0,0,0,0,0,0,0,0,0,0,0,0,0],"split_type":[0,0,0,0,0,0,0,0,0,0,0,0,0,0,0,0,0,0,0,0,0,0,0,0,0,0,0,0,0,0,0],"sum_hessian":[2.3266777E4,9.995734E3,1.3271042E4,3.3426838E1,9.962308E3,1.051326E4,2.7577822E3,1.3924005E1,1.9502832E1,3.9845483E3,5.9777593E3,2.8933367E3,7.6199233E3,2.584446E2,2.4993374E3,3.1856892E0,1.0738316E1,8.781435E0,1.0721398E1,1.9828525E3,2.0016958E3,1.07670494E2,5.870089E3,2.8617085E3,3.162818E1,5.4217666E3,2.198157E3,2.511883E2,7.256329E0,1.4680695E3,1.0312681E3],"tree_param":{"num_deleted":"0","num_feature":"16","num_nodes":"31","size_leaf_vector":"1"}},{"base_weights":[4.8897952E-1,5.020328E-1,3.820631E-1,4.676066E-1,5.220347E-1,-1.21713124E-1,3.8536888E-1,4.8339796E-1,4.1134635E-1,6.1695826E-1,5.1374394E-1,2.3335615E-1,-3.7488665E-2,4.0058205E-1,3.018872E-1,1.4353014E-2,2.4513317E-2,2.3319384E-2,1.901839E-2,3.2110393E-2,1.37687E-2,2.3522882E-2,2.6991522E-2,-2.2626553E-2,2.9373167E-2,1.793041E-2,2.1918418E-2,-2.0838864E-2,1.5922196E-2],"categories":[],"categories_nodes":[],"categories_segments":[],"categories_sizes":[],"default_left":[0,0,0,0,0,0,0,0,0,0,0,0,0,0,0,0,0,0,0,0,0,0,0,0,0,0,0,0,0],"id":9,"left_children":[1,3,5,7,9,11,13,15,17,19,21,23,-1,25,27,-1,-1,-1,-1,-1,-1,-1,-1,-1,-1,-1,-1,-1,-1],"loss_changes":[4.0543457E1,1.7665527E1,5.3428345E0,8.301514E0,1.2622559E1,4.9676332E0,3.8917236E0,9.926147E0,3.4095154E0,1.1171539E1,1.6828125E1,3.7856526E0,0E0,4.0766296E0,5.975891E0,0E0,0E0,0E0,0E0,0E0,0E0,0E0,0E0,0E0,0E0,0E0,0E0,0E0,0E0],"parents":[2147483647,0,0,1,1,2,2,3,3,4,4,5,5,6,6,7,7,8,8,9,9,10,10,11,11,13,13,14,14],"right_children":[2,4,6,8,10,12,14,16,18,20,22,24,-1,26,28,-1,-1,-1,-1,-1,-1,-1,-1,-1,-1,-1,-1,-1,-1],"split_conditions":[1.4879505E-4,-5.7184875E-1,1.31239E0,1.06744184E-4,1.32852E0,1.6867594E-4,4.2288277E1,1.31529E0,1.33923E0,7.322021E-5,1.34346E0,1.7991856E1,-3.7488665E-2,-2.2621132E-2,-5.2279276E-1,1.4353014E-2,2.4513317E-2,2.3319384E-2,1.901839E-2,3.2110393E-2,1.37687E-2,2.3522882E-2,2.6991522E-2,-2.2626553E-2,2.9373167E-2,1.793041E-2,2.1918418E-2,-2.0838864E-2,1.5922196E-2],"split_indices":[2,0,12,2,11,2,3,13,11,9,12,3,0,0,5,0,0,0,0,0,0,0,0,0,0,0,0,0,0],"split_type":[0,0,0,0,0,0,0,0,0,0,0,0,0,0,0,0,0,0,0,0,0,0,0,0,0,0,0,0,0],"sum_hessian":[2.9187098E4,2.6008098E4,3.179E3,9.566723E3,1.6441375E4,2.0491322E1,3.1585088E3,7.464084E3,2.1026387E3,1.3147762E3,1.5126599E4,1.34921055E1,6.999215E0,2.6684326E3,4.9007608E2,2.5373366E2,7.2103506E3,7.5216644E2,1.3504722E3,1.2234591E3,9.13172E1,5.6952734E3,9.431325E3,4.4992814E0,8.992825E0,1.269138E3,1.3992947E3,1.049184E1,4.7958426E2],"tree_param":{"num_deleted":"0","num_feature":"16","num_nodes":"29","size_leaf_vector":"1"}},{"base_weights":[-5.738639E-1,-4.80761E-1,-6.0060877E-1,-3.7631327E-1,-5.412451E-1,-5.5445284E-1,-6.09128E-1,-4.5185316E-1,-7.890619E-2,-2.5075316E-2,-5.465547E-1,-4.9882188E-1,-5.861099E-1,-5.90321E-1,-6.2144274E-1,-2.684818E-2,-1.3660252E-2,5.14448E-2,-1.6151866E-2,-2.9257743E-2,2.0511158E-2,-1.2641442E-2,-2.7663006E-2,-2.851533E-2,9.5992285E-4,-2.1625921E-2,-2.9542593E-2,-3.0680988E-2,-2.611773E-2,-3.1114459E-2,-2.5269885E-2],"categories":[],"categories_nodes":[],"categories_segments":[],"categories_sizes":[],"default_left":[0,0,0,0,0,0,0,0,0,0,0,0,0,0,0,0,0,0,0,0,0,0,0,0,0,0,0,0,0,0,0],"id":10,"left_children":[1,3,5,7,9,11,13,15,17,19,21,23,25,27,29,-1,-1,-1,-1,-1,-1,-1,-1,-1,-1,-1,-1,-1,-1,-1,-1],"loss_changes":[4.7677734E1,2.6985413E1,5.544922E0,3.549649E1,7.449707E0,3.8326416E0,2.5561523E0,1.9027008E1,8.729802E1,7.25555E0,5.1690063E0,3.1716019E1,8.2748413E-1,7.6185303E0,4.326172E-1,0E0,0E0,0E0,0E0,0E0,0E0,0E0,0E0,0E0,0E0,0E0,0E0,0E0,0E0,0E0,0E0],"parents":[2147483647,0,0,1,1,2,2,3,3,4,4,5,5,6,6,7,7,8,8,9,9,10,10,11,11,12,12,13,13,14,14],"right_children":[2,4,6,8,10,12,14,16,18,20,22,24,26,28,30,-1,-1,-1,-1,-1,-1,-1,-1,-1,-1,-1,-1,-1,-1,-1,-1],"split_conditions":[5.5424873E-5,-2.3344536E-1,6.752699E-5,1.3534E0,1.840055E-5,-2.3344536E-1,-4.1865975E-1,-5.1877326E-1,1.35433E0,7.9600203E-1,1.31432E0,-5.075384E-1,1.31563E0,-6.1909395E-1,1.36472E0,-2.684818E-2,-1.3660252E-2,5.14448E-2,-1.6151866E-2,-2.9257743E-2,2.0511158E-2,-1.2641442E-2,-2.7663006E-2,-2.851533E-2,9.5992285E-4,-2.1625921E-2,-2.9542593E-2,-3.0680988E-2,-2.611773E-2,-3.1114459E-2,-2.5269885E-2],"split_indices":[2,4,2,11,2,4,4,4,11,4,11,4,13,4,11,0,0,0,0,0,0,0,0,0,0,0,0,0,0,0,0],"split_type":[0,0,0,0,0,0,0,0,0,0,0,0,0,0,0,0,0,0,0,0,0,0,0,0,0,0,0,0,0,0,0],"sum_hessian":[1.9262648E4,4.302826E3,1.4959822E4,1.580589E3,2.722237E3,2.3412556E3,1.2618567E4,1.2600288E3,3.205602E2,2.7775452E1,2.6944617E3,8.551875E2,1.4860681E3,5.012482E3,7.6060854E3,8.520803E2,4.0794846E2,5.7306057E1,2.6325415E2,1.19962015E1,1.577925E1,6.100242E1,2.6334592E3,7.5139685E2,1.0379066E2,4.7268753E1,1.4387994E3,3.7268853E3,1.2855966E3,7.5466753E3,5.9410145E1],"tree_param":{"num_deleted":"0","num_feature":"16","num_nodes":"31","size_leaf_vector":"1"}},{"base_weights":[-1.4323296E-1,-1.7839092E-1,-2.2035314E-2,-2.7205077E-1,-1.4984937E-1,-6.6944405E-2,2.4120584E-2,-2.0795459E-1,-3.5860276E-1,-1.8225968E-1,-1.2968108E-1,-4.2230925E-3,-1.02950335E-1,-2.206394E-3,1.6076943E-1,-1.210716E-2,-9.6259173E-4,-2.7636452E-2,-1.6508026E-2,-7.6674945E-3,-1.9888394E-2,-1.2091997E-2,-5.9255864E-3,2.2141444E-2,-1.0770768E-3,-6.8735145E-3,3.3083525E-3,2.1888432E-3,-4.416325E-3,9.684449E-3,-2.7316675E-2],"categories":[],"categories_nodes":[],"categories_segments":[],"categories_sizes":[],"default_left":[0,0,0,0,0,0,0,0,0,0,0,0,0,0,0,0,0,0,0,0,0,0,0,0,0,0,0,0,0,0,0],"id":11,"left_children":[1,3,5,7,9,11,13,15,17,19,21,23,25,27,29,-1,-1,-1,-1,-1,-1,-1,-1,-1,-1,-1,-1,-1,-1,-1,-1],"loss_changes":[9.800699E1,4.76203E1,1.07248E1,2.3020325E1,8.910126E0,5.9216013E0,9.181086E0,1.5441185E1,9.589539E0,3.2586197E1,1.0529678E1,7.421942E0,9.734499E0,8.481166E0,9.7020035E0,0E0,0E0,0E0,0E0,0E0,0E0,0E0,0E0,0E0,0E0,0E0,0E0,0E0,0E0,0E0,0E0],"parents":[2147483647,0,0,1,1,2,2,3,3,4,4,5,5,6,6,7,7,8,8,9,9,10,10,11,11,12,12,13,13,14,14],"right_children":[2,4,6,8,10,12,14,16,18,20,22,24,26,28,30,-1,-1,-1,-1,-1,-1,-1,-1,-1,-1,-1,-1,-1,-1,-1,-1],"split_conditions":[1.2131748E-4,5.177269E-5,1.4879505E-4,1.34749E0,-3.1730467E-1,-5.7184875E-1,4.186739E1,9.238795E-1,1.34863E0,-4.962165E-1,1.3294E0,-5.5848664E-1,8.571673E-1,-1.6074257E-1,9.961947E-1,-1.210716E-2,-9.6259173E-4,-2.7636452E-2,-1.6508026E-2,-7.6674945E-3,-1.9888394E-2,-1.2091997E-2,-5.9255864E-3,2.2141444E-2,-1.0770768E-3,-6.8735145E-3,3.3083525E-3,2.1888432E-3,-4.416325E-3,9.684449E-3,-2.7316675E-2],"split_indices":[2,2,2,13,4,0,3,4,11,4,11,5,4,4,4,0,0,0,0,0,0,0,0,0,0,0,0,0,0,0,0],"split_type":[0,0,0,0,0,0,0,0,0,0,0,0,0,0,0,0,0,0,0,0,0,0,0,0,0,0,0,0,0,0,0],"sum_hessian":[2.3000504E4,1.7828268E4,5.1722363E3,4.162005E3,1.3666263E4,2.6212974E3,2.550939E3,2.393154E3,1.7688508E3,5.2390703E3,8.427192E3,9.5639734E2,1.6649E3,2.1396873E3,4.112516E2,2.0258359E3,3.6731824E2,2.2368753E2,1.5451633E3,4.6209014E3,6.181687E2,7.613474E2,7.6658457E3,3.4752007E1,9.216453E2,1.3828268E3,2.820732E2,1.3952139E3,7.4447345E2,3.9365103E2,1.760054E1],"tree_param":{"num_deleted":"0","num_feature":"16","num_nodes":"31","size_leaf_vector":"1"}},{"base_weights":[4.7139686E-1,4.847272E-1,3.785707E-1,4.543535E-1,5.013471E-1,-3.4751542E-2,3.8125044E-1,2.1913204E-1,4.5936814E-1,4.7491392E-1,5.209028E-1,-6.169582E-1,3.7546724E-1,3.5691366E-1,4.205523E-1,1.5483387E-2,-4.7034295E-3,1.6707039E-2,2.319601E-2,2.509439E-2,1.9603591E-2,2.718666E-2,2.3279926E-2,-3.998341E-2,-1.9071294E-2,-5.2245893E-3,2.9564722E-2,1.6943645E-2,2.750791E-2,2.3021912E-2,1.232223E-2],"categories":[],"categories_nodes":[],"categories_segments":[],"categories_sizes":[],"default_left":[0,0,0,0,0,0,0,0,0,0,0,0,0,0,0,0,0,0,0,0,0,0,0,0,0,0,0,0,0,0,0],"id":12,"left_children":[1,3,5,7,9,11,13,15,17,19,21,23,25,27,29,-1,-1,-1,-1,-1,-1,-1,-1,-1,-1,-1,-1,-1,-1,-1,-1],"loss_changes":[3.5804688E1,1.2608398E1,4.0634155E0,1.0519287E1,8.243164E0,6.0762434E0,3.3249512E0,5.4124823E0,4.869751E0,1.5435791E1,1.1654053E1,1.4657044E-1,1.6133208E0,7.6591187E0,9.496246E0,0E0,0E0,0E0,0E0,0E0,0E0,0E0,0E0,0E0,0E0,0E0,0E0,0E0,0E0,0E0,0E0],"parents":[2147483647,0,0,1,1,2,2,3,3,4,4,5,5,6,6,7,7,8,8,9,9,10,10,11,11,12,12,13,13,14,14],"right_children":[2,4,6,8,10,12,14,16,18,20,22,24,26,28,30,-1,-1,-1,-1,-1,-1,-1,-1,-1,-1,-1,-1,-1,-1,-1,-1],"split_conditions":[1.438401E-4,-6.182578E-1,1.31239E0,-8.219977E-1,1.34346E0,2.6691287E-5,4.709677E-1,-7.3792403E-6,1.31529E0,1.34039E0,1.35324E0,5.9031878E-5,-9.457686E-2,1.35578E0,2.1226912E-4,1.5483387E-2,-4.7034295E-3,1.6707039E-2,2.319601E-2,2.509439E-2,1.9603591E-2,2.718666E-2,2.3279926E-2,-3.998341E-2,-1.9071294E-2,-5.2245893E-3,2.9564722E-2,1.6943645E-2,2.750791E-2,2.3021912E-2,1.232223E-2],"split_indices":[2,0,13,5,12,9,0,9,13,12,11,14,5,12,2,0,0,0,0,0,0,0,0,0,0,0,0,0,0,0,0],"split_type":[0,0,0,0,0,0,0,0,0,0,0,0,0,0,0,0,0,0,0,0,0,0,0,0,0,0,0,0,0,0,0],"sum_hessian":[2.9082543E4,2.542688E4,3.6556638E3,9.002588E3,1.6424291E4,2.3471565E1,3.6321921E3,1.8884988E2,8.813738E3,6.994784E3,9.429508E3,9.493648E0,1.3977918E1,2.2493904E3,1.3828019E3,1.4651006E2,4.2339813E1,3.1175586E2,8.501982E3,5.2728545E3,1.7219299E3,6.668021E3,2.7614866E3,3.9975035E0,5.4961443E0,4.4958496E0,9.482069E0,2.0598423E3,1.8954787E2,1.1237258E3,2.5907608E2],"tree_param":{"num_deleted":"0","num_feature":"16","num_nodes":"31","size_leaf_vector":"1"}},{"base_weights":[-5.668769E-1,-4.7644472E-1,-5.955303E-1,-3.74598E-1,-5.315734E-1,-5.661946E-1,-6.085068E-1,-4.4123068E-1,-1.0970336E-1,4.394857E-2,-5.377134E-1,-5.1573527E-1,-5.9592193E-1,-5.906377E-1,-3.1029588E-2,-2.6922876E-2,-1.04564065E-2,2.8870469E-2,-2.3979135E-2,-2.9460995E-2,3.1044303E-2,-1.2480528E-2,-2.723226E-2,-2.8457925E-2,-1.0208844E-2,-3.0860066E-2,-2.924119E-2,-3.0645434E-2,-2.6684294E-2],"categories":[],"categories_nodes":[],"categories_segments":[],"categories_sizes":[],"default_left":[0,0,0,0,0,0,0,0,0,0,0,0,0,0,0,0,0,0,0,0,0,0,0,0,0,0,0,0,0],"id":13,"left_children":[1,3,5,7,9,11,13,15,17,19,21,23,25,27,-1,-1,-1,-1,-1,-1,-1,-1,-1,-1,-1,-1,-1,-1,-1],"loss_changes":[4.8305664E1,2.5161499E1,5.074707E0,2.8010574E1,1.0371033E1,6.2633057E0,1.762207E0,2.8543594E1,8.181736E1,1.1994915E1,5.6502686E0,2.7036438E1,2.8845215E-1,4.743164E0,0E0,0E0,0E0,0E0,0E0,0E0,0E0,0E0,0E0,0E0,0E0,0E0,0E0,0E0,0E0],"parents":[2147483647,0,0,1,1,2,2,3,3,4,4,5,5,6,6,7,7,8,8,9,9,10,10,11,11,12,12,13,13],"right_children":[2,4,6,8,10,12,14,16,18,20,22,24,26,28,-1,-1,-1,-1,-1,-1,-1,-1,-1,-1,-1,-1,-1,-1,-1],"split_conditions":[5.692586E-5,-2.5881904E-1,8.090882E-5,1.35324E0,1.840055E-5,-2.1217768E-1,-4.305111E-1,-5.2991927E-1,1.35476E0,7.7439266E-1,1.31432E0,-5.2991927E-1,3.5429105E-1,-6.2592345E-1,-3.1029588E-2,-2.6922876E-2,-1.04564065E-2,2.8870469E-2,-2.3979135E-2,-2.9460995E-2,3.1044303E-2,-1.2480528E-2,-2.723226E-2,-2.8457925E-2,-1.0208844E-2,-3.0860066E-2,-2.924119E-2,-3.0645434E-2,-2.6684294E-2],"split_indices":[2,4,2,11,2,4,4,4,13,4,11,4,4,4,0,0,0,0,0,0,0,0,0,0,0,0,0,0,0],"split_type":[0,0,0,0,0,0,0,0,0,0,0,0,0,0,0,0,0,0,0,0,0,0,0,0,0,0,0,0,0],"sum_hessian":[1.8750768E4,4.515889E3,1.4234879E4,1.5886869E3,2.9272026E3,4.379321E3,9.855559E3,1.2688495E3,3.198374E2,3.083444E1,2.8963682E3,1.6303336E3,2.748987E3,3.9963384E3,5.8592197E3,8.933209E2,3.7552853E2,1.11726204E2,2.0811119E2,1.4690666E1,1.6143774E1,6.8919136E1,2.827449E3,1.3909921E3,2.3934154E2,9.2355963E2,1.8254275E3,2.865875E3,1.1304631E3],"tree_param":{"num_deleted":"0","num_feature":"16","num_nodes":"29","size_leaf_vector":"1"}},{"base_weights":[-1.3358884E-1,-2.0878929E-1,-7.765062E-2,1.1588167E0,-2.1055283E-1,-1.04333356E-1,3.2461632E-2,7.370324E-2,8.811918E-3,-2.6340297E-1,-1.7097667E-1,-5.3323805E-2,-1.3025026E-1,5.3613794E-1,2.8676983E-2,-1.0104118E-2,-1.7334044E-2,-8.902212E-3,3.1680507E-3,1.3144738E-2,-3.049798E-3,-8.2045775E-3,-3.0309013E-3,4.1570887E-2,-7.0469677E-3,2.1866288E-3,-3.4650296E-3],"categories":[],"categories_nodes":[],"categories_segments":[],"categories_sizes":[],"default_left":[0,0,0,0,0,0,0,0,0,0,0,0,0,0,0,0,0,0,0,0,0,0,0,0,0,0,0],"id":14,"left_children":[1,3,5,7,9,11,13,-1,-1,15,17,19,21,23,25,-1,-1,-1,-1,-1,-1,-1,-1,-1,-1,-1,-1],"loss_changes":[9.657391E1,2.3865173E1,3.8694542E1,3.6948109E0,2.0415283E1,1.4006844E1,4.8825474E0,0E0,0E0,2.1310364E1,9.279938E0,8.684433E0,1.6551987E1,3.937036E0,3.766498E0,0E0,0E0,0E0,0E0,0E0,0E0,0E0,0E0,0E0,0E0,0E0,0E0],"parents":[2147483647,0,0,1,1,2,2,3,3,4,4,5,5,6,6,9,9,10,10,11,11,12,12,13,13,14,14],"right_children":[2,4,6,8,10,12,14,-1,-1,16,18,20,22,24,26,-1,-1,-1,-1,-1,-1,-1,-1,-1,-1,-1,-1],"split_conditions":[7.65811E-5,1.31304E0,1.4879505E-4,-4.363309E-3,5.177269E-5,-7.0131177E-1,1.31239E0,7.370324E-2,8.811918E-3,1.34749E0,9.986295E-1,-6.921758E-1,3.3918037E-5,8.619656E-5,4.544608E-2,-1.0104118E-2,-1.7334044E-2,-8.902212E-3,3.1680507E-3,1.3144738E-2,-3.049798E-3,-8.2045775E-3,-3.0309013E-3,4.1570887E-2,-7.0469677E-3,2.1866288E-3,-3.4650296E-3],"split_indices":[2,11,2,4,2,0,11,0,0,13,4,5,9,9,6,0,0,0,0,0,0,0,0,0,0,0,0],"split_type":[0,0,0,0,0,0,0,0,0,0,0,0,0,0,0,0,0,0,0,0,0,0,0,0,0,0,0],"sum_hessian":[2.2960676E4,9.792888E3,1.3167787E4,1.1766823E1,9.781121E3,1.0599368E4,2.5684187E3,8.529907E0,3.236915E0,4.1857715E3,5.59535E3,3.5720105E3,7.027358E3,1.8106234E1,2.5503125E3,2.4126636E3,1.7731078E3,5.4317695E3,1.6358061E2,8.38239E1,3.4881868E3,4.7281294E3,2.2992288E3,1.2449109E1,5.6571255E0,2.2111003E3,3.3921213E2],"tree_param":{"num_deleted":"0","num_feature":"16","num_nodes":"27","size_leaf_vector":"1"}},{"base_weights":[4.5164037E-1,4.639871E-1,3.6514428E-1,4.3782496E-1,4.8262015E-1,-8.0868736E-2,3.6794278E-1,3.9945963E-1,4.6380776E-1,5.380662E-1,4.6705168E-1,-4.1168156E-1,3.4099612E-2,3.6470008E-1,7.2025967E-1,2.2192767E-2,1.7115017E-2,2.362845E-2,1.6448429E-2,9.186858E-3,2.8031742E-2,2.8888145E-2,2.2934241E-2,-5.1739234E-3,-4.184438E-2,1.8463468E-2,6.3082795E-3,7.373596E-3,3.983907E-2],"categories":[],"categories_nodes":[],"categories_segments":[],"categories_sizes":[],"default_left":[0,0,0,0,0,0,0,0,0,0,0,0,0,0,0,0,0,0,0,0,0,0,0,0,0,0,0,0,0],"id":15,"left_children":[1,3,5,7,9,11,13,15,17,19,21,23,-1,25,27,-1,-1,-1,-1,-1,-1,-1,-1,-1,-1,-1,-1,-1,-1],"loss_changes":[3.0814453E1,1.2163086E1,4.5590515E0,1.0351318E1,1.2537842E1,6.1977763E0,3.8573303E0,1.0696838E1,7.2821045E0,2.5818481E1,1.045752E1,2.13835E0,0E0,3.8504028E0,1.2791023E0,0E0,0E0,0E0,0E0,0E0,0E0,0E0,0E0,0E0,0E0,0E0,0E0,0E0,0E0],"parents":[2147483647,0,0,1,1,2,2,3,3,4,4,5,5,6,6,7,7,8,8,9,9,10,10,11,11,13,13,14,14],"right_children":[2,4,6,8,10,12,14,16,18,20,22,24,-1,26,28,-1,-1,-1,-1,-1,-1,-1,-1,-1,-1,-1,-1,-1,-1],"split_conditions":[1.438401E-4,4.6478874E1,1.31239E0,-1.9936794E-1,5.2224248E-5,2.5272986E-2,9.986295E-1,-7.7988446E-1,1.35834E0,-9.426415E-1,-9.8162717E-1,1.6207575E-4,3.4099612E-2,9.935719E-1,2.4962109E1,2.2192767E-2,1.7115017E-2,2.362845E-2,1.6448429E-2,9.186858E-3,2.8031742E-2,2.8888145E-2,2.2934241E-2,-5.1739234E-3,-4.184438E-2,1.8463468E-2,6.3082795E-3,7.373596E-3,3.983907E-2],"split_indices":[2,1,11,4,2,8,4,4,11,4,4,2,0,4,3,0,0,0,0,0,0,0,0,0,0,0,0,0,0],"split_type":[0,0,0,0,0,0,0,0,0,0,0,0,0,0,0,0,0,0,0,0,0,0,0,0,0,0,0,0,0],"sum_hessian":[2.9011605E4,2.538386E4,3.627745E3,1.0568878E4,1.4814982E4,2.2446325E1,3.6052986E3,4.274164E3,6.2947134E3,3.2405203E3,1.1574462E4,1.5977895E1,6.4684305E0,3.574435E3,3.0863636E1,2.401867E3,1.8722974E3,5.9083125E3,3.864007E2,1.945896E2,3.0459307E3,8.0848145E2,1.076598E4,9.984307E0,5.993588E0,3.5067134E3,6.772173E1,3.982278E0,2.688136E1],"tree_param":{"num_deleted":"0","num_feature":"16","num_nodes":"29","size_leaf_vector":"1"}},{"base_weights":[-5.6051165E-1,-4.715281E-1,-5.912004E-1,-3.694432E-1,-5.268238E-1,-5.730227E-1,-6.073208E-1,-4.5831874E-1,-1.5166743E-1,9.6888095E-3,-5.320534E-1,-5.374741E-1,-5.9559315E-1,-5.924867E-1,-3.0876908E-2,-2.6470885E-2,-8.8587245E-3,-2.0025136E-2,1.1826673E-3,-1.0207078E-2,6.570251E-2,-1.0608955E-2,-2.6954055E-2,-2.9248817E-2,-1.794915E-2,-3.0463343E-2,-2.9157192E-2,-3.0329702E-2,-2.8050212E-2],"categories":[],"categories_nodes":[],"categories_segments":[],"categories_sizes":[],"default_left":[0,0,0,0,0,0,0,0,0,0,0,0,0,0,0,0,0,0,0,0,0,0,0,0,0,0,0,0,0],"id":16,"left_children":[1,3,5,7,9,11,13,15,17,19,21,23,25,27,-1,-1,-1,-1,-1,-1,-1,-1,-1,-1,-1,-1,-1,-1,-1],"loss_changes":[4.9779785E1,2.6368164E1,3.6445312E0,3.199562E1,8.562683E0,4.8327637E0,7.260742E-1,2.3414185E1,2.1021776E1,8.75402E0,6.6757812E0,2.1022705E1,3.1188965E-1,9.758301E-1,0E0,0E0,0E0,0E0,0E0,0E0,0E0,0E0,0E0,0E0,0E0,0E0,0E0,0E0,0E0],"parents":[2147483647,0,0,1,1,2,2,3,3,4,4,5,5,6,6,7,7,8,8,9,9,10,10,11,11,12,12,13,13],"right_children":[2,4,6,8,10,12,14,16,18,20,22,24,26,28,-1,-1,-1,-1,-1,-1,-1,-1,-1,-1,-1,-1,-1,-1,-1],"split_conditions":[5.8487287E-5,-2.5881904E-1,9.521261E-5,-5.4829323E-1,1.840055E-5,-2.1217768E-1,-4.305111E-1,1.35403E0,1.34316E0,1.4868451E-3,1.31432E0,-6.087614E-1,4.962165E-1,-6.2592345E-1,-3.0876908E-2,-2.6470885E-2,-8.8587245E-3,-2.0025136E-2,1.1826673E-3,-1.0207078E-2,6.570251E-2,-1.0608955E-2,-2.6954055E-2,-2.9248817E-2,-1.794915E-2,-3.0463343E-2,-2.9157192E-2,-3.0329702E-2,-2.8050212E-2],"split_indices":[2,4,2,4,2,4,4,11,13,8,11,4,4,4,0,0,0,0,0,0,0,0,0,0,0,0,0,0,0],"split_type":[0,0,0,0,0,0,0,0,0,0,0,0,0,0,0,0,0,0,0,0,0,0,0,0,0,0,0,0,0],"sum_hessian":[1.8329758E4,4.70468E3,1.3625076E4,1.6556897E3,3.0489907E3,6.421066E3,7.2040103E3,1.1750433E3,4.806464E2,2.9424526E1,3.0195662E3,2.5032427E3,3.9178232E3,2.9622556E3,4.241755E3,9.371605E2,2.3788283E2,1.9813962E2,2.8250677E2,2.6004908E1,3.419619E0,6.558458E1,2.9539814E3,1.9752795E3,5.2796326E2,1.8442515E3,2.0735718E3,2.032999E3,9.2925653E2],"tree_param":{"num_deleted":"0","num_feature":"16","num_nodes":"29","size_leaf_vector":"1"}},{"base_weights":[-1.2328147E-1,-1.9445197E-1,-6.224352E-2,-2.523948E-1,-1.5988809E-1,-8.982726E-2,4.2729758E-2,-1.8290842E-1,-3.240949E-1,1.04492575E-1,-1.6719355E-1,-2.5303134E-1,-8.254196E-2,4.7582015E-2,-4.8564285E-1,-1.101248E-2,1.2271078E-3,-1.0650975E-2,-1.7854376E-2,2.4669414E-2,-8.402952E-4,-8.722725E-3,4.489602E-3,-1.3760074E-2,4.6452533E-2,-5.229616E-3,-1.4946102E-3,1.3985346E-3,7.6825204E-3,-1.1845827E-4,-2.9887114E-2],"categories":[],"categories_nodes":[],"categories_segments":[],"categories_sizes":[],"default_left":[0,0,0,0,0,0,0,0,0,0,0,0,0,0,0,0,0,0,0,0,0,0,0,0,0,0,0,0,0,0,0],"id":17,"left_children":[1,3,5,7,9,11,13,15,17,19,21,23,25,27,29,-1,-1,-1,-1,-1,-1,-1,-1,-1,-1,-1,-1,-1,-1,-1,-1],"loss_changes":[9.8506165E1,2.0927795E1,3.535811E1,1.9421875E1,1.2688812E1,1.1475983E1,6.5387993E0,1.5405609E1,6.9716034E0,8.359051E0,1.1929047E1,1.1071449E1,1.0744579E1,5.2360005E0,1.256289E0,0E0,0E0,0E0,0E0,0E0,0E0,0E0,0E0,0E0,0E0,0E0,0E0,0E0,0E0,0E0,0E0],"parents":[2147483647,0,0,1,1,2,2,3,3,4,4,5,5,6,6,7,7,8,8,9,9,10,10,11,11,12,12,13,13,14,14],"right_children":[2,4,6,8,10,12,14,16,18,20,22,24,26,28,30,-1,-1,-1,-1,-1,-1,-1,-1,-1,-1,-1,-1,-1,-1,-1,-1],"split_conditions":[8.015119E-5,5.0991457E-5,1.4879505E-4,1.34516E0,-5.754655E-2,1.31563E0,9.986295E-1,9.238795E-1,3.7410072E1,-7.431448E-1,9.986295E-1,6.968888E1,5.4829323E-1,4.2288277E1,2.793554E1,-1.101248E-2,1.2271078E-3,-1.0650975E-2,-1.7854376E-2,2.4669414E-2,-8.402952E-4,-8.722725E-3,4.489602E-3,-1.3760074E-2,4.6452533E-2,-5.229616E-3,-1.4946102E-3,1.3985346E-3,7.6825204E-3,-1.1845827E-4,-2.9887114E-2],"split_indices":[2,2,2,13,8,13,4,4,1,4,4,3,4,3,3,0,0,0,0,0,0,0,0,0,0,0,0,0,0,0,0],"split_type":[0,0,0,0,0,0,0,0,0,0,0,0,0,0,0,0,0,0,0,0,0,0,0,0,0,0,0,0,0,0,0],"sum_hessian":[2.2677627E4,1.0468789E4,1.2208838E4,3.9091675E3,6.5596216E3,9.668419E3,2.5404185E3,1.987034E3,1.9221334E3,1.7602618E2,6.383595E3,4.11707E2,9.256712E3,2.5182026E3,2.221573E1,1.6838744E3,3.031597E2,4.418902E2,1.4802433E3,4.1120853E1,1.3490533E2,6.2084995E3,1.7509576E2,4.048806E2,6.826409E0,6.5235723E3,2.73314E3,2.1263237E3,3.9187912E2,4.3751383E0,1.7840593E1],"tree_param":{"num_deleted":"0","num_feature":"16","num_nodes":"31","size_leaf_vector":"1"}},{"base_weights":[4.3449095E-1,4.4550893E-1,3.455694E-1,4.1363925E-1,4.571105E-1,1.8891715E-1,3.5506383E-1,3.2450277E-1,4.321369E-1,5.4254913E-1,4.4965643E-1,-4.1597843E-2,2.1308792E-1,5.990729E-1,3.465881E-1,1.8745419E-2,4.60381E-3,2.2083614E-2,1.5406311E-2,1.9434765E-2,2.9661087E-2,2.0690223E-2,2.3568643E-2,3.8124707E-3,1.7646072E-2,3.2341603E-2,-1.720792E-2,1.825943E-2,1.2974717E-2],"categories":[],"categories_nodes":[],"categories_segments":[],"categories_sizes":[],"default_left":[0,0,0,0,0,0,0,0,0,0,0,0,0,0,0,0,0,0,0,0,0,0,0,0,0,0,0,0,0],"id":18,"left_children":[1,3,5,7,9,11,13,15,17,19,21,-1,23,25,27,-1,-1,-1,-1,-1,-1,-1,-1,-1,-1,-1,-1,-1,-1],"loss_changes":[2.8253418E1,9.348633E0,4.6939697E0,1.1227905E1,1.1794189E1,4.743772E0,6.032074E0,1.3894455E1,6.6121826E0,1.1556488E1,1.3344727E1,0E0,3.4475298E0,4.723213E0,4.6325684E0,0E0,0E0,0E0,0E0,0E0,0E0,0E0,0E0,0E0,0E0,0E0,0E0,0E0,0E0],"parents":[2147483647,0,0,1,1,2,2,3,3,4,4,5,5,6,6,7,7,8,8,9,9,10,10,12,12,13,13,14,14],"right_children":[2,4,6,8,10,12,14,16,18,20,22,-1,24,26,28,-1,-1,-1,-1,-1,-1,-1,-1,-1,-1,-1,-1,-1,-1],"split_conditions":[1.4879505E-4,3.9473682E1,-9.044551E-1,1.33306E0,1.32852E0,2.1428572E1,-8.638355E-1,4.10556E1,1.35834E0,-6.087614E-1,1.34346E0,-4.1597843E-2,7.5038457E-3,8.0882355E1,4.1432457E1,1.8745419E-2,4.60381E-3,2.2083614E-2,1.5406311E-2,1.9434765E-2,2.9661087E-2,2.0690223E-2,2.3568643E-2,3.8124707E-3,1.7646072E-2,3.2341603E-2,-1.720792E-2,1.825943E-2,1.2974717E-2],"split_indices":[2,1,4,11,11,1,4,3,12,4,12,0,6,1,3,0,0,0,0,0,0,0,0,0,0,0,0,0,0],"split_type":[0,0,0,0,0,0,0,0,0,0,0,0,0,0,0,0,0,0,0,0,0,0,0,0,0,0,0,0,0],"sum_hessian":[2.8994469E4,2.5794365E4,3.2001042E3,6.893758E3,1.8900607E4,1.8406311E2,3.0160413E3,1.1879255E3,5.7058325E3,1.5108976E3,1.7389709E4,3.4842174E0,1.8057889E2,9.890695E1,2.9171343E3,9.757128E2,2.1221272E2,5.2960493E3,4.097831E2,3.7648172E2,1.1344158E3,6.5674688E3,1.082224E4,9.2047844E1,8.853105E1,9.443939E1,4.4675665E0,2.401134E3,5.1600024E2],"tree_param":{"num_deleted":"0","num_feature":"16","num_nodes":"29","size_leaf_vector":"1"}},{"base_weights":[-5.548268E-1,-5.2202535E-1,-5.789611E-1,-5.5373025E-1,-4.245606E-1,-5.7985413E-1,-9.016708E-2,-5.729877E-1,-4.5271075E-1,-3.605759E-1,-5.790558E-1,-1.2460567E-1,-5.805679E-1,-4.3316835E-1,3.254625E-2,-2.8977001E-2,-2.617516E-2,2.78697E-2,-2.5347823E-2,-3.0354077E-2,-1.4725578E-2,-1.992101E-2,-2.9676273E-2,-2.4130644E-2,2.9078221E-2,-2.9939989E-2,-2.8372213E-2,-2.7310282E-2,-1.0823353E-2],"categories":[],"categories_nodes":[],"categories_segments":[],"categories_sizes":[],"default_left":[0,0,0,0,0,0,0,0,0,0,0,0,0,0,0,0,0,0,0,0,0,0,0,0,0,0,0,0,0],"id":19,"left_children":[1,3,5,7,9,11,13,15,17,19,21,23,25,27,-1,-1,-1,-1,-1,-1,-1,-1,-1,-1,-1,-1,-1,-1,-1],"loss_changes":[1.3833008E1,2.3186035E1,4.4345703E0,1.0859619E1,1.8223816E1,3.2612305E0,5.347761E0,1.251831E0,5.068718E1,2.1337402E1,1.1865387E0,4.6628065E0,2.1108398E0,2.3018193E-1,0E0,0E0,0E0,0E0,0E0,0E0,0E0,0E0,0E0,0E0,0E0,0E0,0E0,0E0,0E0],"parents":[2147483647,0,0,1,1,2,2,3,3,4,4,5,5,6,6,7,7,8,8,9,9,10,10,11,11,12,12,13,13],"right_children":[2,4,6,8,10,12,14,16,18,20,22,24,26,28,-1,-1,-1,-1,-1,-1,-1,-1,-1,-1,-1,-1,-1,-1,-1],"split_conditions":[-2.3344536E-1,-5.2991927E-1,1.6293751E0,1.35403E0,1.7970663E-2,-1.6290584E0,1.34991E0,-6.2592345E-1,1.3542E0,-3.654044E-2,-4.655916E-1,1.35001E0,4.962165E-1,5.951938E-3,3.254625E-2,-2.8977001E-2,-2.617516E-2,2.78697E-2,-2.5347823E-2,-3.0354077E-2,-1.4725578E-2,-1.992101E-2,-2.9676273E-2,-2.4130644E-2,2.9078221E-2,-2.9939989E-2,-2.8372213E-2,-2.7310282E-2,-1.0823353E-2],"split_indices":[4,4,5,13,8,5,11,4,11,8,5,11,4,7,0,0,0,0,0,0,0,0,0,0,0,0,0,0,0],"split_type":[0,0,0,0,0,0,0,0,0,0,0,0,0,0,0,0,0,0,0,0,0,0,0,0,0,0,0,0,0],"sum_hessian":[1.7855559E4,7.578321E3,1.0277239E4,5.714678E3,1.8636422E3,1.0258311E4,1.8928757E1,4.7957827E3,9.188958E2,1.3202079E3,5.434343E2,1.6333437E1,1.0241977E4,1.3223839E1,5.7049184E0,4.225559E3,5.7022375E2,4.6359715E1,8.725361E2,2.7730646E2,1.0429014E3,4.241928E1,5.0101508E2,1.1048669E1,5.284769E0,4.268031E3,5.9739463E3,7.691301E0,5.532538E0],"tree_param":{"num_deleted":"0","num_feature":"16","num_nodes":"29","size_leaf_vector":"1"}},{"base_weights":[-1.2068902E-1,-4.7976784E-2,-1.4155452E-1,1.0041255E-1,-5.8818236E-2,-1.5999109E-1,-1.854039E-2,7.8069136E-2,7.9655457E-1,-9.357903E-2,-2.5630832E-2,-1.15226924E-1,-1.93755E-1,5.098467E-2,-8.346531E-2,2.3224551E-2,1.9229501E-3,1.6460443E-2,6.26178E-2,-5.0652074E-3,9.045046E-3,8.890684E-4,-3.1753466E-3,-9.847995E-3,-4.8301048E-3,-1.2048009E-2,-6.2495503E-3,-1.0263723E-3,1.7314235E-2,2.8848136E-2,-4.913229E-3],"categories":[],"categories_nodes":[],"categories_segments":[],"categories_sizes":[],"default_left":[0,0,0,0,0,0,0,0,0,0,0,0,0,0,0,0,0,0,0,0,0,0,0,0,0,0,0,0,0,0,0],"id":20,"left_children":[1,3,5,7,9,11,13,15,17,19,21,23,25,27,29,-1,-1,-1,-1,-1,-1,-1,-1,-1,-1,-1,-1,-1,-1,-1,-1],"loss_changes":[3.422699E1,8.102371E0,3.9759735E1,5.273386E0,5.408909E0,2.3022339E1,1.0324348E1,5.0863366E0,1.8369379E0,4.8754425E0,3.9491313E0,9.964134E0,2.8177704E1,2.333464E1,1.1615597E1,0E0,0E0,0E0,0E0,0E0,0E0,0E0,0E0,0E0,0E0,0E0,0E0,0E0,0E0,0E0,0E0],"parents":[2147483647,0,0,1,1,2,2,3,3,4,4,5,5,6,6,7,7,8,8,9,9,10,10,11,11,12,12,13,13,14,14],"right_children":[2,4,6,8,10,12,14,16,18,20,22,24,26,28,30,-1,-1,-1,-1,-1,-1,-1,-1,-1,-1,-1,-1,-1,-1,-1,-1],"split_conditions":[-1.865254E-2,-5.6777008E-2,5.152994E-5,5.7087535E-1,-1.43255E0,1.34346E0,1.34322E0,-9.044551E-1,-9.4425704E-5,1.3909275E-4,-3.0775698E-2,1.32852E0,3.4202015E-1,1.3406E0,-9.945219E-1,2.3224551E-2,1.9229501E-3,1.6460443E-2,6.26178E-2,-5.0652074E-3,9.045046E-3,8.890684E-4,-3.1753466E-3,-9.847995E-3,-4.8301048E-3,-1.2048009E-2,-6.2495503E-3,-1.0263723E-3,1.7314235E-2,2.8848136E-2,-4.913229E-3],"split_indices":[7,6,9,5,0,12,11,4,9,15,7,11,4,12,4,0,0,0,0,0,0,0,0,0,0,0,0,0,0,0,0],"split_type":[0,0,0,0,0,0,0,0,0,0,0,0,0,0,0,0,0,0,0,0,0,0,0,0,0,0,0,0,0,0,0],"sum_hessian":[2.2563129E4,5.031749E3,1.7531379E4,3.420312E2,4.689718E3,1.5246092E4,2.2852876E3,3.3247226E2,9.558904E0,2.289673E3,2.4000447E3,6.5571045E3,8.688987E3,1.1036525E3,1.181635E3,2.9914162E1,3.025581E2,5.570046E0,3.9888573E0,2.227609E3,6.2064083E1,1.1185427E3,1.2815021E3,1.2151184E3,5.341986E3,5.150657E3,3.5383303E3,8.8923816E2,2.1441423E2,2.5065899E1,1.1565692E3],"tree_param":{"num_deleted":"0","num_feature":"16","num_nodes":"31","size_leaf_vector":"1"}},{"base_weights":[4.184984E-1,4.3143618E-1,3.2892886E-1,4.0451786E-1,4.4397753E-1,-1.5906876E-2,3.325015E-1,3.4451813E-1,4.2277646E-1,5.2559084E-1,4.3693367E-1,-4.964875E-1,2.3533529E-1,4.2966634E-1,3.2004997E-1,2.0260548E-2,1.1137687E-2,3.191225E-2,2.0777406E-2,2.730208E-2,1.2712076E-2,1.7787036E-2,2.2374574E-2,-9.553027E-3,-4.2328797E-2,2.4526639E-2,-1.7290102E-2,2.3376333E-2,5.438006E-3,1.346754E-2,1.8180354E-2],"categories":[],"categories_nodes":[],"categories_segments":[],"categories_sizes":[],"default_left":[0,0,0,0,0,0,0,0,0,0,0,0,0,0,0,0,0,0,0,0,0,0,0,0,0,0,0,0,0,0,0],"id":21,"left_children":[1,3,5,7,9,11,13,15,17,19,21,23,25,27,29,-1,-1,-1,-1,-1,-1,-1,-1,-1,-1,-1,-1,-1,-1,-1,-1],"loss_changes":[3.323877E1,8.315918E0,4.4894714E0,8.62915E0,9.634033E0,4.7385616E0,4.2210083E0,1.37604065E1,9.29248E0,7.3984985E0,1.338501E1,1.2777672E0,3.9981072E0,4.885536E0,6.9625244E0,0E0,0E0,0E0,0E0,0E0,0E0,0E0,0E0,0E0,0E0,0E0,0E0,0E0,0E0,0E0,0E0],"parents":[2147483647,0,0,1,1,2,2,3,3,4,4,5,5,6,6,7,7,8,8,9,9,10,10,11,11,12,12,13,13,14,14],"right_children":[2,4,6,8,10,12,14,16,18,20,22,24,26,28,30,-1,-1,-1,-1,-1,-1,-1,-1,-1,-1,-1,-1,-1,-1,-1,-1],"split_conditions":[1.438401E-4,4.2028984E1,1.31304E0,1.3351E0,1.32852E0,4.919355E1,-1.0786436E-1,2.9230978E1,1.33613E0,7.064524E-5,1.33417E0,3.483146E1,1.7286451E-4,3.968254E1,7.376372E-4,2.0260548E-2,1.1137687E-2,3.191225E-2,2.0777406E-2,2.730208E-2,1.2712076E-2,1.7787036E-2,2.2374574E-2,-9.553027E-3,-4.2328797E-2,2.4526639E-2,-1.7290102E-2,2.3376333E-2,5.438006E-3,1.346754E-2,1.8180354E-2],"split_indices":[2,1,13,13,13,1,8,3,13,9,13,1,2,1,6,0,0,0,0,0,0,0,0,0,0,0,0,0,0,0,0],"split_type":[0,0,0,0,0,0,0,0,0,0,0,0,0,0,0,0,0,0,0,0,0,0,0,0,0,0,0,0,0,0,0],"sum_hessian":[2.8804234E4,2.5165416E4,3.638818E3,8.008816E3,1.7156602E4,3.7277615E1,3.6015403E3,1.8731901E3,6.1356255E3,1.3572565E3,1.5799345E4,1.24626665E1,2.4814949E1,4.0529944E2,3.196241E3,1.2485361E3,6.24654E2,1.963185E2,5.939307E3,1.2611923E3,9.606427E1,1.82203E3,1.3977314E4,7.4814177E0,4.981249E0,1.7351303E1,7.463647E0,3.6211987E2,4.3179577E1,1.4803457E3,1.7158953E3],"tree_param":{"num_deleted":"0","num_feature":"16","num_nodes":"31","size_leaf_vector":"1"}},{"base_weights":[-5.4489976E-1,-4.483437E-1,-5.788404E-1,-3.3793268E-1,-5.134796E-1,-5.542163E-1,-5.95103E-1,-4.0695336E-1,-7.7963196E-2,7.48814E-2,-5.1940596E-1,-5.7407135E-1,-4.206244E-1,-5.57354E-1,-3.01114E-2,-2.5212258E-2,-9.9401465E-3,3.5816673E-2,-1.9535791E-2,-2.8451888E-2,2.7605146E-2,-1.4089659E-2,-2.626416E-2,-2.5918096E-2,-2.9189417E-2,-6.088219E-3,-2.9179573E-2,-1.1754001E-2,-2.8420968E-2],"categories":[],"categories_nodes":[],"categories_segments":[],"categories_sizes":[],"default_left":[0,0,0,0,0,0,0,0,0,0,0,0,0,0,0,0,0,0,0,0,0,0,0,0,0,0,0,0,0],"id":22,"left_children":[1,3,5,7,9,11,13,15,17,19,21,23,25,27,-1,-1,-1,-1,-1,-1,-1,-1,-1,-1,-1,-1,-1,-1,-1],"loss_changes":[5.6779785E1,3.241394E1,4.8256836E0,3.0188766E1,9.969543E0,1.3380249E1,1.7463379E0,2.6847092E1,8.8364006E1,9.310258E0,3.789795E0,2.116211E0,3.2474808E1,4.296814E0,0E0,0E0,0E0,0E0,0E0,0E0,0E0,0E0,0E0,0E0,0E0,0E0,0E0,0E0,0E0],"parents":[2147483647,0,0,1,1,2,2,3,3,4,4,5,5,6,6,7,7,8,8,9,9,10,10,11,11,12,12,13,13],"right_children":[2,4,6,8,10,12,14,16,18,20,22,24,26,28,-1,-1,-1,-1,-1,-1,-1,-1,-1,-1,-1,-1,-1,-1,-1],"split_conditions":[5.8487287E-5,-2.3344536E-1,-3.9874908E-1,1.35324E0,1.840055E-5,-5.1877326E-1,6.956282E-5,-5.2991927E-1,1.3546E0,7.7439266E-1,1.31432E0,1.1264769E1,1.0180415E-4,-2.1217768E-1,-3.01114E-2,-2.5212258E-2,-9.9401465E-3,3.5816673E-2,-1.9535791E-2,-2.8451888E-2,2.7605146E-2,-1.4089659E-2,-2.626416E-2,-2.5918096E-2,-2.9189417E-2,-6.088219E-3,-2.9179573E-2,-1.1754001E-2,-2.8420968E-2],"split_indices":[2,4,4,13,2,4,2,4,12,4,13,3,2,4,0,0,0,0,0,0,0,0,0,0,0,0,0,0,0],"split_type":[0,0,0,0,0,0,0,0,0,0,0,0,0,0,0,0,0,0,0,0,0,0,0,0,0,0,0,0,0],"sum_hessian":[1.7403926E4,4.5302495E3,1.2873676E4,1.6832242E3,2.8470251E3,5.134437E3,7.739239E3,1.3296444E3,3.5357977E2,2.8275372E1,2.8187498E3,4.467203E3,6.672337E2,1.241389E3,6.4978496E3,9.051465E2,4.2449792E2,9.9525314E1,2.5405447E2,1.1953719E1,1.6321653E1,6.921905E1,2.7495308E3,6.715303E2,3.7956729E3,2.3606635E2,4.3116736E2,4.1946903E1,1.1994421E3],"tree_param":{"num_deleted":"0","num_feature":"16","num_nodes":"29","size_leaf_vector":"1"}},{"base_weights":[-1.1289332E-1,-2.1851347E-1,-7.184822E-2,-1.7152183E-1,-2.8611264E-1,-9.4550006E-2,4.9091678E-2,-1.2307617E-2,-1.981283E-1,-4.9189466E-1,-2.5564942E-1,-2.1083996E-1,-8.5801035E-2,2.2501513E-2,1.7930274E-1,-4.431043E-3,3.607397E-2,-1.7901402E-2,-7.982726E-3,-2.8045088E-2,-1.1912896E-2,1.2467655E-2,-1.3822994E-2,3.1914115E-2,-1.1310706E-2,-1.080442E-2,-3.9908676E-3,3.04013E-3,-2.3676902E-3,1.0508465E-2,-2.4531856E-2],"categories":[],"categories_nodes":[],"categories_segments":[],"categories_sizes":[],"default_left":[0,0,0,0,0,0,0,0,0,0,0,0,0,0,0,0,0,0,0,0,0,0,0,0,0,0,0,0,0,0,0],"id":23,"left_children":[1,3,5,7,9,11,13,15,17,19,21,23,25,27,29,-1,-1,-1,-1,-1,-1,-1,-1,-1,-1,-1,-1,-1,-1,-1,-1],"loss_changes":[9.705295E1,1.9854584E1,4.4279808E1,1.5665962E1,1.5972244E1,1.3796219E1,8.8225155E0,2.978007E1,1.9438896E1,5.643135E0,2.3598404E1,1.2537777E1,9.828682E0,5.670042E0,9.039738E0,0E0,0E0,0E0,0E0,0E0,0E0,0E0,0E0,0E0,0E0,0E0,0E0,0E0,0E0,0E0,0E0],"parents":[2147483647,0,0,1,1,2,2,3,3,4,4,5,5,6,6,7,7,8,8,9,9,10,10,11,11,12,12,13,13,14,14],"right_children":[2,4,6,8,10,12,14,16,18,20,22,24,26,28,30,-1,-1,-1,-1,-1,-1,-1,-1,-1,-1,-1,-1,-1,-1,-1,-1],"split_conditions":[6.1586725E-5,1.34749E0,1.4879505E-4,-8.3867055E-1,1.34863E0,-9.8162717E-1,4.1432457E1,1.34553E0,-3.048643E-1,2.9051977E1,1.34971E0,1.4876033E1,1.31699E0,-1.5212339E-1,9.961947E-1,-4.431043E-3,3.607397E-2,-1.7901402E-2,-7.982726E-3,-2.8045088E-2,-1.1912896E-2,1.2467655E-2,-1.3822994E-2,3.1914115E-2,-1.1310706E-2,-1.080442E-2,-3.9908676E-3,3.04013E-3,-2.3676902E-3,1.0508465E-2,-2.4531856E-2],"split_indices":[2,13,2,4,13,4,3,13,4,3,13,1,13,4,4,0,0,0,0,0,0,0,0,0,0,0,0,0,0,0,0],"split_type":[0,0,0,0,0,0,0,0,0,0,0,0,0,0,0,0,0,0,0,0,0,0,0,0,0,0,0,0,0,0,0],"sum_hessian":[2.238986E4,6.264719E3,1.612514E4,3.697756E3,2.566963E3,1.3576832E4,2.548307E3,5.2966736E2,3.1680889E3,3.2905005E2,2.2379128E3,9.483545E2,1.2628478E4,2.117142E3,4.311649E2,4.805679E2,4.909943E1,6.128276E2,2.5552612E3,2.577205E2,7.132958E1,8.813668E1,2.1497761E3,1.6144945E1,9.3220953E2,5.529772E2,1.2075501E4,1.3674889E3,7.4965314E2,4.1283057E2,1.8334307E1],"tree_param":{"num_deleted":"0","num_feature":"16","num_nodes":"31","size_leaf_vector":"1"}},{"base_weights":[4.0241104E-1,4.1523007E-1,3.1351265E-1,3.8073257E-1,4.3276715E-1,-1.3870913E-1,3.1636328E-1,3.1031635E-1,3.94787E-1,5.126095E-1,4.2584708E-1,-4.0978277E-1,3.659619E-2,3.2682404E-1,2.1560387E-1,1.7713992E-2,1.1546162E-3,2.2655396E-2,1.9134713E-2,3.0132433E-2,2.2062616E-2,1.906938E-2,2.2631282E-2,-3.192526E-2,-1.4896007E-3,1.6144728E-2,4.094558E-2,1.383499E-2,-3.4989223E-3],"categories":[],"categories_nodes":[],"categories_segments":[],"categories_sizes":[],"default_left":[0,0,0,0,0,0,0,0,0,0,0,0,0,0,0,0,0,0,0,0,0,0,0,0,0,0,0,0,0],"id":24,"left_children":[1,3,5,7,9,11,13,15,17,19,21,23,-1,25,27,-1,-1,-1,-1,-1,-1,-1,-1,-1,-1,-1,-1,-1,-1],"loss_changes":[3.256543E1,1.5003418E1,4.7102356E0,8.248169E0,8.961426E0,5.8153887E0,3.7213135E0,1.7821152E1,4.796753E0,8.216553E0,1.803711E1,1.5855896E0,0E0,6.0337524E0,5.9742403E0,0E0,0E0,0E0,0E0,0E0,0E0,0E0,0E0,0E0,0E0,0E0,0E0,0E0,0E0],"parents":[2147483647,0,0,1,1,2,2,3,3,4,4,5,5,6,6,7,7,8,8,9,9,10,10,11,11,13,13,14,14],"right_children":[2,4,6,8,10,12,14,16,18,20,22,24,-1,26,28,-1,-1,-1,-1,-1,-1,-1,-1,-1,-1,-1,-1,-1,-1],"split_conditions":[1.438401E-4,-7.0131177E-1,1.31239E0,1.33306E0,1.32852E0,6.643599E1,2.5666566E-4,4.10556E1,1.33941E0,9.351344E-6,1.34346E0,2.6691287E-5,3.659619E-2,1.36421E0,1.3413539E0,1.7713992E-2,1.1546162E-3,2.2655396E-2,1.9134713E-2,3.0132433E-2,2.2062616E-2,1.906938E-2,2.2631282E-2,-3.192526E-2,-1.4896007E-3,1.6144728E-2,4.094558E-2,1.383499E-2,-3.4989223E-3],"split_indices":[2,0,12,11,11,1,2,3,12,9,12,9,0,13,0,0,0,0,0,0,0,0,0,0,0,0,0,0,0],"split_type":[0,0,0,0,0,0,0,0,0,0,0,0,0,0,0,0,0,0,0,0,0,0,0,0,0,0,0,0,0],"sum_hessian":[2.868937E4,2.5070559E4,3.61881E3,8.457125E3,1.6613434E4,2.2370031E1,3.59644E3,1.4109587E3,7.046166E3,1.3192406E3,1.5294193E4,1.74624E1,4.9076324E0,3.2561453E3,3.402946E2,1.2234585E3,1.8750017E2,1.203837E3,5.8423286E3,5.799758E2,7.392648E2,5.7548535E3,9.53934E3,1.0476256E1,6.986143E0,3.231993E3,2.415242E1,2.803493E2,5.9945286E1],"tree_param":{"num_deleted":"0","num_feature":"16","num_nodes":"29","size_leaf_vector":"1"}},{"base_weights":[-5.4105943E-1,-4.5128524E-1,-5.7640916E-1,-3.4291118E-1,-5.149345E-1,-5.5409586E-1,-5.911471E-1,-4.2876226E-1,-1.4908154E-1,1.4023441E-1,-5.2173346E-1,-5.8282334E-1,-4.75136E-1,-5.5082774E-1,-5.971445E-1,-2.5140593E-2,-7.010852E-3,-1.5196331E-2,1.8065822E-3,-2.824775E-2,2.885635E-2,-1.21151665E-2,-2.64187E-2,-2.5989389E-2,-2.9344177E-2,-1.4201152E-2,-2.8231198E-2,-4.0730583E-3,-2.8336355E-2,-2.9212637E-2,-3.0165335E-2],"categories":[],"categories_nodes":[],"categories_segments":[],"categories_sizes":[],"default_left":[0,0,0,0,0,0,0,0,0,0,0,0,0,0,0,0,0,0,0,0,0,0,0,0,0,0,0,0,0,0,0],"id":25,"left_children":[1,3,5,7,9,11,13,15,17,19,21,23,25,27,29,-1,-1,-1,-1,-1,-1,-1,-1,-1,-1,-1,-1,-1,-1,-1,-1],"loss_changes":[5.3804688E1,3.305597E1,3.6914062E0,2.9648926E1,1.3584412E1,1.0784912E1,1.4470215E0,2.6358795E1,1.5774163E1,1.0166958E1,5.44281E0,6.088867E-1,2.2181152E1,7.1467285E0,1.5454102E-1,0E0,0E0,0E0,0E0,0E0,0E0,0E0,0E0,0E0,0E0,0E0,0E0,0E0,0E0,0E0,0E0],"parents":[2147483647,0,0,1,1,2,2,3,3,4,4,5,5,6,6,7,7,8,8,9,9,10,10,11,11,12,12,13,13,14,14],"right_children":[2,4,6,8,10,12,14,16,18,20,22,24,26,28,30,-1,-1,-1,-1,-1,-1,-1,-1,-1,-1,-1,-1,-1,-1,-1,-1],"split_conditions":[6.0757124E-5,-2.3344536E-1,-3.9874908E-1,-5.4829323E-1,1.840055E-5,-6.2592345E-1,6.956282E-5,1.35403E0,1.3447E0,7.7439266E-1,1.31432E0,6.53081E-5,1.0180415E-4,-2.1217768E-1,8.964549E-5,-2.5140593E-2,-7.010852E-3,-1.5196331E-2,1.8065822E-3,-2.824775E-2,2.885635E-2,-1.21151665E-2,-2.64187E-2,-2.5989389E-2,-2.9344177E-2,-1.4201152E-2,-2.8231198E-2,-4.0730583E-3,-2.8336355E-2,-2.9212637E-2,-3.0165335E-2],"split_indices":[2,4,4,4,2,4,2,12,11,4,13,2,2,4,2,0,0,0,0,0,0,0,0,0,0,0,0,0,0,0,0],"split_type":[0,0,0,0,0,0,0,0,0,0,0,0,0,0,0,0,0,0,0,0,0,0,0,0,0,0,0,0,0,0,0],"sum_hessian":[1.7035588E4,4.8167466E3,1.2218842E4,1.7845762E3,3.0321702E3,4.8756616E3,7.34318E3,1.235941E3,5.486352E2,3.0941458E1,3.0012288E3,3.570316E3,1.3053457E3,9.6285925E2,6.380321E3,9.829446E2,2.5299643E2,2.9846576E2,2.5016942E2,1.1724228E1,1.921723E1,7.0537796E1,2.930691E3,2.2385913E2,3.3464568E3,4.1762582E2,8.8771985E2,3.174791E1,9.311114E2,2.0944456E3,4.285875E3],"tree_param":{"num_deleted":"0","num_feature":"16","num_nodes":"31","size_leaf_vector":"1"}},{"base_weights":[-1.0821809E-1,-1.203104E-1,-3.6429472E-3,-4.8724625E-2,-1.4012545E-1,3.9844668E-1,-1.324876E-2,6.969676E-2,-6.257726E-2,-1.7685051E-1,-1.04020044E-1,-1.09018624E-1,1.0588791E0,3.3582274E-3,-2.1011987E-1,1.3732764E-2,3.6137304E-4,2.248493E-2,-3.2804504E-3,-5.3150775E-3,-1.1066253E-2,-1.38142435E-2,-4.415601E-3,4.7456104E-2,-1.2962477E-2,2.4382515E-2,6.903632E-2,-5.090278E-4,1.809853E-2,-2.2299945E-2,-2.2565695E-3],"categories":[],"categories_nodes":[],"categories_segments":[],"categories_sizes":[],"default_left":[0,0,0,0,0,0,0,0,0,0,0,0,0,0,0,0,0,0,0,0,0,0,0,0,0,0,0,0,0,0,0],"id":26,"left_children":[1,3,5,7,9,11,13,15,17,19,21,23,25,27,29,-1,-1,-1,-1,-1,-1,-1,-1,-1,-1,-1,-1,-1,-1,-1,-1],"loss_changes":[2.8045105E1,2.819165E1,8.887822E0,7.0767508E0,2.0625916E1,1.8109684E1,7.3473177E0,5.7849536E0,6.024864E0,2.4189362E1,2.1226006E1,5.216607E0,3.6328907E0,1.0069619E1,6.783395E0,0E0,0E0,0E0,0E0,0E0,0E0,0E0,0E0,0E0,0E0,0E0,0E0,0E0,0E0,0E0,0E0],"parents":[2147483647,0,0,1,1,2,2,3,3,4,4,5,5,6,6,7,7,8,8,9,9,10,10,11,11,12,12,13,13,14,14],"right_children":[2,4,6,8,10,12,14,16,18,20,22,24,26,28,30,-1,-1,-1,-1,-1,-1,-1,-1,-1,-1,-1,-1,-1,-1,-1,-1],"split_conditions":[5.152994E-5,-1.4894029E-2,-9.945219E-1,-5.295091E-2,-4.363309E-3,1.34553E0,9.692309E-1,-6.6262007E-1,6.407024E0,4.6969696E1,1.32852E0,4.8653504E-1,-9.986295E-1,9.366722E-1,9.890159E-1,1.3732764E-2,3.6137304E-4,2.248493E-2,-3.2804504E-3,-5.3150775E-3,-1.1066253E-2,-1.38142435E-2,-4.415601E-3,4.7456104E-2,-1.2962477E-2,2.4382515E-2,6.903632E-2,-5.090278E-4,1.809853E-2,-2.2299945E-2,-2.2565695E-3],"split_indices":[9,6,4,6,4,11,4,4,3,1,11,0,4,4,4,0,0,0,0,0,0,0,0,0,0,0,0,0,0,0,0],"split_type":[0,0,0,0,0,0,0,0,0,0,0,0,0,0,0,0,0,0,0,0,0,0,0,0,0,0,0,0,0,0,0],"sum_hessian":[2.2177178E4,1.987843E4,2.2987488E3,4.310253E3,1.5568177E4,5.269067E1,2.246058E3,4.509769E2,3.8592761E3,7.7159297E3,7.852247E3,3.0268099E1,2.2422573E1,2.072238E3,1.7381992E2,1.0455167E2,3.4642523E2,2.183876E1,3.8374373E3,2.9847222E3,4.7312075E3,6.547895E2,7.1974575E3,3.1019535E0,2.7166145E1,8.987073E0,1.34355E1,1.9977867E3,7.445133E1,7.083955E1,1.0298036E2],"tree_param":{"num_deleted":"0","num_feature":"16","num_nodes":"31","size_leaf_vector":"1"}},{"base_weights":[3.8501456E-1,3.5588658E-1,4.0118277E-1,3.0801812E-1,3.900601E-1,4.1394636E-1,3.3192456E-1,3.9077586E-1,2.598914E-1,4.0941846E-1,3.3314487E-1,4.3687502E-1,3.9048553E-1,3.1980678E-1,4.8203743E-1,2.2389995E-2,1.5305966E-2,1.384203E-2,5.0993348E-3,1.0574728E-2,2.0829594E-2,1.51275145E-2,2.393662E-2,2.1156678E-2,2.8397186E-2,2.8425662E-2,1.869355E-2,1.6269403E-2,-6.033718E-3,9.641696E-3,2.7275622E-2],"categories":[],"categories_nodes":[],"categories_segments":[],"categories_sizes":[],"default_left":[0,0,0,0,0,0,0,0,0,0,0,0,0,0,0,0,0,0,0,0,0,0,0,0,0,0,0,0,0,0,0],"id":27,"left_children":[1,3,5,7,9,11,13,15,17,19,21,23,25,27,29,-1,-1,-1,-1,-1,-1,-1,-1,-1,-1,-1,-1,-1,-1,-1,-1],"loss_changes":[1.3291992E1,1.6551514E1,1.6072754E1,1.6825317E1,6.411133E0,8.155762E0,5.0455627E0,7.397293E0,7.171707E0,6.20166E0,6.597122E0,1.3844238E1,2.24458E1,6.549164E0,3.7781677E0,0E0,0E0,0E0,0E0,0E0,0E0,0E0,0E0,0E0,0E0,0E0,0E0,0E0,0E0,0E0,0E0],"parents":[2147483647,0,0,1,1,2,2,3,3,4,4,5,5,6,6,7,7,8,8,9,9,10,10,11,11,12,12,13,13,14,14],"right_children":[2,4,6,8,10,12,14,16,18,20,22,24,26,28,30,-1,-1,-1,-1,-1,-1,-1,-1,-1,-1,-1,-1,-1,-1,-1,-1],"split_conditions":[-6.182578E-1,-1.9936794E-1,5.152994E-5,-8.808907E-1,3.239654E1,-4.363309E-3,9.692309E-1,2.3943182E1,4.734092E-1,1.31529E0,9.6004987E-1,-1.5212339E-1,1.32852E0,9.6004987E-1,6.722137E-3,2.2389995E-2,1.5305966E-2,1.384203E-2,5.0993348E-3,1.0574728E-2,2.0829594E-2,1.51275145E-2,2.393662E-2,2.1156678E-2,2.8397186E-2,2.8425662E-2,1.869355E-2,1.6269403E-2,-6.033718E-3,9.641696E-3,2.7275622E-2],"split_indices":[0,4,9,4,3,4,4,3,5,13,4,4,12,4,6,0,0,0,0,0,0,0,0,0,0,0,0,0,0,0,0],"split_type":[0,0,0,0,0,0,0,0,0,0,0,0,0,0,0,0,0,0,0,0,0,0,0,0,0,0,0,0,0,0,0],"sum_hessian":[2.8526592E4,1.0190601E4,1.8335992E4,4.248932E3,5.9416685E3,1.547848E4,2.8575105E3,1.5597313E3,2.689201E3,4.4290405E3,1.5126276E3,7.819115E3,7.6593657E3,2.6469663E3,2.1054431E2,9.294026E2,6.303287E2,2.427847E3,2.613539E2,1.559745E2,4.273066E3,1.2524985E3,2.601291E2,7.0809634E3,7.3815173E2,6.509638E2,7.008402E3,2.6141045E3,3.2861637E1,3.862047E1,1.7192384E2],"tree_param":{"num_deleted":"0","num_feature":"16","num_nodes":"31","size_leaf_vector":"1"}},{"base_weights":[-5.3463626E-1,-4.4169042E-1,-5.671306E-1,-3.376753E-1,-5.038715E-1,-5.440451E-1,-5.8696705E-1,-4.2466313E-1,-1.4482583E-1,6.351773E-2,-5.0943774E-1,-5.0024086E-1,-5.722661E-1,-5.699055E-1,-2.9940546E-2,-2.5031675E-2,-6.1740694E-3,-1.8137282E-2,4.7321897E-4,-2.7963353E-2,2.7844239E-2,-1.3003354E-2,-2.5771365E-2,-2.8405512E-2,-1.2858652E-2,-2.886693E-2,-2.6339054E-2,-2.9354453E-2,-2.6736338E-2],"categories":[],"categories_nodes":[],"categories_segments":[],"categories_sizes":[],"default_left":[0,0,0,0,0,0,0,0,0,0,0,0,0,0,0,0,0,0,0,0,0,0,0,0,0,0,0,0,0],"id":28,"left_children":[1,3,5,7,9,11,13,15,17,19,21,23,25,27,-1,-1,-1,-1,-1,-1,-1,-1,-1,-1,-1,-1,-1,-1,-1],"loss_changes":[4.9671387E1,2.7552673E1,5.287842E0,2.6892212E1,8.498291E0,6.725586E0,9.8706055E-1,2.5261703E1,1.6847504E1,8.586278E0,3.8309326E0,3.6649292E1,4.9023438E-1,1.3265381E0,0E0,0E0,0E0,0E0,0E0,0E0,0E0,0E0,0E0,0E0,0E0,0E0,0E0,0E0,0E0],"parents":[2147483647,0,0,1,1,2,2,3,3,4,4,5,5,6,6,7,7,8,8,9,9,10,10,11,11,12,12,13,13],"right_children":[2,4,6,8,10,12,14,16,18,20,22,24,26,28,-1,-1,-1,-1,-1,-1,-1,-1,-1,-1,-1,-1,-1,-1,-1],"split_conditions":[5.8487287E-5,-2.3344536E-1,9.42488E-5,-5.3729963E-1,1.840055E-5,-2.1217768E-1,-4.305111E-1,1.35403E0,1.34316E0,7.7439266E-1,1.31432E0,-6.087614E-1,4.3681343E1,-6.3607824E-1,-2.9940546E-2,-2.5031675E-2,-6.1740694E-3,-1.8137282E-2,4.7321897E-4,-2.7963353E-2,2.7844239E-2,-1.3003354E-2,-2.5771365E-2,-2.8405512E-2,-1.2858652E-2,-2.886693E-2,-2.6339054E-2,-2.9354453E-2,-2.6736338E-2],"split_indices":[2,4,2,4,2,4,4,11,11,4,13,4,3,4,0,0,0,0,0,0,0,0,0,0,0,0,0,0,0],"split_type":[0,0,0,0,0,0,0,0,0,0,0,0,0,0,0,0,0,0,0,0,0,0,0,0,0,0,0,0,0],"sum_hessian":[1.6528291E4,4.285316E3,1.2242975E4,1.6057256E3,2.6795906E3,5.6712417E3,6.5717324E3,1.1057552E3,4.9997043E2,2.5930912E1,2.6536597E3,2.229448E3,3.441794E3,2.7128594E3,3.858873E3,8.824924E2,2.2326286E2,2.0669002E2,2.9328043E2,1.14030695E1,1.45278425E1,6.3284424E1,2.5903752E3,1.7417732E3,4.876747E2,3.085955E3,3.558389E2,1.8120491E3,9.008105E2],"tree_param":{"num_deleted":"0","num_feature":"16","num_nodes":"29","size_leaf_vector":"1"}},{"base_weights":[-9.801725E-2,-2.0456398E-1,-5.8669966E-2,-1.4952718E-1,-2.845076E-1,-9.196451E-2,1.4078264E-2,-1.5888113E-1,5.9384507E-1,-4.8134032E-1,-2.5455022E-1,2.7780563E-2,-1.0209647E-1,-2.0530695E-2,4.8809957E-2,1.3190205E-3,-9.397483E-3,-4.5711356E-3,3.830961E-2,-1.2364301E-2,-2.6700838E-2,1.8024726E-2,-1.3652275E-2,1.19756395E-2,-2.3450796E-3,-7.3893997E-3,-3.6351662E-3,-1.352188E-2,-4.135725E-4,2.647174E-3,-1.9616008E-2],"categories":[],"categories_nodes":[],"categories_segments":[],"categories_sizes":[],"default_left":[0,0,0,0,0,0,0,0,0,0,0,0,0,0,0,0,0,0,0,0,0,0,0,0,0,0,0,0,0,0,0],"id":29,"left_children":[1,3,5,7,9,11,13,15,17,19,21,23,25,27,29,-1,-1,-1,-1,-1,-1,-1,-1,-1,-1,-1,-1,-1,-1,-1,-1],"loss_changes":[9.273743E1,2.6208206E1,3.9138725E1,2.4679787E1,1.42155E1,1.3451965E1,6.100267E0,1.8813393E1,5.2841578E0,3.8141632E0,2.412915E1,1.3698058E1,1.3715744E1,7.786432E0,4.639277E0,0E0,0E0,0E0,0E0,0E0,0E0,0E0,0E0,0E0,0E0,0E0,0E0,0E0,0E0,0E0,0E0],"parents":[2147483647,0,0,1,1,2,2,3,3,4,4,5,5,6,6,7,7,8,8,9,9,10,10,11,11,12,12,13,13,14,14],"right_children":[2,4,6,8,10,12,14,16,18,20,22,24,26,28,30,-1,-1,-1,-1,-1,-1,-1,-1,-1,-1,-1,-1,-1,-1,-1,-1],"split_conditions":[6.0757124E-5,1.34749E0,1.2131748E-4,1.3473E0,1.34863E0,-5.440372E-2,1.4879505E-4,-8.457278E-1,-9.713421E-1,-9.1879123E-1,1.34961E0,1.33479E0,-3.2969064E-1,-9.575714E-1,9.986295E-1,1.3190205E-3,-9.397483E-3,-4.5711356E-3,3.830961E-2,-1.2364301E-2,-2.6700838E-2,1.8024726E-2,-1.3652275E-2,1.19756395E-2,-2.3450796E-3,-7.3893997E-3,-3.6351662E-3,-1.352188E-2,-4.135725E-4,2.647174E-3,-1.9616008E-2],"split_indices":[2,13,2,12,13,8,2,4,4,4,12,11,4,4,4,0,0,0,0,0,0,0,0,0,0,0,0,0,0,0,0],"split_type":[0,0,0,0,0,0,0,0,0,0,0,0,0,0,0,0,0,0,0,0,0,0,0,0,0,0,0,0,0,0,0],"sum_hessian":[2.212263E4,5.9652915E3,1.615734E4,3.5347092E3,2.430582E3,1.1084193E4,5.0731465E3,3.4915608E3,4.3148502E1,3.1907266E2,2.1115095E3,8.645635E2,1.021963E4,2.5412678E3,2.5318787E3,4.7355594E2,3.018005E3,8.765525E0,3.4382977E1,5.9664227E1,2.5940845E2,6.110263E1,2.0504067E3,2.2485823E2,6.3970526E2,3.999068E3,6.220562E3,1.17848335E2,2.4234194E3,2.5092463E3,2.2632427E1],"tree_param":{"num_deleted":"0","num_feature":"16","num_nodes":"31","size_leaf_vector":"1"}},{"base_weights":[3.713833E-1,3.8304192E-1,2.9030824E-1,3.543597E-1,3.9970332E-1,2.5454843E-1,3.2611096E-1,2.9492018E-1,3.66182E-1,4.4764376E-1,3.864453E-1,2.3389877E-1,5.0314397E-1,3.568312E-1,1.9079027E-1,1.1994451E-2,1.9384827E-2,1.07421735E-2,1.8522166E-2,1.5157628E-2,2.3476414E-2,1.9358438E-2,-2.8115213E-2,1.5521054E-2,8.944391E-3,2.6870042E-2,-6.2277596E-3,1.710587E-2,2.6957382E-2,-3.4604833E-2,1.0179008E-2],"categories":[],"categories_nodes":[],"categories_segments":[],"categories_sizes":[],"default_left":[0,0,0,0,0,0,0,0,0,0,0,0,0,0,0,0,0,0,0,0,0,0,0,0,0,0,0,0,0,0,0],"id":30,"left_children":[1,3,5,7,9,11,13,15,17,19,21,23,25,27,29,-1,-1,-1,-1,-1,-1,-1,-1,-1,-1,-1,-1,-1,-1,-1,-1],"loss_changes":[2.6652588E1,1.1687012E1,4.479828E0,6.2894287E0,9.7734375E0,9.05867E0,7.3204193E0,7.644287E0,4.8147583E0,1.0557922E1,8.636719E0,6.9001236E0,2.9962654E0,3.69812E0,3.8783598E0,0E0,0E0,0E0,0E0,0E0,0E0,0E0,0E0,0E0,0E0,0E0,0E0,0E0,0E0,0E0,0E0],"parents":[2147483647,0,0,1,1,2,2,3,3,4,4,5,5,6,6,7,7,8,8,9,9,10,10,11,11,12,12,13,13,14,14],"right_children":[2,4,6,8,10,12,14,16,18,20,22,24,26,28,30,-1,-1,-1,-1,-1,-1,-1,-1,-1,-1,-1,-1,-1,-1,-1,-1],"split_conditions":[1.438401E-4,-5.7184875E-1,-2.2621132E-2,1.33306E0,5.2224248E-5,1.35617E0,2.1226912E-4,3.804348E1,-7.713987E-1,3.0506122E-5,1E2,1.33777E0,5.0909092E1,3.805233E-1,-8.518524E-2,1.1994451E-2,1.9384827E-2,1.07421735E-2,1.8522166E-2,1.5157628E-2,2.3476414E-2,1.9358438E-2,-2.8115213E-2,1.5521054E-2,8.944391E-3,2.6870042E-2,-6.2277596E-3,1.710587E-2,2.6957382E-2,-3.4604833E-2,1.0179008E-2],"split_indices":[2,0,0,12,2,12,2,1,5,2,1,13,1,5,6,0,0,0,0,0,0,0,0,0,0,0,0,0,0,0,0],"split_type":[0,0,0,0,0,0,0,0,0,0,0,0,0,0,0,0,0,0,0,0,0,0,0,0,0,0,0,0,0,0,0],"sum_hessian":[2.831373E4,2.4750834E4,3.562897E3,9.10281E3,1.5648024E4,1.7865743E3,1.7763228E3,1.514458E3,7.5883516E3,3.3828862E3,1.2265139E4,1.6513457E3,1.3522859E2,1.4463405E3,3.299822E2,9.5285126E2,5.6160675E2,2.0922472E2,7.379127E3,4.4692795E2,2.9359583E3,1.2256385E4,8.75389E0,6.8869794E2,9.6264777E2,1.2836678E2,6.861808E0,1.3409926E3,1.0534794E2,3.9535828E0,3.2602863E2],"tree_param":{"num_deleted":"0","num_feature":"16","num_nodes":"31","size_leaf_vector":"1"}},{"base_weights":[-5.2762055E-1,-4.295876E-1,-5.6218165E-1,-3.2296687E-1,-4.9389374E-1,-5.392869E-1,-5.826368E-1,-3.903447E-1,-7.3859364E-2,7.047155E-2,-4.9980626E-1,-4.9884596E-1,-5.6559056E-1,-5.6582034E-1,-2.9723255E-2,-2.4479901E-2,-9.360255E-3,3.0131018E-2,-2.0952765E-2,-2.771008E-2,2.5587952E-2,-1.1114001E-2,-2.5313957E-2,-2.8013954E-2,-1.37213245E-2,-2.9089067E-2,-2.758728E-2,-2.9175678E-2,-2.6516214E-2],"categories":[],"categories_nodes":[],"categories_segments":[],"categories_sizes":[],"default_left":[0,0,0,0,0,0,0,0,0,0,0,0,0,0,0,0,0,0,0,0,0,0,0,0,0,0,0,0,0],"id":31,"left_children":[1,3,5,7,9,11,13,15,17,19,21,23,25,27,-1,-1,-1,-1,-1,-1,-1,-1,-1,-1,-1,-1,-1,-1,-1],"loss_changes":[5.4453125E1,2.8719421E1,5.273926E0,2.6616638E1,8.795898E0,5.7214355E0,9.145508E-1,2.5097382E1,7.946352E1,8.028725E0,4.555176E0,3.0626953E1,4.437256E-1,1.3346558E0,0E0,0E0,0E0,0E0,0E0,0E0,0E0,0E0,0E0,0E0,0E0,0E0,0E0,0E0,0E0],"parents":[2147483647,0,0,1,1,2,2,3,3,4,4,5,5,6,6,7,7,8,8,9,9,10,10,11,11,12,12,13,13],"right_children":[2,4,6,8,10,12,14,16,18,20,22,24,26,28,-1,-1,-1,-1,-1,-1,-1,-1,-1,-1,-1,-1,-1,-1,-1],"split_conditions":[5.8487287E-5,-2.3344536E-1,9.521261E-5,1.35324E0,1.840055E-5,-2.2495106E-1,-4.305111E-1,-5.2991927E-1,1.35476E0,7.7439266E-1,1.31432E0,-6.087614E-1,4.7715876E-1,-6.3607824E-1,-2.9723255E-2,-2.4479901E-2,-9.360255E-3,3.0131018E-2,-2.0952765E-2,-2.771008E-2,2.5587952E-2,-1.1114001E-2,-2.5313957E-2,-2.8013954E-2,-1.37213245E-2,-2.9089067E-2,-2.758728E-2,-2.9175678E-2,-2.6516214E-2],"split_indices":[2,4,2,11,2,4,4,4,13,4,12,4,4,4,0,0,0,0,0,0,0,0,0,0,0,0,0,0,0],"split_type":[0,0,0,0,0,0,0,0,0,0,0,0,0,0,0,0,0,0,0,0,0,0,0,0,0,0,0,0,0],"sum_hessian":[1.6142035E4,4.210979E3,1.1931057E4,1.5865212E3,2.6244575E3,5.642708E3,6.288348E3,1.2483141E3,3.3820712E2,2.7096544E1,2.597361E3,2.231628E3,3.41108E3,2.6168171E3,3.6715312E3,8.3763727E2,4.1067685E2,1.1401886E2,2.2418826E2,1.1111528E1,1.5985016E1,6.0004036E1,2.537357E3,1.7508496E3,4.807784E2,1.553433E3,1.8576471E3,1.7360387E3,8.807784E2],"tree_param":{"num_deleted":"0","num_feature":"16","num_nodes":"29","size_leaf_vector":"1"}},{"base_weights":[-9.339828E-2,3.1492785E-3,-1.1224929E-1,7.8736424E-2,-3.741454E-2,-1.3466147E-1,-4.6306837E-2,2.4800618E-1,2.321435E-2,-1.5612526E-1,-1.230942E-2,-1.0198811E-1,-1.869938E-1,-1.1628941E-1,-1.18250325E-2,9.528756E-3,4.1347288E-2,-4.7852322E-3,1.1008225E-2,-9.18717E-3,1.37014715E-2,5.758154E-4,-9.59924E-3,-5.5284235E-3,2.9227785E-3,-1.8300012E-2,-8.1291795E-3,2.4048064E-2,-6.418183E-3,1.900111E-2,-1.0283309E-3],"categories":[],"categories_nodes":[],"categories_segments":[],"categories_sizes":[],"default_left":[0,0,0,0,0,0,0,0,0,0,0,0,0,0,0,0,0,0,0,0,0,0,0,0,0,0,0,0,0,0,0],"id":32,"left_children":[1,3,5,7,9,11,13,15,17,19,21,23,25,27,29,-1,-1,-1,-1,-1,-1,-1,-1,-1,-1,-1,-1,-1,-1,-1,-1],"loss_changes":[3.9814987E1,1.09628315E1,2.7043152E1,1.1729495E1,6.932707E0,2.3336533E1,1.1205519E1,1.0093426E1,2.2068756E1,4.8748713E0,8.229074E0,1.1585999E1,2.2876312E1,1.1115547E1,1.0668608E1,0E0,0E0,0E0,0E0,0E0,0E0,0E0,0E0,0E0,0E0,0E0,0E0,0E0,0E0,0E0,0E0],"parents":[2147483647,0,0,1,1,2,2,3,3,4,4,5,5,6,6,7,7,8,8,9,9,10,10,11,11,12,12,13,13,14,14],"right_children":[2,4,6,8,10,12,14,16,18,20,22,24,26,28,30,-1,-1,-1,-1,-1,-1,-1,-1,-1,-1,-1,-1,-1,-1,-1,-1],"split_conditions":[-3.654044E-2,-4.422887E-1,2.7454589E-2,1.33431E0,1.8642849E1,1.34759E0,-5.2991927E-1,5.059494E1,-7.343225E-1,5.0137974E-6,1.35353E0,9.890159E-1,1.34863E0,-3.5118133E-2,-4.962165E-1,9.528756E-3,4.1347288E-2,-4.7852322E-3,1.1008225E-2,-9.18717E-3,1.37014715E-2,5.758154E-4,-9.59924E-3,-5.5284235E-3,2.9227785E-3,-1.8300012E-2,-8.1291795E-3,2.4048064E-2,-6.418183E-3,1.900111E-2,-1.0283309E-3],"split_indices":[8,4,8,12,3,11,4,3,4,9,11,4,11,6,4,0,0,0,0,0,0,0,0,0,0,0,0,0,0,0,0],"split_type":[0,0,0,0,0,0,0,0,0,0,0,0,0,0,0,0,0,0,0,0,0,0,0,0,0,0,0,0,0,0,0],"sum_hessian":[2.1874941E4,3.5735327E3,1.8301408E4,1.247669E3,2.3258638E3,1.3658268E4,4.643141E3,3.073096E2,9.403594E2,4.0510184E2,1.9207618E3,8.4103E3,5.2479673E3,1.531834E3,3.1113071E3,2.807848E2,2.6524796E1,5.866517E2,3.5370767E2,3.811997E2,2.3902136E1,1.6967072E3,2.2405478E2,7.9836533E3,4.2664667E2,6.280822E2,4.6198853E3,2.958497E1,1.502249E3,6.696762E1,3.0443394E3],"tree_param":{"num_deleted":"0","num_feature":"16","num_nodes":"31","size_leaf_vector":"1"}},{"base_weights":[3.605059E-1,3.229298E-1,3.715447E-1,2.8333148E-1,3.4222504E-1,3.771117E-1,2.9890582E-1,3.1848752E-1,1.8380459E-1,3.4786683E-1,1.7025243E-1,1.8241507E-1,3.790215E-1,1.5118466E-1,3.1677362E-1,-2.159944E-3,1.6542515E-2,1.0016858E-2,-1.9769033E-2,1.7770976E-2,1.1467478E-2,-2.7508635E-2,1.2036265E-2,1.1742267E-2,-2.1254454E-2,1.7973324E-2,1.9683735E-2,-9.101589E-4,1.6348358E-2,8.51776E-3,1.6968584E-2],"categories":[],"categories_nodes":[],"categories_segments":[],"categories_sizes":[],"default_left":[0,0,0,0,0,0,0,0,0,0,0,0,0,0,0,0,0,0,0,0,0,0,0,0,0,0,0,0,0,0,0],"id":33,"left_children":[1,3,5,7,9,11,13,15,17,19,21,23,25,27,29,-1,-1,-1,-1,-1,-1,-1,-1,-1,-1,-1,-1,-1,-1,-1,-1],"loss_changes":[1.1583008E1,4.803833E0,8.702881E0,7.314636E0,4.120331E0,7.45874E0,4.060913E0,6.9710846E0,5.368807E0,3.6512146E0,7.1790233E0,6.425017E0,5.6030273E0,5.0644274E0,4.5341187E0,0E0,0E0,0E0,0E0,0E0,0E0,0E0,0E0,0E0,0E0,0E0,0E0,0E0,0E0,0E0,0E0],"parents":[2147483647,0,0,1,1,2,2,3,3,4,4,5,5,6,6,7,7,8,8,9,9,10,10,11,11,12,12,13,13,14,14],"right_children":[2,4,6,8,10,12,14,16,18,20,22,24,26,28,30,-1,-1,-1,-1,-1,-1,-1,-1,-1,-1,-1,-1,-1,-1,-1,-1],"split_conditions":[-1.788109E-2,-4.962165E-1,7.064524E-5,-6.9779044E-1,1.36233E0,-3.5118133E-2,1.32677E0,1.1235955E1,5.8333332E1,9.094147E-3,-1.391731E-1,8.952084E-5,1.34346E0,7.1544716E1,-8.457278E-1,-2.159944E-3,1.6542515E-2,1.0016858E-2,-1.9769033E-2,1.7770976E-2,1.1467478E-2,-2.7508635E-2,1.2036265E-2,1.1742267E-2,-2.1254454E-2,1.7973324E-2,1.9683735E-2,-9.101589E-4,1.6348358E-2,8.51776E-3,1.6968584E-2],"split_indices":[7,4,9,4,12,6,13,1,1,6,4,14,12,1,4,0,0,0,0,0,0,0,0,0,0,0,0,0,0,0,0],"split_type":[0,0,0,0,0,0,0,0,0,0,0,0,0,0,0,0,0,0,0,0,0,0,0,0,0,0,0,0,0,0,0],"sum_hessian":[2.8212902E4,6.4130586E3,2.1799844E4,2.1062427E3,4.306816E3,2.024415E4,1.5556947E3,1.5548285E3,5.514142E2,4.169023E3,1.3779306E2,1.9758295E2,2.0046566E4,1.6888763E2,1.3868071E3,5.1306435E1,1.5035221E3,5.3674713E2,1.4667081E1,3.9173838E3,2.5163895E2,1.1671509E1,1.2612155E2,1.8245012E2,1.5132821E1,8.597969E3,1.1448598E4,8.646476E1,8.242288E1,1.8656186E2,1.2002452E3],"tree_param":{"num_deleted":"0","num_feature":"16","num_nodes":"31","size_leaf_vector":"1"}},{"base_weights":[-5.2572405E-1,-4.4760722E-1,-5.677831E-1,-3.4591797E-1,-5.082713E-1,-5.4764014E-1,-5.810309E-1,-4.3501815E-1,-1.0575425E-1,6.803696E-2,-5.128734E-1,-2.8827747E-2,-4.7525775E-1,-5.6268924E-1,-2.9528245E-2,-2.4809087E-2,-9.458392E-3,-1.3611368E-2,4.2833984E-3,-2.7786637E-2,2.8392429E-2,-1.2876137E-2,-2.5917007E-2,-1.4803789E-2,-2.7471244E-2,-2.8244128E-2,-5.2768993E-3],"categories":[],"categories_nodes":[],"categories_segments":[],"categories_sizes":[],"default_left":[0,0,0,0,0,0,0,0,0,0,0,0,0,0,0,0,0,0,0,0,0,0,0,0,0,0,0],"id":34,"left_children":[1,3,5,7,9,11,13,15,17,19,21,-1,23,25,-1,-1,-1,-1,-1,-1,-1,-1,-1,-1,-1,-1,-1],"loss_changes":[5.1418457E1,3.380835E1,2.4089355E0,4.4069E1,9.180847E0,8.248291E0,7.426758E-1,2.2512665E1,1.7842941E1,9.107983E0,4.642212E0,0E0,1.5359436E1,2.0701904E0,0E0,0E0,0E0,0E0,0E0,0E0,0E0,0E0,0E0,0E0,0E0,0E0,0E0],"parents":[2147483647,0,0,1,1,2,2,3,3,4,4,5,5,6,6,7,7,8,8,9,9,10,10,12,12,13,13],"right_children":[2,4,6,8,10,12,14,16,18,20,22,-1,24,26,-1,-1,-1,-1,-1,-1,-1,-1,-1,-1,-1,-1,-1],"split_conditions":[6.752699E-5,-2.3344536E-1,-4.1865975E-1,-5.3729963E-1,1.840055E-5,-6.3607824E-1,8.964549E-5,1.35403E0,1.3447E0,7.9600203E-1,1.31432E0,-2.8827747E-2,1.0180415E-4,1.36472E0,-2.9528245E-2,-2.4809087E-2,-9.458392E-3,-1.3611368E-2,4.2833984E-3,-2.7786637E-2,2.8392429E-2,-1.2876137E-2,-2.5917007E-2,-1.4803789E-2,-2.7471244E-2,-2.8244128E-2,-5.2768993E-3],"split_indices":[2,4,4,4,2,4,2,11,11,4,13,0,2,12,0,0,0,0,0,0,0,0,0,0,0,0,0],"split_type":[0,0,0,0,0,0,0,0,0,0,0,0,0,0,0,0,0,0,0,0,0,0,0,0,0,0,0],"sum_hessian":[1.5726327E4,5.507965E3,1.0218362E4,2.0605803E3,3.4473843E3,4.0709277E3,6.147434E3,1.502387E3,5.581934E2,2.7201834E1,3.4201826E3,2.9039233E3,1.1670042E3,2.1230662E3,4.0243682E3,1.2022649E3,3.0012216E2,2.9832697E2,2.598665E2,1.2050638E1,1.51511965E1,7.2695564E1,3.347487E3,3.430982E2,8.23906E2,2.1126938E3,1.0372177E1],"tree_param":{"num_deleted":"0","num_feature":"16","num_nodes":"27","size_leaf_vector":"1"}},{"base_weights":[-8.632947E-2,-1.4936504E-1,-2.7484093E-2,-2.131534E-1,-1.12715565E-1,-6.624111E-2,2.0317763E-2,-1.4659165E-1,-3.0584368E-1,4.8897663E-1,-1.14296935E-1,-2.4572265E-1,-5.8477275E-2,5.1966414E-2,-1.2021773E-2,-9.897533E-3,-6.395636E-4,-2.750808E-2,-1.3874516E-2,4.787367E-2,-1.5108517E-2,-1.139354E-2,-5.279239E-3,-1.3539458E-2,3.5792954E-2,-4.0935466E-4,-4.6694023E-3,8.19245E-3,1.1509621E-3,-1.956959E-3,1.06567545E-2],"categories":[],"categories_nodes":[],"categories_segments":[],"categories_sizes":[],"default_left":[0,0,0,0,0,0,0,0,0,0,0,0,0,0,0,0,0,0,0,0,0,0,0,0,0,0,0,0,0,0,0],"id":35,"left_children":[1,3,5,7,9,11,13,15,17,19,21,23,25,27,29,-1,-1,-1,-1,-1,-1,-1,-1,-1,-1,-1,-1,-1,-1,-1,-1],"loss_changes":[8.070613E1,2.453476E1,2.0852154E1,2.3598038E1,6.40609E0,8.646736E0,5.1591015E0,1.533791E1,1.093631E1,6.843827E0,6.5630875E0,6.3981905E0,1.0461466E1,8.246477E0,1.5233531E1,0E0,0E0,0E0,0E0,0E0,0E0,0E0,0E0,0E0,0E0,0E0,0E0,0E0,0E0,0E0,0E0],"parents":[2147483647,0,0,1,1,2,2,3,3,4,4,5,5,6,6,7,7,8,8,9,9,10,10,11,11,12,12,13,13,14,14],"right_children":[2,4,6,8,10,12,14,16,18,20,22,24,26,28,30,-1,-1,-1,-1,-1,-1,-1,-1,-1,-1,-1,-1,-1,-1,-1,-1],"split_conditions":[8.2844424E-5,5.177269E-5,1.2131748E-4,1.34759E0,1.31304E0,1.31562E0,-3.746025E-3,2.8107134E1,1.34832E0,7.740836E-5,1.32852E0,6.968888E1,1.34346E0,1.4603752E1,2.1226912E-4,-9.897533E-3,-6.395636E-4,-2.750808E-2,-1.3874516E-2,4.787367E-2,-1.5108517E-2,-1.139354E-2,-5.279239E-3,-1.3539458E-2,3.5792954E-2,-4.0935466E-4,-4.6694023E-3,8.19245E-3,1.1509621E-3,-1.956959E-3,1.06567545E-2],"split_indices":[2,2,2,13,12,11,0,3,13,2,11,3,11,3,2,0,0,0,0,0,0,0,0,0,0,0,0,0,0,0,0],"split_type":[0,0,0,0,0,0,0,0,0,0,0,0,0,0,0,0,0,0,0,0,0,0,0,0,0,0,0,0,0,0,0],"sum_hessian":[2.1757582E4,1.0504041E4,1.125354E4,3.8311365E3,6.6729043E3,6.214518E3,5.0390225E3,2.2313584E3,1.5997781E3,1.6683826E1,6.6562207E3,2.564043E2,5.958114E3,2.5464077E3,2.4926145E3,1.6120837E3,6.1927466E2,1.6443721E2,1.4353408E3,1.0346602E1,6.3372245E0,4.7242462E2,6.183796E3,2.5059032E2,5.8139954E0,2.4418203E3,3.5162935E3,5.224493E2,2.0239585E3,2.2254163E3,2.6719818E2],"tree_param":{"num_deleted":"0","num_feature":"16","num_nodes":"31","size_leaf_vector":"1"}},{"base_weights":[3.4871972E-1,3.0803242E-1,3.6076757E-1,3.1675112E-1,2.3256084E-1,3.6888364E-1,3.0644816E-1,2.889097E-1,3.467839E-1,3.0301237E-1,1.3172467E-1,3.531045E-1,3.885341E-1,2.0242004E-1,3.2600132E-1,1.8025046E-2,1.2990834E-2,2.1033468E-2,1.6294125E-2,1.8186687E-2,5.9526763E-3,-6.221796E-3,9.590798E-3,1.8340245E-2,1.39389755E-2,2.2281164E-2,1.8550761E-2,1.3977823E-2,-6.5774345E-3,2.0636689E-2,1.4868922E-2],"categories":[],"categories_nodes":[],"categories_segments":[],"categories_sizes":[],"default_left":[0,0,0,0,0,0,0,0,0,0,0,0,0,0,0,0,0,0,0,0,0,0,0,0,0,0,0,0,0,0,0],"id":36,"left_children":[1,3,5,7,9,11,13,15,17,19,21,23,25,27,29,-1,-1,-1,-1,-1,-1,-1,-1,-1,-1,-1,-1,-1,-1,-1,-1],"loss_changes":[1.3652832E1,4.1518555E0,9.435059E0,4.7109375E0,4.7111816E0,5.7036133E0,5.6726685E0,6.137787E0,4.1298523E0,4.3459396E0,4.285335E0,1.0547974E1,8.215576E0,1.1604027E1,5.7689056E0,0E0,0E0,0E0,0E0,0E0,0E0,0E0,0E0,0E0,0E0,0E0,0E0,0E0,0E0,0E0,0E0],"parents":[2147483647,0,0,1,1,2,2,3,3,4,4,5,5,6,6,7,7,8,8,9,9,10,10,11,11,12,12,13,13,14,14],"right_children":[2,4,6,8,10,12,14,16,18,20,22,24,26,28,30,-1,-1,-1,-1,-1,-1,-1,-1,-1,-1,-1,-1,-1,-1,-1,-1],"split_conditions":[-1.788109E-2,4.5862244E1,5.152994E-5,6.975647E-2,-1.4800344E-2,1.34565E0,-8.457278E-1,-8.746197E-1,3.786486E-1,1.34768E0,1.33318E0,8.703557E-1,1.34863E0,1.35306E0,-4.6561453E-1,1.8025046E-2,1.2990834E-2,2.1033468E-2,1.6294125E-2,1.8186687E-2,5.9526763E-3,-6.221796E-3,9.590798E-3,1.8340245E-2,1.39389755E-2,2.2281164E-2,1.8550761E-2,1.3977823E-2,-6.5774345E-3,2.0636689E-2,1.4868922E-2],"split_indices":[7,3,9,4,6,11,4,4,4,11,11,4,11,11,4,0,0,0,0,0,0,0,0,0,0,0,0,0,0,0,0],"split_type":[0,0,0,0,0,0,0,0,0,0,0,0,0,0,0,0,0,0,0,0,0,0,0,0,0,0,0,0,0,0,0],"sum_hessian":[2.8077557E4,6.420652E3,2.1656904E4,5.752866E3,6.6778564E2,1.8836652E4,2.8202517E3,2.9908594E3,2.762007E3,3.9194153E2,2.7584412E2,1.0457959E4,8.378693E3,4.4801917E2,2.3722324E3,8.60927E2,2.1299324E3,6.048315E2,2.1571755E3,2.939402E2,9.8001366E1,5.2209915E1,2.2363422E2,8.826944E3,1.6310151E3,1.9616809E3,6.4170127E3,3.6408884E2,8.393031E1,5.8528735E2,1.7869451E3],"tree_param":{"num_deleted":"0","num_feature":"16","num_nodes":"31","size_leaf_vector":"1"}},{"base_weights":[-5.1740646E-1,-4.7896567E-1,-5.4624E-1,-5.1607496E-1,-3.6108485E-1,-5.4728E-1,2.7260642E-2,-5.395804E-1,-3.9759898E-1,-4.5881182E-1,-2.4150875E-1,-4.4730093E-2,-5.4820377E-1,-3.7922937E-1,4.4348028E-2,-2.7344817E-2,-2.4316836E-2,4.9653784E-3,-2.6793463E-2,-2.9444665E-2,-2.1739203E-2,3.0790253E-2,-1.3834471E-2,-2.2956902E-2,3.861773E-2,-2.8482145E-2,-2.6588706E-2,-2.599124E-2,-3.725148E-3],"categories":[],"categories_nodes":[],"categories_segments":[],"categories_sizes":[],"default_left":[0,0,0,0,0,0,0,0,0,0,0,0,0,0,0,0,0,0,0,0,0,0,0,0,0,0,0,0,0],"id":37,"left_children":[1,3,5,7,9,11,13,15,17,19,21,23,25,27,-1,-1,-1,-1,-1,-1,-1,-1,-1,-1,-1,-1,-1,-1,-1],"loss_changes":[1.6751465E1,2.862732E1,5.2421875E0,1.3730103E1,1.8357437E1,4.036377E0,6.21279E0,1.3604736E0,5.727176E1,2.458664E0,2.1670837E1,6.158055E0,2.772461E0,4.8043752E-1,0E0,0E0,0E0,0E0,0E0,0E0,0E0,0E0,0E0,0E0,0E0,0E0,0E0,0E0,0E0],"parents":[2147483647,0,0,1,1,2,2,3,3,4,4,5,5,6,6,7,7,8,8,9,9,10,10,11,11,12,12,13,13],"right_children":[2,4,6,8,10,12,14,16,18,20,22,24,26,28,-1,-1,-1,-1,-1,-1,-1,-1,-1,-1,-1,-1,-1,-1,-1],"split_conditions":[-2.3344536E-1,-5.1877326E-1,1.6293751E0,1.35403E0,1.3447E0,-1.6290584E0,1.34991E0,-6.1909395E-1,1.35476E0,-2.9645221E-2,1.34509E0,1.34832E0,5.1877326E-1,5.951938E-3,4.4348028E-2,-2.7344817E-2,-2.4316836E-2,4.9653784E-3,-2.6793463E-2,-2.9444665E-2,-2.1739203E-2,3.0790253E-2,-1.3834471E-2,-2.2956902E-2,3.861773E-2,-2.8482145E-2,-2.6588706E-2,-2.599124E-2,-3.725148E-3],"split_indices":[4,4,5,13,11,5,11,4,13,7,13,11,4,7,0,0,0,0,0,0,0,0,0,0,0,0,0,0,0],"split_type":[0,0,0,0,0,0,0,0,0,0,0,0,0,0,0,0,0,0,0,0,0,0,0,0,0,0,0,0,0],"sum_hessian":[1.5348294E4,6.5857695E3,8.762524E3,5.0063687E3,1.5794006E3,8.746708E3,1.5815768E1,4.174583E3,8.317857E2,8.6754114E2,7.1185956E2,1.6139187E1,8.730569E3,1.111783E1,4.6979375E0,3.66212E3,5.12463E2,1.81131E2,6.506547E2,1.3159618E2,7.3594495E2,2.7409756E1,6.8444977E2,1.0998871E1,5.140315E0,3.7732148E3,4.9573545E3,7.124731E0,3.9930992E0],"tree_param":{"num_deleted":"0","num_feature":"16","num_nodes":"29","size_leaf_vector":"1"}},{"base_weights":[-7.9769045E-2,-1.506197E-1,-2.848504E-2,1.0831183E0,-1.5271914E-1,-5.2093737E-2,6.582808E-2,5.3247434E-1,7.772736E-2,-2.0930867E-1,-1.1442424E-1,2.8299275E-3,-7.1200036E-2,5.896375E-1,6.216003E-2,3.7701186E-2,1.1295642E-2,-7.7109905E-3,-1.4343098E-2,1.0639308E-2,-6.035536E-3,2.0800268E-2,-1.951902E-4,-4.3870113E-3,1.0279292E-3,4.4129252E-2,-1.6893035E-2,-2.7172416E-4,4.1098353E-3],"categories":[],"categories_nodes":[],"categories_segments":[],"categories_sizes":[],"default_left":[0,0,0,0,0,0,0,0,0,0,0,0,0,0,0,0,0,0,0,0,0,0,0,0,0,0,0,0,0],"id":38,"left_children":[1,3,5,7,9,11,13,15,-1,17,19,21,23,25,27,-1,-1,-1,-1,-1,-1,-1,-1,-1,-1,-1,-1,-1,-1],"loss_changes":[7.864101E1,2.3705353E1,2.7963531E1,3.212143E0,1.9639511E1,1.0540014E1,4.7945757E0,4.204936E-1,0E0,1.5596207E1,1.1161835E1,7.2163057E0,1.13111725E1,5.017152E0,3.3838177E0,0E0,0E0,0E0,0E0,0E0,0E0,0E0,0E0,0E0,0E0,0E0,0E0,0E0,0E0],"parents":[2147483647,0,0,1,1,2,2,3,3,4,4,5,5,6,6,7,7,9,9,10,10,11,11,12,12,13,13,14,14],"right_children":[2,4,6,8,10,12,14,16,-1,18,20,22,24,26,28,-1,-1,-1,-1,-1,-1,-1,-1,-1,-1,-1,-1,-1,-1],"split_conditions":[7.65811E-5,1.31304E0,1.4879505E-4,-9.883902E-3,5.0991457E-5,-2.050621E-2,1.31239E0,-1.2723588E-2,7.772736E-2,1.34749E0,-6.0641453E-2,8.421053E0,2.631025E-2,2.5272986E-2,-6.834559E-2,3.7701186E-2,1.1295642E-2,-7.7109905E-3,-1.4343098E-2,1.0639308E-2,-6.035536E-3,2.0800268E-2,-1.951902E-4,-4.3870113E-3,1.0279292E-3,4.4129252E-2,-1.6893035E-2,-2.7172416E-4,4.1098353E-3],"split_indices":[2,11,2,8,2,7,11,5,0,13,8,1,6,8,8,0,0,0,0,0,0,0,0,0,0,0,0,0,0],"split_type":[0,0,0,0,0,0,0,0,0,0,0,0,0,0,0,0,0,0,0,0,0,0,0,0,0,0,0,0,0],"sum_hessian":[2.1643475E4,9.087223E3,1.2556253E4,1.4562641E1,9.072659E3,1.004277E4,2.5134836E3,7.69921E0,6.863431E0,3.6598796E3,5.41278E3,2.5921458E3,7.4506235E3,1.6367743E1,2.497116E3,3.6220036E0,4.0772066E0,2.141608E3,1.5182716E3,1.0141274E2,5.311367E3,4.0593403E1,2.5515522E3,6.312747E3,1.1378765E3,1.247574E1,3.892002E0,5.7112665E2,1.9259893E3],"tree_param":{"num_deleted":"0","num_feature":"16","num_nodes":"29","size_leaf_vector":"1"}},{"base_weights":[3.343073E-1,3.4970334E-1,2.8171328E-1,3.6993712E-1,3.3128747E-1,2.9046085E-1,2.0927177E-1,-7.802286E-2,3.714611E-1,3.271582E-1,5.1134735E-1,2.6499188E-1,3.363692E-1,-2.740383E-1,2.3064902E-1,-2.4020972E-2,1.4931713E-2,1.6115721E-2,1.915329E-2,1.6499158E-2,4.446054E-4,-1.7705228E-2,2.6970098E-2,1.5537311E-2,1.2106379E-2,1.7417472E-2,5.5308584E-3,-2.7366346E-2,7.6405965E-3,1.422929E-2,1.9919146E-3],"categories":[],"categories_nodes":[],"categories_segments":[],"categories_sizes":[],"default_left":[0,0,0,0,0,0,0,0,0,0,0,0,0,0,0,0,0,0,0,0,0,0,0,0,0,0,0,0,0,0,0],"id":39,"left_children":[1,3,5,7,9,11,13,15,17,19,21,23,25,27,29,-1,-1,-1,-1,-1,-1,-1,-1,-1,-1,-1,-1,-1,-1,-1,-1],"loss_changes":[2.2461426E1,7.9067383E0,3.9404602E0,7.0323486E0,8.227417E0,6.4951477E0,7.1290283E0,5.5404983E0,5.7076416E0,9.922852E0,6.2934494E0,3.7187195E0,5.38591E0,3.5161328E0,6.7345047E0,0E0,0E0,0E0,0E0,0E0,0E0,0E0,0E0,0E0,0E0,0E0,0E0,0E0,0E0,0E0,0E0],"parents":[2147483647,0,0,1,1,2,2,3,3,4,4,5,5,6,6,7,7,8,8,9,9,10,10,11,11,12,12,13,13,14,14],"right_children":[2,4,6,8,10,12,14,16,18,20,22,24,26,28,30,-1,-1,-1,-1,-1,-1,-1,-1,-1,-1,-1,-1,-1,-1,-1,-1],"split_conditions":[1.2131748E-4,1.9716942E1,2.1226912E-4,1.1235955E1,1.36447E0,1.4447241E-2,1.31562E0,-7.343225E-1,-8.1473634E-5,1.36377E0,2.9316017E-5,1.33739E0,1.35709E0,2.8981024E-4,4.2288277E1,-2.4020972E-2,1.4931713E-2,1.6115721E-2,1.915329E-2,1.6499158E-2,4.446054E-4,-1.7705228E-2,2.6970098E-2,1.5537311E-2,1.2106379E-2,1.7417472E-2,5.5308584E-3,-2.7366346E-2,7.6405965E-3,1.422929E-2,1.9919146E-3],"split_indices":[2,3,2,1,12,7,11,4,10,11,2,13,13,2,3,0,0,0,0,0,0,0,0,0,0,0,0,0,0,0,0],"split_type":[0,0,0,0,0,0,0,0,0,0,0,0,0,0,0,0,0,0,0,0,0,0,0,0,0,0,0,0,0,0,0],"sum_hessian":[2.7860203E4,2.1547025E4,6.3131772E3,1.0257676E4,1.1289351E4,5.630289E3,6.828882E2,3.4608547E1,1.0223067E4,1.1039013E4,2.5033728E2,3.6256365E3,2.0046527E3,2.8424751E1,6.5446344E2,1.6599361E1,1.8009186E1,1.958299E3,8.264768E3,1.0941856E4,9.7156624E1,7.495257E0,2.4284203E2,1.2038975E3,2.4217393E3,1.9031147E3,1.01537895E2,1.7157505E1,1.1267246E1,5.0985144E2,1.44612E2],"tree_param":{"num_deleted":"0","num_feature":"16","num_nodes":"31","size_leaf_vector":"1"}},{"base_weights":[-5.1160824E-1,-3.9768204E-1,-5.45695E-1,-4.5104986E-1,-3.0833104E-1,-5.129776E-1,-5.6596833E-1,-4.1043305E-1,-5.048234E-1,-2.01907E-1,-4.6818936E-1,-4.943185E-1,-5.528386E-1,-5.449349E-1,-2.8716048E-2,-8.70294E-3,-2.0865513E-2,-8.239369E-3,-2.5757087E-2,-1.5566063E-2,2.6588738E-2,2.5029466E-2,-2.3932328E-2,-2.2740256E-2,-2.5831228E-2,-2.040693E-2,-2.7909324E-2,-2.7291719E-2,-3.7773263E-3],"categories":[],"categories_nodes":[],"categories_segments":[],"categories_sizes":[],"default_left":[0,0,0,0,0,0,0,0,0,0,0,0,0,0,0,0,0,0,0,0,0,0,0,0,0,0,0,0,0],"id":40,"left_children":[1,3,5,7,9,11,13,15,17,19,21,23,25,27,-1,-1,-1,-1,-1,-1,-1,-1,-1,-1,-1,-1,-1,-1,-1],"loss_changes":[5.783618E1,1.6294983E1,7.3398438E0,4.500641E0,2.1884232E1,3.0079346E0,9.3310547E-1,1.9322357E0,3.1542053E0,6.256575E1,5.462715E0,2.421997E0,8.542175E-1,8.182373E-1,0E0,0E0,0E0,0E0,0E0,0E0,0E0,0E0,0E0,0E0,0E0,0E0,0E0,0E0,0E0],"parents":[2147483647,0,0,1,1,2,2,3,3,4,4,5,5,6,6,7,7,8,8,9,9,10,10,11,11,12,12,13,13],"right_children":[2,4,6,8,10,12,14,16,18,20,22,24,26,28,-1,-1,-1,-1,-1,-1,-1,-1,-1,-1,-1,-1,-1,-1,-1],"split_conditions":[5.5424873E-5,1.34933E0,8.5591295E-5,3.7776115E-6,1.35476E0,1.448736E-5,1.0180415E-4,1.31432E0,2.599954E-5,1.35403E0,4.8452826E0,1.6338516E1,-9.716139E-3,9.115646E1,-2.8716048E-2,-8.70294E-3,-2.0865513E-2,-8.239369E-3,-2.5757087E-2,-1.5566063E-2,2.6588738E-2,2.5029466E-2,-2.3932328E-2,-2.2740256E-2,-2.5831228E-2,-2.040693E-2,-2.7909324E-2,-2.7291719E-2,-3.7773263E-3],"split_indices":[2,12,2,9,13,9,2,11,2,13,3,3,6,1,0,0,0,0,0,0,0,0,0,0,0,0,0,0,0],"split_type":[0,0,0,0,0,0,0,0,0,0,0,0,0,0,0,0,0,0,0,0,0,0,0,0,0,0,0,0,0],"sum_hessian":[1.4948091E4,3.4454033E3,1.15026875E4,2.1545056E3,1.2908976E3,4.410787E3,7.091901E3,1.2323246E3,9.221811E2,7.76328E2,5.145696E2,3.0135388E3,1.3972484E3,2.0346144E3,5.057286E3,3.558403E1,1.1967406E3,2.765913E1,8.945219E2,6.760796E2,1.00248375E2,4.994553E0,5.09575E2,1.0950813E3,1.9184575E3,5.2555046E1,1.3446934E3,2.0305605E3,4.0537534E0],"tree_param":{"num_deleted":"0","num_feature":"16","num_nodes":"29","size_leaf_vector":"1"}},{"base_weights":[-7.215318E-2,-1.4490665E-1,-1.944999E-2,9.891387E-1,-1.4671724E-1,-4.5293108E-2,6.774761E-2,1.0797705E-2,1.2723287E0,-1.9919437E-1,-1.0870835E-1,-2.0996644E-1,-3.8228497E-2,5.4259056E-1,6.2533475E-2,7.246459E-2,3.3142682E-2,-7.013095E-3,-1.4145891E-2,-5.5536213E-3,3.697264E-2,1.4729365E-2,-1.2177572E-2,2.3081708E-5,-3.1106041E-3,3.6602862E-2,-2.7094264E-2,4.6087825E-3,5.857178E-4],"categories":[],"categories_nodes":[],"categories_segments":[],"categories_sizes":[],"default_left":[0,0,0,0,0,0,0,0,0,0,0,0,0,0,0,0,0,0,0,0,0,0,0,0,0,0,0,0,0],"id":41,"left_children":[1,3,5,7,9,11,13,-1,15,17,19,21,23,25,27,-1,-1,-1,-1,-1,-1,-1,-1,-1,-1,-1,-1,-1,-1],"loss_changes":[8.274836E1,1.8760208E1,2.8208517E1,2.9177809E0,1.8034424E1,1.1224869E1,7.0518236E0,0E0,1.682949E-1,1.871614E1,1.0613342E1,6.7985916E0,8.592316E0,6.7569084E0,4.2649326E0,0E0,0E0,0E0,0E0,0E0,0E0,0E0,0E0,0E0,0E0,0E0,0E0,0E0,0E0],"parents":[2147483647,0,0,1,1,2,2,3,3,4,4,5,5,6,6,8,8,9,9,10,10,11,11,12,12,13,13,14,14],"right_children":[2,4,6,8,10,12,14,-1,16,18,20,22,24,26,28,-1,-1,-1,-1,-1,-1,-1,-1,-1,-1,-1,-1,-1,-1],"split_conditions":[7.65811E-5,1.31304E0,1.438401E-4,-2.3274671E-2,5.177269E-5,1.31563E0,1.31304E0,1.0797705E-2,7.323405E-6,1.34749E0,9.095351E-2,2E1,-5.236741E-1,7.39726E1,5.0315E-1,7.246459E-2,3.3142682E-2,-7.013095E-3,-1.4145891E-2,-5.5536213E-3,3.697264E-2,1.4729365E-2,-1.2177572E-2,2.3081708E-5,-3.1106041E-3,3.6602862E-2,-2.7094264E-2,4.6087825E-3,5.857178E-4],"split_indices":[2,12,2,7,2,12,13,0,14,13,8,1,0,1,0,0,0,0,0,0,0,0,0,0,0,0,0,0,0],"split_type":[0,0,0,0,0,0,0,0,0,0,0,0,0,0,0,0,0,0,0,0,0,0,0,0,0,0,0,0,0],"sum_hessian":[2.1580594E4,9.065073E3,1.25155205E4,1.3580615E1,9.051493E3,9.65462E3,2.8608997E3,4.11316E0,9.467455E0,3.8003208E3,5.251172E3,3.9597095E2,9.258649E3,2.9954184E1,2.8309456E3,6.269229E0,3.1982262E0,2.2319438E3,1.5683771E3,5.2374424E3,1.3729232E1,2.4227362E1,3.717436E2,3.5434172E3,5.7152324E3,2.5775894E1,4.17829E0,1.787503E3,1.0434425E3],"tree_param":{"num_deleted":"0","num_feature":"16","num_nodes":"29","size_leaf_vector":"1"}},{"base_weights":[3.1980884E-1,3.3042744E-1,2.471431E-1,3.008984E-1,3.4519148E-1,-1.7632723E-1,2.5022238E-1,2.3110911E-1,3.147855E-1,4.182432E-1,3.3885714E-1,8.16646E-2,-3.8708225E-2,2.2362968E-1,2.9374033E-1,1.35313E-2,-1.7271143E-3,5.0715473E-3,1.5988905E-2,-4.530662E-2,2.1178588E-2,1.5001777E-2,1.8133966E-2,-2.1911252E-2,2.2594988E-2,1.0671164E-2,2.4497334E-2,1.6651094E-2,6.150796E-3],"categories":[],"categories_nodes":[],"categories_segments":[],"categories_sizes":[],"default_left":[0,0,0,0,0,0,0,0,0,0,0,0,0,0,0,0,0,0,0,0,0,0,0,0,0,0,0,0,0],"id":42,"left_children":[1,3,5,7,9,11,13,15,17,19,21,23,-1,25,27,-1,-1,-1,-1,-1,-1,-1,-1,-1,-1,-1,-1,-1,-1],"loss_changes":[2.131372E1,1.0442139E1,4.6593323E0,7.7493896E0,7.317505E0,4.0945077E0,4.0010834E0,1.4110321E1,7.1349487E0,9.430801E0,1.3614624E1,3.8864532E0,0E0,5.835739E0,8.876526E0,0E0,0E0,0E0,0E0,0E0,0E0,0E0,0E0,0E0,0E0,0E0,0E0,0E0,0E0],"parents":[2147483647,0,0,1,1,2,2,3,3,4,4,5,5,6,6,7,7,8,8,9,9,10,10,11,11,13,13,14,14],"right_children":[2,4,6,8,10,12,14,16,18,20,22,24,-1,26,28,-1,-1,-1,-1,-1,-1,-1,-1,-1,-1,-1,-1,-1,-1],"split_conditions":[1.438401E-4,-7.1751857E-1,1.31239E0,1.33306E0,1.32852E0,1.7078496E-4,4.709677E-1,4.10556E1,-8.219977E-1,1.840055E-5,1.34346E0,7.370446E-4,-3.8708225E-2,1.36281E0,2.1226912E-4,1.35313E-2,-1.7271143E-3,5.0715473E-3,1.5988905E-2,-4.530662E-2,2.1178588E-2,1.5001777E-2,1.8133966E-2,-2.1911252E-2,2.2594988E-2,1.0671164E-2,2.4497334E-2,1.6651094E-2,6.150796E-3],"split_indices":[2,0,12,12,12,2,0,3,5,2,12,7,0,13,2,0,0,0,0,0,0,0,0,0,0,0,0,0,0],"split_type":[0,0,0,0,0,0,0,0,0,0,0,0,0,0,0,0,0,0,0,0,0,0,0,0,0,0,0,0,0],"sum_hessian":[2.7727414E4,2.4189127E4,3.5382874E3,8.069989E3,1.6119139E4,2.5136936E1,3.5131504E3,1.3422423E3,6.7277466E3,1.2809806E3,1.4838158E4,1.816247E1,6.9744673E0,2.1844355E3,1.3287147E3,1.1684163E3,1.7382608E2,1.5431937E2,6.5734272E3,4.4558735E0,1.2765247E3,5.647827E3,9.190331E3,7.478047E0,1.06844225E1,2.1055437E3,7.8891914E1,1.0794062E3,2.4930847E2],"tree_param":{"num_deleted":"0","num_feature":"16","num_nodes":"29","size_leaf_vector":"1"}},{"base_weights":[-5.077904E-1,-4.6659747E-1,-5.388054E-1,-5.0600475E-1,-3.4373504E-1,-5.398787E-1,-1.2329665E-2,-5.3062713E-1,-3.8073578E-1,-2.6700005E-1,-5.395736E-1,-5.6568694E-1,-5.203887E-1,-3.6409748E-1,5.450884E-1,-2.8780354E-2,-2.6010713E-2,5.850322E-3,-2.6538137E-2,-2.7994765E-2,-9.063824E-3,-8.034897E-3,-2.7829323E-2,4.295754E-3,-2.8338432E-2,-2.4296965E-2,-2.7792646E-2,-2.5092086E-2,-6.3849003E-3,-4.1457798E-4,4.8891205E-2],"categories":[],"categories_nodes":[],"categories_segments":[],"categories_sizes":[],"default_left":[0,0,0,0,0,0,0,0,0,0,0,0,0,0,0,0,0,0,0,0,0,0,0,0,0,0,0,0,0,0,0],"id":43,"left_children":[1,3,5,7,9,11,13,15,17,19,21,23,25,27,29,-1,-1,-1,-1,-1,-1,-1,-1,-1,-1,-1,-1,-1,-1,-1,-1],"loss_changes":[1.8388916E1,3.0203613E1,4.692871E0,1.444397E1,2.2800308E1,3.8806152E0,3.717054E0,1.5579834E0,5.8573227E1,2.7491241E1,2.6748047E0,2.5576172E0,5.522217E0,3.136829E-1,1.7665794E0,0E0,0E0,0E0,0E0,0E0,0E0,0E0,0E0,0E0,0E0,0E0,0E0,0E0,0E0,0E0,0E0],"parents":[2147483647,0,0,1,1,2,2,3,3,4,4,5,5,6,6,7,7,8,8,9,9,10,10,11,11,12,12,13,13,14,14],"right_children":[2,4,6,8,10,12,14,16,18,20,22,24,26,28,30,-1,-1,-1,-1,-1,-1,-1,-1,-1,-1,-1,-1,-1,-1,-1,-1],"split_conditions":[-2.3344536E-1,-5.1877326E-1,1.6293751E0,1.35403E0,1.7970663E-2,5.1877326E-1,1.35001E0,-3.157325E-2,1.35476E0,-3.285789E-2,-6.5691173E-1,-1.6290584E0,8.7672675E-1,5.951938E-3,1.1923013E-6,-2.8780354E-2,-2.6010713E-2,5.850322E-3,-2.6538137E-2,-2.7994765E-2,-9.063824E-3,-8.034897E-3,-2.7829323E-2,4.295754E-3,-2.8338432E-2,-2.4296965E-2,-2.7792646E-2,-2.5092086E-2,-6.3849003E-3,-4.1457798E-4,4.8891205E-2],"split_indices":[4,4,5,13,8,4,13,8,13,8,5,5,4,7,9,0,0,0,0,0,0,0,0,0,0,0,0,0,0,0,0],"split_type":[0,0,0,0,0,0,0,0,0,0,0,0,0,0,0,0,0,0,0,0,0,0,0,0,0,0,0,0,0,0,0],"sum_hessian":[1.458895E4,6.273186E3,8.315764E3,4.7473774E3,1.5258088E3,8.298819E3,1.69445E1,3.9648308E3,7.8254645E2,1.0979607E3,4.2784814E2,3.5585945E3,4.7402246E3,1.0601233E1,6.3432674E0,7.351133E2,3.2297175E3,1.8129308E2,6.0125336E2,2.4733836E2,8.5062225E2,1.8835176E1,4.0901297E2,5.7676287E0,3.552827E3,2.4119714E3,2.3282532E3,5.988831E0,4.6124015E0,3.214027E0,3.1292405E0],"tree_param":{"num_deleted":"0","num_feature":"16","num_nodes":"31","size_leaf_vector":"1"}},{"base_weights":[-6.6654935E-2,-1.3242812E-1,-1.964805E-2,4.2361882E-1,-1.387065E-1,-4.340449E-2,6.0131114E-2,6.709585E-1,-1.2574355E-1,-1.0200687E-1,-1.9276647E-1,3.1956723E-3,-7.254038E-2,6.457552E-2,-3.9169842E-1,6.620313E-2,2.3385167E-2,1.4285018E-2,-2.0175343E-2,-5.8070174E-3,9.215791E-3,-1.322376E-2,-5.7130475E-3,1.7664744E-2,-3.2377147E-4,-6.7916014E-3,-1.2986618E-3,4.7765966E-4,4.906728E-3,2.43043E-3,-2.6872864E-2],"categories":[],"categories_nodes":[],"categories_segments":[],"categories_sizes":[],"default_left":[0,0,0,0,0,0,0,0,0,0,0,0,0,0,0,0,0,0,0,0,0,0,0,0,0,0,0,0,0,0,0],"id":44,"left_children":[1,3,5,7,9,11,13,15,17,19,21,23,25,27,29,-1,-1,-1,-1,-1,-1,-1,-1,-1,-1,-1,-1,-1,-1,-1,-1],"loss_changes":[6.591146E1,3.1079117E1,2.356916E1,1.3598213E1,1.7413895E1,1.300992E1,5.7554893E0,8.505283E0,3.7401862E0,2.121054E1,1.9966232E1,1.2486373E1,1.7373085E1,5.2183332E0,1.8190637E0,0E0,0E0,0E0,0E0,0E0,0E0,0E0,0E0,0E0,0E0,0E0,0E0,0E0,0E0,0E0,0E0],"parents":[2147483647,0,0,1,1,2,2,3,3,4,4,5,5,6,6,7,7,8,8,9,9,10,10,11,11,12,12,13,13,14,14],"right_children":[2,4,6,8,10,12,14,16,18,20,22,24,26,28,30,-1,-1,-1,-1,-1,-1,-1,-1,-1,-1,-1,-1,-1,-1,-1,-1],"split_conditions":[7.65811E-5,1.31404E0,1.438401E-4,6.672202E-3,1.34759E0,-5.236741E-1,9.986295E-1,-5.591929E-1,-4.363309E-3,1.34665E0,5.5424873E-5,-6.5691173E-1,-2.923717E-1,-5.2991927E-1,2.9230978E1,6.620313E-2,2.3385167E-2,1.4285018E-2,-2.0175343E-2,-5.8070174E-3,9.215791E-3,-1.322376E-2,-5.7130475E-3,1.7664744E-2,-3.2377147E-4,-6.7916014E-3,-1.2986618E-3,4.7765966E-4,4.906728E-3,2.43043E-3,-2.6872864E-2],"split_indices":[2,12,2,8,13,0,4,4,4,13,2,5,4,4,3,0,0,0,0,0,0,0,0,0,0,0,0,0,0,0,0],"split_type":[0,0,0,0,0,0,0,0,0,0,0,0,0,0,0,0,0,0,0,0,0,0,0,0,0,0,0,0,0,0,0],"sum_hessian":[2.1318037E4,8.884628E3,1.2433408E4,9.84549E1,8.786173E3,9.580891E3,2.8525178E3,6.773651E1,3.0718388E1,5.2351084E3,3.5510652E3,3.6861401E3,5.8947505E3,2.825581E3,2.6936686E1,1.4768325E1,5.296819E1,1.2368565E1,1.8349823E1,4.989415E3,2.4569339E2,1.8546327E3,1.6964324E3,9.8133194E1,3.5880068E3,2.4978647E3,3.3968857E3,1.0709575E3,1.7546237E3,6.8651166E0,2.0071568E1],"tree_param":{"num_deleted":"0","num_feature":"16","num_nodes":"31","size_leaf_vector":"1"}},{"base_weights":[3.059623E-1,3.1413186E-1,2.4091433E-1,2.8251007E-1,3.300934E-1,2.5692067E-1,1.621458E-1,2.3179199E-1,3.161319E-1,3.579736E-1,3.0328777E-1,2.2374655E-1,3.1806326E-1,9.672986E-2,3.420977E-1,1.5519957E-2,9.146102E-3,1.7030222E-2,1.1902992E-2,1.5296404E-2,1.934833E-2,2.2863477E-2,1.4460998E-2,1.353582E-2,-2.3323542E-3,2.2168677E-2,1.2977295E-2,1.4262429E-2,1.252591E-3,9.972291E-4,2.3565002E-2],"categories":[],"categories_nodes":[],"categories_segments":[],"categories_sizes":[],"default_left":[0,0,0,0,0,0,0,0,0,0,0,0,0,0,0,0,0,0,0,0,0,0,0,0,0,0,0,0,0,0,0],"id":45,"left_children":[1,3,5,7,9,11,13,15,17,19,21,23,25,27,29,-1,-1,-1,-1,-1,-1,-1,-1,-1,-1,-1,-1,-1,-1,-1,-1],"loss_changes":[1.4530273E1,1.2229492E1,3.830246E0,1.3903992E1,1.2012695E1,5.102478E0,6.104327E0,1.2510147E1,9.33136E0,1.186969E1,1.7793823E1,2.1055618E1,6.446129E0,5.1785355E0,5.759737E0,0E0,0E0,0E0,0E0,0E0,0E0,0E0,0E0,0E0,0E0,0E0,0E0,0E0,0E0,0E0,0E0],"parents":[2147483647,0,0,1,1,2,2,3,3,4,4,5,5,6,6,7,7,8,8,9,9,10,10,11,11,12,12,13,13,14,14],"right_children":[2,4,6,8,10,12,14,16,18,20,22,24,26,28,30,-1,-1,-1,-1,-1,-1,-1,-1,-1,-1,-1,-1,-1,-1,-1,-1],"split_conditions":[1.4879505E-4,-7.1751857E-1,4.1432457E1,-1.9936794E-1,3.4899496E-2,-1.5212339E-1,5.819488E1,-8.9879405E-1,3.239654E1,-8.571673E-1,1.32852E0,-3.1730467E-1,1.33613E0,3.1147541E1,1.6644485E-4,1.5519957E-2,9.146102E-3,1.7030222E-2,1.1902992E-2,1.5296404E-2,1.934833E-2,2.2863477E-2,1.4460998E-2,1.353582E-2,-2.3323542E-3,2.2168677E-2,1.2977295E-2,1.4262429E-2,1.252591E-3,9.972291E-4,2.3565002E-2],"split_indices":[2,0,3,4,4,4,3,4,3,4,13,4,13,1,2,0,0,0,0,0,0,0,0,0,0,0,0,0,0,0,0],"split_type":[0,0,0,0,0,0,0,0,0,0,0,0,0,0,0,0,0,0,0,0,0,0,0,0,0,0,0,0,0,0,0],"sum_hessian":[2.748373E4,2.4413705E4,3.0700251E3,8.195709E3,1.6217995E4,2.5496555E3,5.203697E2,3.270339E3,4.92537E3,7.9436094E3,